-2.167231885206191144e-01,3.663691491077591955e-02,4.013917038616827693e-01,-1.012232889255946233e-01,2.513266822370719966e-01,1.390577038970900459e-01,2.243535877834249570e-01,-2.832721886061098093e-01,4.116384801422481310e-01,-1.272277847743453760e-01,-1.376651114986461311e-01,-1.476881605141249221e-01,3.444987668937344871e-01,1.410967868035830630e-01,-2.672006722263564615e-02,8.304170000812016728e-02,4.363321462894009795e-01,-4.839347647539191666e-01,-1.775434034614318257e-01,3.839983354557539030e-01,-1.160705611078013400e-01,1.438321520398792019e-01,1.523126292373614410e-01,1.387374988748134585e-01,-1.754484377039313703e-01,-2.121947272750143165e-01,-1.485727219482178008e-01,5.618965824317179170e-02,-3.086416111546207430e-01,-3.110234067136717906e-01,-2.457936316383263486e-01,-8.251322149313455867e-02,-4.833028517521528178e-01,4.323394873970309860e-01,-3.049786569094973254e-01,-3.600541095726783603e-01,-3.210837332420104495e-01,1.571621789026874660e-01,-4.759053345435120264e-01,4.585135863930641653e-01,-1.000443698688069372e-02,-4.617354025735043166e-03,1.781397986036428183e-01,1.355121907802683268e-01,-2.738126377009929557e-01,2.016703241837956018e-01,-9.552636896291877289e-02,-8.373497481589309288e-02,4.040671857767269559e-01,1.367273393701181616e-01,2.074169683330779890e-01,5.022697395430752998e-02,4.239315699825743078e-01,1.431570832297550666e-01,-2.295806232736549157e-01,-4.915483858319951160e-01,5.370325282825594293e-02,-1.797243776010031269e-01,3.560143560072286384e-01,1.046551554375257931e-01,1.821411215964962027e-01,-3.345772986599085952e-01,-4.886623176060248541e-01,2.980538331797351059e-01,1.132044692008401521e-01,-3.422824607710384104e-02,-1.525617971869810408e-01,2.109892735099001548e-01,-2.612388934934484208e-02,3.942187403424899372e-01,-2.458930475334285548e-01,1.779032531006030649e-02,-4.755830502898950041e-02,8.477230004161717680e-02,-4.536814190343042563e-01,4.444920983310481910e-01,1.250279279283981193e-01,4.019702848543504903e-02,-4.196645540947330222e-02,-4.925188282089947300e-01,-7.843101989197520663e-02,4.380227095402807747e-01,3.438771221413797763e-01,-3.932891649528039713e-01,4.419699719637948387e-01,3.094460451882310448e-01,3.375416787695340037e-02,-1.777000054312739552e-01,3.654332135384535940e-01,-1.517256642957270918e-01,3.861845946757422876e-01,8.019586341550832831e-02,2.958512705293814271e-02,-4.598335450192619911e-01,-5.934954684127780045e-02,2.422955236866896067e-01,4.605455719913871260e-01,-2.633945041193737069e-01,-4.384539338468362857e-02,1.704045138632606093e-01,-1.624186044058025802e-01,-1.321063099087039783e-01,9.638755366517925971e-02,-2.154254404761556385e-01,-6.828757176069022439e-02,2.509257786233443088e-01,-4.435426041115158036e-01,3.933330133235682924e-01,-2.382809105803843641e-01,-7.480309119560701880e-02,1.504594986858418526e-01,-1.829293991067051373e-01,-9.572624952695474310e-02,2.625452903971028373e-01,8.482257842501206291e-02,-4.877930066660779440e-01,-2.158004056671769533e-02,-1.579349697364206273e-01,-2.096317076023774817e-01,3.722492173624221135e-01,-4.219877774104079382e-01,-4.341241191051040671e-01,2.419233710207423504e-01,4.560865822432069727e-01,-1.617177741041921912e-01,3.831456598131757207e-01,1.812959119636795569e-01,-3.635728291660808020e-01,2.814824887735232206e-01,-1.882656173076737716e-01,-1.380373281331263025e-01,-4.987719251895006423e-01,-3.535283038226580965e-01,-4.190458504674354767e-01,-1.819141356996528680e-01,-3.421837494320497663e-01,2.547745214611578657e-01,-4.468368786241017077e-01,2.253627814650027705e-01,7.634539179331056857e-02,-3.365030650098042031e-01,4.163075475192906660e-01,1.166375793644728320e-01,-1.456447310897667213e-01,2.084336390299996733e-01,-3.322125602285207480e-01,2.446022134062050268e-01,3.774475359019192622e-01,4.684895817115289907e-01,-3.607669011732923536e-01,-7.024554737193067222e-02,3.881606971109189397e-01,-3.454774711059721559e-01,4.049855968075255497e-02,-1.793002823070519725e-01,-9.074790522854259134e-02,-1.418182851359847119e-01,1.517254838610606615e-01,-2.767847695814462661e-01,-4.514320188806448808e-01,4.625321879743167219e-01,-6.461720502191259374e-02,-2.221442347392706962e-01,-4.119464932514970146e-01,-7.222351962429363059e-02,-1.664077511771749895e-01,-3.637531088750827202e-01,-2.046391184382135853e-01,-4.967671165939667732e-01,1.119189076938119642e-01,3.230008270729206599e-01,4.050396859150803275e-01,-1.715158067353842464e-01,-3.077382920070185213e-01,4.584200465917063205e-01,-2.053417936077501782e-01,2.574380778151141858e-01,3.404765599090402439e-01,-4.678849978857757552e-01,-2.138965955878574521e-01,-2.951632167485245262e-01,4.485327838297902270e-01,1.432609510987034040e-01,1.107041764591069066e-01,4.673527741944800695e-01,-1.814871832010003239e-01,-8.540825210125468914e-02,-2.061732948042425129e-01,2.630248340051661859e-01,-1.316226947690735116e-04,1.690326598995893770e-01,3.320194867561380159e-01,-4.269728972888143792e-01,3.113212779941052499e-01,-2.812677222318620274e-01,-2.581225859970062153e-01,3.314620547657909366e-02,2.293837408939850553e-01,-2.891056899360963106e-01,1.843496943246328845e-01,3.310830465315955928e-01,3.711425442296556465e-01,3.105669206975512076e-01,-1.422027310695443969e-01,-5.040794114624203015e-02,2.365539807468034494e-01,-1.787203978571527685e-02,4.551394044709755615e-01,-2.234519976627624693e-02,-3.012740069797700260e-01,-1.916976708902393689e-01,-1.439318453859610436e-01,4.398036123106729978e-02,-3.903726274250444161e-01,3.940858961822455431e-01,3.069052928999160823e-01,3.911910649837989640e-01,1.279459869618143619e-01,2.091158535178527789e-02,-5.677627239878435539e-02,-5.388993748135839645e-02,-2.239616395277155281e-02,9.961433032527799991e-02,-3.808110911078799177e-04,-2.653385252516107240e-01,-2.816196232406575906e-01,-4.793354199502120050e-01,-2.518982807879297514e-01,1.757119583270528862e-01,-4.531701522364943724e-01,3.391288379874898284e-01,4.472375123372274164e-01,-1.595399206419534366e-01,3.005545354329759444e-01,4.476910272878156238e-01,4.197561015506661164e-01,2.775974726636367684e-01,2.027656467636117510e-01,-2.062415994930469898e-01,-1.485005741488856223e-01,1.516796854823475593e-01,4.791006754180405780e-01,-1.818177806773568772e-01,6.522919979918606614e-03,4.491676930653725197e-01,1.892303961000383339e-01,1.153359808565646016e-02,3.947396908349741773e-01,-3.453636189417927937e-01,8.329774266232015112e-02,3.114319188546301742e-01,2.261558742392464350e-01,-4.825452644702782345e-01,3.314430338528290276e-01,-4.711747584128400668e-02,7.040459495984630056e-02,-2.647971807390685495e-01,-9.405696990278811231e-02,-1.711591688619582552e-01,-2.344708310097718407e-01,3.931568430125333968e-01,-2.816615961444199900e-01,1.564959016479501308e-01,4.054607123562097293e-01,2.530666994577853712e-01,-2.950606739556107527e-01,3.291588209050161362e-01,1.859146491190530881e-01,1.926324870010371892e-01,-5.781891032317676427e-02,3.578556825412140263e-01,-3.319510476286267053e-01,3.994714651089784629e-01,3.098008043471923711e-01,-9.316266567404385412e-02,-4.324080232869420559e-02,2.149372778620661784e-01,-3.306676534008452517e-01,4.854125179909553056e-01,-2.881811945115583251e-01,-2.485627350393596613e-01,4.018882464562887336e-01,1.153787129761074670e-01,4.858401103468352744e-01,-4.773094663761048295e-01,-4.408645638633993391e-01,-1.545306435507443066e-01,-4.102494004645514947e-01,4.208827009268885089e-01,4.646455612670195023e-01,-3.219561175791000318e-01,4.831219870183655063e-01,3.086278782867528658e-01,3.761132665984636692e-01
9.935864941783223436e-03,-8.527166641105066169e-02,3.967356097004258730e-01,-4.771788154257855519e-01,-2.456065663663308252e-01,4.710257455963899886e-01,-1.216691310416039284e-01,-3.503151122434444709e-02,3.335262253129964716e-01,-7.561121029485895484e-02,-3.928295006812801970e-01,4.584958292285503667e-01,5.426713646895720000e-02,4.891289185388034699e-01,-3.180976982768870531e-01,-1.550628945727337005e-01,-3.429286291102370265e-01,2.746320222448016546e-01,-2.311166294732075466e-01,2.841707813195376575e-01,1.645108288769003835e-02,1.214996843052572606e-01,-3.183439323797440101e-01,-1.365305863400956277e-01,2.173501234534273019e-01,-3.929256005433640064e-01,6.402949866718965488e-02,-1.078092648403826681e-01,-4.781785063355913357e-01,4.437799739883621086e-01,2.834159291470734754e-01,2.248121119924487710e-01,2.754118703469441432e-01,1.197290357955799189e-01,4.341979210824806756e-01,4.998037621046629297e-01,-4.628477080572456215e-01,3.096759477076077571e-01,2.532671482056400025e-01,2.438890462637514078e-01,1.660522032136716453e-01,2.201578936184143132e-01,-3.484080784972708456e-01,-3.491586359030873776e-01,3.682792651798616479e-01,4.881901870641544017e-01,-2.121385242265143578e-01,-4.008931542178025831e-01,1.786065222274183517e-01,-1.337971893780260935e-01,3.955434379056905758e-01,-1.784184357104224850e-01,4.938353953968699361e-01,-4.161843796744234547e-01,2.401499236918185343e-01,-3.242365021040916062e-03,-1.803599995660046806e-01,-4.980761263345928613e-01,-3.808092034667769354e-01,2.599488296848210256e-01,2.751993164683110837e-01,3.718462918124163519e-01,-1.007326778750216034e-01,2.689860549405138634e-01,2.275116443568806490e-01,4.268437737006200994e-01,-3.885370537582393258e-01,4.309239992178746093e-01,2.619462815198947414e-01,2.243735161243529674e-01,-3.779035560330320509e-01,-1.414847770725780052e-02,3.028760081820847105e-03,-1.982386378547792427e-01,-1.407747953334466118e-01,4.251606462244450491e-02,8.207524258789467009e-02,-2.957762512518170572e-01,-1.090120871459477891e-01,-1.721260906180666073e-01,-1.372121650446878061e-01,7.340402919857880182e-02,4.261207831460948059e-01,-1.070650167477279480e-01,-3.886608827236589514e-01,-1.179740694354155517e-01,-4.044699464462176985e-01,-4.815903850590528279e-01,-3.112900870888307692e-01,1.764590359162876432e-01,1.704416772829192572e-01,-1.567267455812011434e-01,4.877630167421223017e-01,-1.397890209589497390e-01,3.460394510321092021e-01,2.806715552643503919e-01,-1.531442236010664981e-01,-6.924464410581476770e-03,-1.881122820337092216e-01,-1.790924644477769334e-01,1.897739662905755242e-01,1.102174355287937058e-01,4.212958765111669557e-01,4.451500189658040840e-01,-3.222049564805542499e-01,-4.383715850392613245e-01,3.981163133399732157e-01,2.579001020451741066e-01,-1.728707511907443539e-01,-2.120317092331271969e-01,3.267061112342631857e-01,3.346914164464525054e-01,-3.389881101620474402e-01,-3.967985589332936325e-01,-1.338867819571019080e-01,-2.948634892732795443e-01,-1.710318483661628086e-01,4.434692766816354936e-01,-2.014435246426161674e-01,-2.334681222184962213e-01,2.382063499337994106e-02,4.834783768852644048e-01,1.158462983409728198e-01,4.975062748017454739e-01,-3.604995518991849224e-02,-3.536154049688535750e-01,1.835182143155911216e-02,1.496308319959436250e-01,-4.981014618087359347e-01,2.553649520021618047e-01,4.227430977668982237e-01,-2.330736322903308455e-01,1.897364621246431238e-01,2.632555243237433285e-02,3.004616270260318522e-01,-2.025746011036899663e-02,2.185447835873267630e-01,4.061156825611785814e-01,3.124371677888816423e-01,-8.555764605716187354e-02,3.144078963029778295e-01,1.241935348118714533e-01,4.072061021895343469e-01,-2.988903841182795063e-01,1.016273409309010889e-01,1.692615025662099759e-01,-4.962864861003679628e-01,9.358769172677017245e-02,3.201025205171856847e-01,4.749978686281478568e-01,-3.212308203051161826e-02,7.400806154981576235e-02,-2.981329401012179359e-01,1.438409969743732475e-01,4.817313213863251287e-01,2.871560540317122934e-01,-3.133324165117398197e-01,2.984491502507371496e-01,-4.280715038578103426e-01,-3.512689402525299709e-01,-4.168014712336846062e-01,-1.340122305498050448e-01,-1.077064185956546627e-01,-1.074935547138045067e-02,-3.321117027399047572e-01,2.045507681531472111e-01,-3.735468010993329147e-01,-1.503514067422423439e-01,4.581155194684712884e-01,-1.378071842866981367e-01,4.767475469690934942e-01,5.421449583808923833e-02,-2.617925538586040046e-01,-2.554727692103290204e-01,3.167018733643242046e-01,-9.618099969222348999e-02,-2.530017111669373708e-01,-4.653368248377198757e-02,-4.279701663101698195e-01,-2.282747363998104406e-01,-2.978466771477483732e-01,-3.673674539711414555e-01,3.401527155035978245e-01,-1.040582843567774418e-01,-2.343292592282796294e-01,-2.288358218589344739e-01,3.293606055686501000e-01,3.908531538386282866e-01,4.903960242147076265e-01,-4.856925501525694022e-01,1.724510574210622593e-01,-1.849068749332161143e-02,-4.913334027342057819e-01,-2.223078891438322602e-01,-1.621268040950525346e-01,4.614414225108972589e-01,-2.062880926479633281e-01,1.645203668534881425e-01,-3.308711292966960427e-01,3.579871363231112991e-01,-1.650769724739352684e-01,-1.985246291402738006e-01,-4.339261037619501771e-01,-2.557452923735984429e-01,1.606587664791889747e-01,-3.331513082368320333e-02,-5.221965964296482188e-02,3.434033847554954777e-01,1.233746946536596889e-01,1.629145942441804218e-01,2.678848341953259382e-01,-6.094009230400121435e-02,-7.925947046103498650e-02,-1.580347960017303155e-02,2.908936005782888357e-01,3.487654024849842216e-01,1.725321133565078657e-01,-3.153461224806233254e-01,-4.499935573245494869e-02,4.572375920779025993e-02,5.304331559728636680e-02,1.502512864628886557e-01,1.371257048525714728e-01,-7.568541753729962629e-02,-1.638419051245383340e-01,-1.902535264384029867e-01,-1.003433626929578493e-01,-8.813308448949153107e-02,-3.372222345289641598e-01,3.896533324421778133e-01,-2.643038056734836605e-02,-4.264325641884091356e-01,4.774139841343505442e-01,-1.948836670302142027e-01,-1.407060838274915016e-01,3.042969234449259819e-01,-3.984668806308268030e-01,4.921878812632028977e-01,4.364229887084503101e-01,-1.978504918255149514e-01,2.126499551241776143e-01,-2.269951266837725301e-01,-2.944441548724150426e-01,-1.973450239799531269e-01,-1.045938964641658364e-01,1.896913419328966066e-01,-1.434883439029522867e-01,-1.674857007942261999e-01,-1.479252574178766544e-01,-3.866114371671497407e-01,2.398624478173857488e-01,-1.193897245404119678e-01,3.529699217222889152e-01,-1.544084909728768995e-01,8.767723848738684378e-02,-5.814370494108467291e-02,-3.519631934006427487e-01,9.059945776679267926e-02,1.411319405830036011e-01,2.159762897913206636e-01,1.801923532816432916e-01,-2.971481589410208679e-01,-2.610513455948071382e-01,-3.180479117795979027e-01,-1.585732629649825309e-01,3.191164782882309758e-01,-2.303258953635193285e-01,4.776743407141923470e-01,-3.041243633091600396e-01,3.085688894761315915e-01,4.097559084699972098e-01,4.805372365155478054e-01,2.856364627849941051e-01,1.625101617241957452e-01,-4.412436048017474022e-01,3.627866765158366258e-01,-2.943490903561022387e-01,-3.738962096940983137e-01,4.143495117875222178e-01,3.509904421732357171e-01,-2.644525868386630174e-01,-8.488486719720644835e-02,4.162930510790652239e-02,2.700511305266116713e-01,4.456056026332052555e-01,-4.858660361291056162e-01,2.586456977813267333e-01,3.851997464504092195e-01,2.547669239332600588e-01,3.752736801205791561e-02,4.889245717160106697e-01,-4.904250933290008607e-01,6.628619478590225267e-02,-2.529107390746007100e-01
-4.115612657115850226e-01,1.958185332612580876e-01,-4.606516966690167303e-01,2.370155589594251655e-01,1.061157951362722285e-01,6.827584164073330353e-02,-2.126932094328541911e-01,-3.865163812075455008e-01,4.573101019624314922e-01,2.580547992664561363e-02,-3.525481639519647548e-01,-2.626039367091914656e-01,-4.963487073424689422e-01,-4.585078110605591561e-01,-1.003749629208644523e-01,-4.710854438846087122e-01,-2.105094983003168441e-01,3.197151254779003748e-01,3.715561839567346203e-01,-2.735988051427156176e-01,4.445680246152929893e-01,3.535552016939746967e-02,2.286552385203355353e-02,2.578405138754085169e-01,-1.836291795255184933e-02,-3.760605881677455686e-01,6.600063267521716348e-03,-2.443985494422429294e-02,-3.530467882714254380e-01,-1.472719908737264438e-01,-1.588525875929687192e-01,1.420627926591233603e-02,-8.253550979335821935e-02,1.981694994468780058e-01,-3.144140552333443139e-01,1.421285750015310878e-02,3.143815922874119151e-01,4.174646102877875853e-01,2.934056163625231584e-02,-3.093342163289607427e-01,-1.056549356719325150e-01,-4.725192309775197996e-01,2.634610184699684998e-01,-9.727257413415058007e-02,1.574969400625247928e-02,2.082114998316818566e-01,2.098863641776294031e-02,-3.041035575625039566e-01,-2.924924975646141512e-01,-1.155525617066273103e-01,-6.410841970121539113e-03,-4.438758570053810137e-01,-2.546560386349048244e-01,-2.822364850649172752e-02,3.636018699431471379e-01,3.055697785150276458e-01,4.068349800064410271e-01,2.094254963578827677e-01,-1.526679447753565011e-02,-4.278769979704500903e-01,3.519098842265042659e-01,3.447508408809333291e-01,-3.397107072209457623e-01,1.307957890430814230e-01,3.824969213046910399e-01,1.556086960428859634e-01,1.880047468653348597e-01,2.151994312357055072e-01,-3.112318168493722892e-01,2.999835971656528155e-02,4.754091345629820609e-01,-2.431713121858427584e-01,-1.650639239604798636e-01,3.905265504778884234e-01,-3.064761294457438723e-01,3.648216927656579012e-01,-7.430706801949238383e-02,-1.052339577729319853e-01,-4.702649715972619937e-01,-8.857609866850812974e-02,-1.052576574582986257e-01,3.723346140877824562e-01,1.341168962123903130e-01,-3.225184394556319667e-01,-3.045738429729016872e-02,4.042843748466491416e-01,4.304360350735281227e-02,-4.852784375937435613e-02,-5.918954124808695205e-03,4.505960147024775653e-01,-2.811834850561678589e-02,-4.729581548402074231e-01,3.287452322706674313e-02,9.941756189681316691e-02,3.795871422281099639e-01,-3.945214178468117172e-01,8.239312407317056497e-02,4.459084049142595374e-01,4.727507833148657523e-01,1.274253405874390399e-01,-4.823665152425290481e-01,1.904666599094593238e-01,-3.672423883982319781e-01,1.421216155515220292e-01,4.807304089993040819e-01,2.894768887019738557e-02,-4.531659465029858058e-02,-2.544641819625047541e-01,1.220116229608053660e-01,-4.459741072536075324e-01,3.205832307142031379e-02,-2.750407151831079089e-01,3.868521967050086996e-01,-1.196723292541728156e-01,-4.250374206043728842e-01,-2.958655737739397384e-01,1.305390449410611664e-01,-4.936337421649780177e-01,5.071940318988765739e-02,2.322199867623575553e-01,-2.816442689736230465e-01,-4.011286452950605375e-01,3.611990411657801658e-01,-2.753311773059560208e-01,-3.536298275584612849e-01,4.009435363093685201e-01,3.856011440222143483e-01,4.506806733281035759e-01,1.249392806183192706e-01,3.635905689049068190e-02,3.633625272626062053e-01,-4.104035221658810517e-01,6.148229995522602742e-02,-1.683936204889734389e-01,2.803331297310437398e-01,-2.855185555461248192e-02,9.121822396833645374e-02,-1.489009038093532800e-01,-4.893602073670164643e-01,2.723663036794665704e-02,-4.528067249900304958e-01,-2.598842074856494433e-01,2.943401064070538808e-04,-3.910219388667837137e-01,-2.104291829375094514e-01,-4.728040929412524740e-01,1.165332187547369891e-01,-2.546470863530089224e-01,5.322980827166268192e-02,2.853616881367670999e-01,-3.702947342767861638e-01,-3.322125015657001468e-01,5.456494588764060349e-02,1.860124227916333250e-01,-3.393436171464828677e-01,-1.119404769630882868e-02,-8.074641053173003957e-02,4.526013774591313155e-01,2.056833686508257042e-01,-4.126223824130981210e-02,2.670861823166847948e-01,3.805537943773741327e-01,1.947622904115918763e-01,-3.510157779024071223e-01,3.692286455396797118e-01,-3.518660073544044309e-01,-2.249249209657430137e-01,4.763081252736820481e-01,-2.556213710574379849e-01,3.100310582156134975e-01,2.563089423480713336e-02,3.446736542809099024e-01,-2.946279150213648723e-02,8.566606931845566208e-02,1.630797717252934209e-01,-1.203808747564132364e-01,-1.699399048788347022e-01,4.943282213632241850e-01,4.187623221842735610e-01,-2.348460696061893671e-01,1.625182604426848032e-01,-1.481807721513119791e-01,2.551219766214085638e-02,-2.808238611279449959e-01,3.476663818725411748e-01,5.096378915253185760e-02,-1.736900224704518436e-02,-2.536263039999953062e-01,4.836291327898303294e-01,-3.756265711070407853e-01,7.047227306411008030e-02,2.502378452907656481e-01,-3.239322884846418393e-02,-7.814246152512271948e-02,-1.476670686861636383e-03,3.796348074363269376e-01,3.411145202631351570e-01,-4.394943135993470973e-01,3.920650946655611646e-01,-1.662196342629080892e-01,4.850467195969287992e-01,-3.250129822594635121e-01,-2.744635524846904540e-01,-3.319836367998250104e-01,-1.952861678391375477e-01,4.384993773865772937e-01,3.153907706418843659e-01,-1.309898776615914251e-02,3.289466660203421711e-02,-3.631082892321413347e-02,3.479550524748249440e-01,-3.630762907262596872e-01,-3.994944220109040156e-01,4.087689365868364400e-01,3.044259152627410980e-01,4.448695272611474794e-01,2.140827896528862961e-02,4.664088301595872288e-01,8.718902405150719126e-03,-2.869352947873258231e-01,2.343777880612110120e-01,3.398903847917861265e-01,5.856142423915067230e-02,1.036773210984962557e-01,1.490742212544033940e-01,-3.710685482857497552e-01,4.663050003923643327e-01,2.873673241054381933e-01,4.778193145330300595e-01,-2.198971050665664562e-01,4.223060099125844902e-01,-3.993218185682713139e-01,3.096747589399728717e-02,3.966029219751421309e-01,-3.286141993324898092e-01,-1.066283319401549745e-01,4.810697826843737257e-01,-2.678353847316282677e-01,1.900344515410556934e-02,-4.733609564394617442e-01,-2.561477706925919806e-01,-3.983239307010181252e-01,-2.567343612119163954e-01,-2.772301649501281995e-01,-8.859170776121760849e-02,-3.282317186838376033e-01,3.625805393516077224e-01,-1.723080810099534288e-01,2.137445769579074950e-01,-4.622275614642679109e-03,3.764925459391652574e-01,-3.676413809973547719e-01,3.585472753843435001e-01,2.481738814590805919e-01,1.691357395700916477e-01,4.783327483478736486e-01,4.119892007514820431e-01,-5.864133160775353293e-02,-2.814334229742897486e-01,4.728227847785980709e-01,4.009819891548709325e-01,4.111500769020955959e-01,4.578795167986398074e-01,-4.954998385532868310e-01,-1.223281685518322615e-01,9.338106241704002830e-02,-7.896173020599805970e-02,2.000947281836064073e-01,-1.256187075110321016e-01,-4.780015075317649575e-01,-3.015567225505336735e-01,-2.134137426760064349e-01,3.987396392366813203e-01,3.231080635478019714e-01,-3.833395386408311456e-02,-2.163595027222255940e-01,4.702201053607163450e-01,2.755606598415337727e-01,-3.825193704942000394e-01,4.483178712173740976e-02,4.369411946264941671e-01,4.857708584453535039e-01,9.879253731751513889e-02,3.243496439001002374e-01,-3.319546538639824851e-01,-7.581023363901606693e-02,-1.122178553044244076e-01,-3.699710421651747350e-02,-4.277353488979318552e-01,-1.181297582786168254e-01,3.998771181214360038e-01,3.078249166867242925e-01,1.589857330025840065e-01,-2.372878614980032941e-01
1.302662969034157348e-01,-2.178203841661785489e-01,-1.001623686306126748e-01,3.587917126342443641e-02,2.161283862807172884e-02,3.974205081197100808e-01,1.895329838532711086e-01,1.309945974337367591e-01,1.290327315290795696e-02,2.412158027997098886e-01,-3.813820405273249392e-02,-3.163726794710188805e-01,-4.487215982439093365e-01,-3.010152154222482945e-01,4.233214955094798393e-01,2.328670690797246534e-01,-4.998373628607397645e-01,-9.578893930512211163e-02,1.205099831971024882e-01,7.865200387740656218e-02,2.883822025350581963e-01,4.551193523365489879e-01,1.977819062864807353e-01,-1.530881689554901559e-01,-1.845251864639929629e-02,-2.404775234912364112e-01,-3.924191382837505238e-03,-4.487941471823481132e-01,-2.423057038690434872e-02,-1.510473299541474912e-01,2.528393869784554271e-01,3.455078222521461573e-01,4.174737829514894027e-01,-3.867271902350051249e-01,3.024027005982329319e-01,-3.634231910440698377e-01,8.495288063507966392e-02,-1.837254975197919471e-01,-3.592065454477412212e-01,2.937042138650690637e-01,-2.084535186572600285e-02,5.918469708170703836e-02,-2.518132722186974259e-01,1.623575142848345809e-01,2.858651547512774949e-01,3.626372125749454112e-01,4.340237749402560130e-01,3.289534635780755334e-02,4.550739408200579206e-01,1.291738525691035200e-01,-3.194828249912032847e-01,-6.966102690252262697e-02,4.629865766230918389e-01,-4.057957247242882648e-01,-4.597564508611635681e-01,3.791012838355020120e-01,-6.542872665713528324e-02,-8.595248236021446608e-02,-5.108987559743283224e-02,3.980050633688891892e-03,6.054798718733267471e-02,5.612474701695790991e-03,6.086716109371814731e-02,1.119586938054402125e-01,-1.584182107056647526e-01,2.619573111810256094e-01,2.290511589268140469e-02,3.525006324182420325e-01,1.280150521963067112e-01,-3.581758224936290036e-01,3.617534535432120890e-01,3.722628742474900498e-01,1.860549341448715088e-01,2.479576825532369133e-01,-3.444506412803075568e-01,-3.188522297918572335e-01,-2.158868039664273430e-01,1.994186858550275332e-01,3.055583770437211300e-01,-2.366773911993121926e-01,-4.396641505736190725e-01,-1.970896652167791752e-01,-8.734355867269305573e-02,2.130344643704172869e-01,1.519454791085237400e-01,4.322262075391222202e-01,3.007554581133546900e-01,3.651049991598219746e-01,-2.306692275350812338e-01,-4.603402893049497457e-01,1.062945000153046049e-01,-1.285792616364317409e-01,2.919792430294750885e-01,1.996964200842701320e-01,4.581857162520461824e-01,-2.823164643256904638e-01,5.452600580633026883e-02,2.554719427598783899e-02,-3.180882906604103333e-01,2.702710150719042081e-01,-3.200321681816327146e-01,-2.055527193059708546e-01,-4.128217604002935026e-01,-3.937809458085250736e-01,2.331494577217863018e-01,-1.270062441972424905e-01,3.688060563711900164e-01,-3.079079447696507765e-01,5.108299985826270095e-02,1.355619224935357137e-01,3.496911771072342967e-01,-4.172935377558365522e-01,3.152782508661229333e-01,2.532034935130758058e-01,-3.779998618220786755e-01,4.730688280039707649e-02,-3.263950701582347680e-01,4.421157299595969148e-01,2.773699932693723946e-01,-3.256440460348295485e-01,4.728417242072076032e-01,2.634603446964178808e-01,1.530085007540391562e-01,-2.570952063855749259e-01,1.827945010159546246e-01,-4.291336810602491836e-01,-1.615642531488062916e-01,4.781468087294304947e-01,-3.794405490255330360e-01,7.149808352564068770e-03,2.851246246524731243e-01,-2.562689420419239639e-01,3.834616792011896758e-01,2.427855286890099329e-01,-4.382582712406711822e-01,3.086499265623016131e-01,2.773380407106178502e-01,2.262250346277694391e-04,4.666288765634172275e-01,2.002000612457806028e-01,3.972755143609499884e-01,-3.481197780651306140e-01,-3.458728560537170926e-01,2.195234729459866196e-01,2.265555555229955553e-01,2.205636608147844013e-01,-1.531908690705283682e-01,-1.904839805909074313e-01,-2.204112292911108995e-02,8.968215035931537127e-02,2.182109897902974049e-01,1.340702579102550640e-01,1.139539931398412254e-01,2.975109156938980925e-01,2.240986889136262761e-01,-3.364901655083150089e-01,2.459147237413491505e-01,-4.934178627397330930e-01,-1.370609412385515036e-01,-3.154729402282751005e-01,-9.624040956251067591e-02,-2.854382315095822520e-01,-3.267424599047705769e-01,1.121781221728859190e-01,3.816039462128141269e-01,-2.548805682619870172e-01,3.951457482596287818e-01,3.643743551293701088e-01,2.316278417361312680e-01,-2.388411296633653480e-01,1.595085199888663929e-01,4.183847278181141993e-01,3.125913323636817509e-01,3.438545560570488435e-01,-1.751209287148800531e-01,-4.372531827056462816e-01,4.757055871451441043e-01,-3.867764539387641420e-02,2.332418503215771821e-02,2.942855567380640025e-01,4.017837725814570327e-01,3.207276366795356326e-01,4.343527254401985394e-01,-3.789455763538904787e-01,2.891654023160247222e-01,-8.990739747483222910e-02,-2.364441748465474502e-01,-2.480173462308687959e-01,-3.100801811583830947e-02,-2.276255570314958954e-01,-3.501246870244465459e-01,-4.020587601138188028e-01,3.083097689412147568e-01,-2.038378711431962920e-01,8.415961683140671390e-02,-3.349082845325543900e-01,-3.506588340897265343e-02,-3.914130729332154779e-01,-2.979198258694034651e-01,-4.721432376462052494e-01,1.471591960816037714e-01,-2.930542148776649203e-01,1.925993635990993491e-01,4.761395174039940725e-01,-1.516650786575357568e-02,2.788512946765047129e-01,1.154469806950870758e-01,3.137751402624079367e-01,-1.763806617798534537e-01,-2.180483969938004085e-01,-5.092767659565455851e-02,3.265770369130857054e-01,-1.217315353058994187e-01,3.883788861271696424e-01,-2.150118784988902521e-01,-8.398425756269034537e-03,-3.381859293675212319e-01,2.924932433410964983e-02,-2.171415480827384448e-01,1.364118934641463943e-01,4.860979830527514256e-01,2.126805124613679876e-01,-3.817172331842555444e-01,-7.727000870360012375e-02,2.838802365985797493e-01,7.886764202909080090e-02,-2.130410663382242831e-02,-4.399043968769612567e-01,-1.215042673934663142e-01,-1.632583522894397454e-01,3.011649690899070864e-01,-9.149202653338706082e-02,1.401680864214295275e-01,9.887298274126710140e-02,3.856022903047884309e-02,2.200972026592024067e-01,-7.023393092141771987e-02,6.282340402364905430e-02,-5.843388120805848018e-02,-3.543985863653175139e-01,-4.939950682648462932e-01,-4.491381976319254177e-01,-2.195878323607018956e-01,2.929116855849567269e-01,4.788726584138296438e-01,-4.585526310197385325e-02,-9.129726023715811767e-02,6.017074192819094058e-02,-1.282423629877660343e-01,-1.920128633074341673e-01,-4.235644442508478269e-01,3.409272237950335960e-01,2.695949546261200425e-01,-3.386882256852522532e-01,-1.896950975912530257e-01,2.029136167017494552e-01,-9.361962095215536905e-02,1.708940134153664747e-01,-2.476052636978824939e-01,5.646972114430937051e-02,-1.476727691449766233e-01,-7.591890852823623970e-02,9.286914201352625131e-02,-3.447090621154723644e-01,2.627595384670430301e-01,-4.433266797829809036e-01,-6.348256615068359476e-02,2.804742035943167400e-01,-3.960317436684968051e-02,2.015632418796305947e-01,-3.877993142259616999e-01,3.918972384578012225e-01,-3.732272468837046775e-01,4.062990846322620531e-01,9.212356408632638161e-02,3.090546068789166156e-01,6.279616447575164795e-02,3.720328262451499945e-02,3.152617822355486821e-01,-1.273971903382594695e-01,-1.506899001910720903e-01,-4.525114313160191193e-01,2.013121139659803660e-01,-4.936988678777597395e-01,2.570363763878517060e-01,1.646464295376381948e-01,4.632058373453208366e-01,3.407306526735658370e-01,-3.655342671152698175e-01,-4.965315329574038206e-01,4.216316787005518485e-01,-2.165374059402253026e-01,-3.590406084822972410e-03,7.228185503156292491e-02
-1.681889227091892813e-01,8.729320294513587264e-02,-4.682235491765851521e-01,-2.649443007617691137e-01,-4.163186576853216136e-01,-3.753348566243882578e-01,4.478269274774860920e-01,-2.107183789715952882e-01,-3.662282263165385077e-01,-2.514296848580478416e-01,4.587115109406771918e-01,-4.510137370551956515e-01,-4.786106488745405230e-01,2.148794644868097237e-01,-1.804992315395167468e-01,-5.978810420037994344e-02,-8.064305333832511025e-05,-1.444630883773823093e-02,1.126922943324160098e-01,-1.545973444199819635e-01,1.421726847363462554e-01,-1.970436900501826294e-02,-4.929388132357868102e-01,-1.489762074786481483e-01,2.573636635047961141e-01,-4.642625846260749478e-01,1.414313942158745840e-01,-4.514129890430004233e-01,1.260523427953114117e-01,-3.489791004281581621e-01,4.841360909141704250e-01,6.440287814848644210e-02,4.638373947175563616e-01,-2.839613961569126266e-01,4.474193549936098524e-01,7.642811335392052374e-02,-1.496633451970940110e-01,2.890705656518672839e-01,-3.716614578024108884e-01,-4.219323112252603147e-01,-3.602978481158860546e-01,-3.554557831248958966e-01,4.987662125804551705e-01,-4.296278570864622282e-01,2.546386652808763085e-01,-3.112793980143148120e-01,2.250790061129893660e-01,-4.153916916551003702e-01,2.104967809493940578e-02,4.132593047181085666e-01,-2.864509506358884350e-01,5.410725585772779844e-02,-4.199452598445683194e-01,4.317961719252694230e-01,-2.962106626329997772e-01,1.853683696425023619e-02,-4.260163775936007813e-01,8.738654013259472553e-02,-2.760091660586307949e-01,-8.880856353411015203e-02,4.646345998350998041e-01,-4.541433839322795984e-01,-3.655603075302636951e-01,1.685753677411128137e-01,1.853008106514552056e-01,-1.340310657685230833e-01,-3.953084206241571641e-01,1.949400316347361661e-01,3.665684925576090381e-01,-4.787688235576844642e-01,1.524329751481868778e-01,2.912427406309114897e-01,2.172659203705673558e-01,4.151940414577279803e-01,1.541438441463132136e-01,2.510517147500501700e-01,-2.352730648546825787e-01,4.380037523770108354e-02,-5.976589382672170547e-02,-4.709397056805009196e-02,-1.865936258512688184e-01,-4.716052572269442411e-01,2.712397794022238795e-01,-1.571228314893385880e-01,4.847164263328631595e-01,3.451227946038222250e-01,-2.084000316561933630e-01,-4.219427789649465854e-02,-1.616358278445640950e-01,-2.908020043988349679e-01,2.240228847857227423e-01,-1.009517645582134193e-01,4.714040698285986153e-01,-4.228387087298919322e-01,3.160980087687584872e-01,-4.827429396239681925e-01,1.533658487759814726e-02,2.520275469079343855e-01,1.559364335072888075e-01,1.826569080599862449e-01,3.326570062000326899e-01,4.067213057980537672e-01,4.994119134841779051e-01,-2.204412940218568595e-01,-3.808893683183744994e-01,-2.513448659384834860e-01,-4.543751721901312379e-01,-1.609062401574695711e-01,4.410546065604237231e-01,-3.452618588533262756e-02,-3.265020424865080484e-01,-4.537130785346314976e-01,2.180723549631899960e-01,2.034334144405346434e-01,1.437987321194649226e-01,-8.521325883668962042e-02,-3.927619381358272710e-01,3.519346620414416371e-01,-3.688915643294748969e-01,-4.065850466163263288e-01,1.701250888993565136e-01,-4.825267288680553657e-01,-2.909020267433858331e-01,3.065225245168790025e-01,1.862339226084314125e-01,-7.618316538931868553e-02,-2.249088734073170226e-01,-3.218410340692348104e-01,-3.910565824270302304e-01,-7.840705616592025251e-02,-2.984935299920773444e-01,-1.448904302423538182e-01,-4.114369221391056541e-02,1.656184145633388116e-02,-2.730778326299625469e-01,-3.248077097282934256e-01,-4.075259146461468474e-01,-1.197429320063697622e-01,9.435277615347936742e-02,-4.384841887926164139e-01,1.556176068509045329e-01,4.425509681845568588e-01,-2.048120675537048463e-01,-2.422104616242223285e-01,-2.906830740225266885e-01,1.040715910604104177e-01,-2.591543596004550754e-01,1.449123901849510565e-01,2.320899593903410496e-01,2.398473610364304509e-01,-4.916223327982277569e-01,2.080807430847400052e-01,-8.949175298262357359e-02,-3.734329707023311684e-01,2.578776894574518197e-01,1.510411831504507862e-01,1.988266776224465460e-01,-1.685035459509994782e-01,-3.084727177581290114e-01,-2.485061524362330854e-01,2.460518974080925236e-01,4.204792389756576432e-01,4.086528869700897237e-01,-9.960052442664735217e-03,-1.834751316797752496e-01,3.859455211881068770e-01,8.583351566837871260e-03,-1.186111854741378480e-02,3.647045191344784332e-01,1.216996099190916780e-01,2.941608576959353627e-02,-1.470415427465823210e-01,4.604672675480445676e-01,1.858036126931550402e-02,-7.513060924220393844e-02,7.076648240193605943e-03,4.667639882128733486e-01,-9.508051256461902412e-02,-3.244217948667059703e-01,4.496542410734392092e-01,6.668940227839625923e-02,-2.512465398733101374e-01,4.062587934825530045e-01,4.234378418473146999e-01,-3.883413077480590836e-02,-4.820819257096824462e-01,-2.179741743744689764e-03,-3.125489786317251495e-01,1.884767146259863635e-01,1.480105931452974088e-01,-1.937404423638267037e-01,-2.848551887695394136e-02,-3.580014811882075154e-01,-4.036120249893697665e-01,-7.013027669597704516e-02,2.338240197509388052e-01,1.612874878213589325e-01,2.959029967341916256e-01,6.414006846531361550e-02,9.082888872130601143e-02,2.496138159248424415e-01,5.733789995500571113e-02,4.149878322643709705e-01,-1.212270918243805173e-01,-2.714752699965418126e-01,1.986523443767423958e-01,-4.675960415513139568e-01,-1.146340249772144215e-01,-1.524563759863792889e-01,-5.899973671743863335e-02,1.078395435140133696e-01,3.255323234450006042e-01,-3.858879435325021090e-01,-1.949158604557401642e-01,-1.696094898184608013e-02,-2.371265975096292777e-02,3.477581637915476698e-01,1.077779834681817928e-01,1.372716559868153441e-01,2.995148325878373985e-01,1.657544103585146811e-01,-4.346543134051502610e-01,-2.188716133089764204e-01,3.796848746765332239e-01,-2.446064134838813464e-01,2.705515670393954242e-01,1.619472757896841530e-01,-2.479537619715668217e-01,4.978966749463661357e-01,4.808460288825846529e-01,2.695822980145783365e-01,6.149305103822899632e-02,-2.412408149363212129e-01,3.012177433828167050e-02,2.490821612593653311e-01,4.192246083147821434e-02,1.480988751928984382e-01,-2.433890192738814573e-01,9.414963206847337673e-02,-9.637516968674320061e-02,-4.186533741006560616e-01,2.941041678916900270e-02,-3.145288272777435612e-01,-4.722195853910282626e-02,-3.789181899767277706e-01,-8.956621024161770528e-02,-6.145307814198164298e-02,-2.709303800727957956e-02,2.640503576273641739e-01,2.280129905522557676e-01,4.510497588299995364e-01,-2.914782269555730165e-01,-4.489150936539638703e-01,1.360517261246632081e-01,2.491886168684431802e-01,4.530317045954036503e-01,-4.090351170931028069e-02,8.896094190014502967e-02,5.149570636254241496e-02,3.398509788560490907e-01,2.761284444400401439e-01,6.225053587701057101e-02,2.504880490371846902e-01,4.880372734868013707e-01,-9.066979738741975936e-02,-4.739448763630762507e-01,2.079976519392006118e-01,-2.745969461585261451e-01,-1.462751899142348266e-01,-2.425746798515009406e-01,3.884853470681028931e-01,-3.289253729744403554e-01,-4.708193494059872419e-01,-1.407098870884804231e-01,2.918696784328307370e-01,2.640431507436145075e-01,1.621859086728364430e-01,-4.849381806001257234e-01,-2.311781063194162655e-01,-2.395642142557445897e-01,-4.326244424432712510e-02,-2.184483038384086306e-01,-1.899212193199204535e-01,-1.760330598963191218e-01,-1.210538529815721187e-01,-4.594625091672555062e-02,-3.031789885552912400e-01,-8.056461317713403680e-02,-2.685109005006133254e-01,3.693393078636644233e-01,8.520257196848024517e-02,-1.543938791380233821e-01,4.137900986490254951e-01,-3.512608139285722242e-02
2.746961265296269383e-01,5.029330817916000118e-02,-3.156983669326923758e-01,2.517955061221963664e-01,-3.584605238160584184e-01,3.849479864783902361e-01,3.341723736394963673e-03,-4.440797871993420465e-01,3.473920630123270570e-01,-2.908940851511689907e-01,4.536576131423539771e-01,-4.551968781919385476e-01,-2.624729035002202338e-01,-2.987478064624655705e-01,-1.914193183164404344e-01,-2.207732610276134100e-01,-2.525066421836725805e-01,1.879424375925095037e-01,4.076941143246854971e-01,-2.084142021816268731e-01,-4.036699163303096860e-01,-3.474600515200729767e-01,-2.791148500278056721e-01,6.101330046811392904e-02,1.911134465907365909e-01,4.318915204546873721e-01,-1.709956588485525009e-01,3.071316207891610084e-01,-2.886214879868775895e-01,1.785989687612683507e-01,-1.149775008898209494e-01,1.428515030691704935e-01,-3.594189789396028401e-01,8.290215598653183360e-02,4.044750824853580173e-01,1.022281728080236540e-01,3.852460508814392615e-01,-3.977293750431571961e-01,-3.299161666001304560e-01,-1.884807466113214147e-02,-1.898377151951857744e-01,-3.284716013273648594e-01,3.280033029340955197e-01,-3.008547328632846796e-01,-3.062668173865480403e-01,-4.557944642683240399e-01,3.242283278792851275e-01,-4.590080357131046673e-01,2.987469511491570584e-01,-2.896563317416234185e-01,-2.699377990800998495e-01,3.623927814634679834e-01,-1.133419690418585590e-01,4.804759556585995739e-01,2.253364035484841654e-01,3.326382164067559488e-01,4.981181844459018349e-01,4.271619459321140955e-01,-2.106803113986824849e-01,-4.682441491913543752e-01,-2.125530826194288458e-01,-2.285062415132200764e-01,-4.657938846538171029e-01,2.923180085088031843e-01,-1.627679963615140668e-01,-4.747650056850596378e-01,-3.377978046534020340e-01,1.449140361909455610e-01,-2.323764409731968739e-01,3.252045169675199521e-02,1.145282963258442699e-02,-2.876015882131640611e-01,4.009270421763114767e-01,3.534475167731491174e-01,1.398523034864840309e-01,2.005026302317616249e-01,2.911259765531105659e-01,3.259235440118795069e-01,4.823284355020718284e-02,-2.447688011486955917e-01,-2.432900068749970224e-01,-3.001058741489384118e-01,4.040918409888376583e-01,4.063120075031807499e-01,-7.421412371352120729e-02,-1.221600087757692688e-01,4.322725170883267021e-01,-2.108401969396899167e-01,1.368528543746145854e-01,4.726313031056388336e-01,1.511153292254125979e-01,1.045970563828978461e-01,-4.259242426191155451e-01,1.365843587203231513e-01,-1.187807571184382738e-01,6.808319465919954183e-02,-3.864708129864238284e-01,2.047506532500346088e-01,1.684270734091335431e-01,3.798708937664082574e-01,-6.547137959114124328e-02,-4.285333660828899438e-01,3.328595828591485173e-02,-2.806226421275682670e-01,2.185422172204525282e-01,4.067008051639315891e-01,-4.778679663077021189e-01,-4.522255563842991766e-01,1.268323572848493175e-01,4.099427107228956757e-01,4.826626592316054509e-01,-4.848326790299815059e-01,-4.721594253843253153e-02,-4.428646165456023853e-01,-3.129834360086488632e-01,-2.472014136386709859e-01,2.044836596121227812e-01,-1.627181049285467695e-01,4.319760025724803665e-01,2.218313455861767869e-01,-1.307622338171665621e-02,-1.159835749170670116e-01,-4.285534814290794525e-01,3.859361738333588754e-02,4.391795656047535745e-01,3.338004625492424493e-01,-2.146580717658967963e-01,-4.064723729533425978e-02,1.273494707959985650e-01,1.884880185816228959e-01,-2.952772376800488763e-01,3.154751477878936505e-01,-7.436917102472206942e-02,-2.071395756550035161e-01,2.654442745934723069e-01,-1.645725358059754173e-01,-2.340410701823293360e-01,4.102931771499460645e-01,-3.925688604832346940e-01,-4.721397628136432267e-01,-4.988564177887979678e-01,2.145036664971070595e-01,4.180094240138463313e-01,-2.820845238214831907e-01,3.985947269524262593e-01,2.314225264453152464e-01,3.781325196739973027e-01,7.168670220394046666e-02,2.311429729034096825e-01,3.529945735117312466e-02,2.982491003583690459e-01,2.663621047706155043e-02,-4.999406403659066855e-01,8.715952864249743026e-02,-4.252585349452300267e-01,-1.224315275863028241e-01,1.264211874221721210e-02,3.523635489281606858e-02,-4.253971578154955857e-01,-3.977817857151316749e-01,3.174585397780976814e-01,-2.086835168082254999e-01,-4.389318019151020600e-01,-1.639280794133293195e-01,2.366290872588249217e-01,-3.925335130890839075e-02,-6.313402037645776677e-02,1.678917226929955708e-01,4.253946997512872974e-01,1.343591497132639034e-01,-2.546824435692128796e-01,3.587588059903685789e-01,2.213425989542813221e-01,3.952427019180492218e-01,-4.122458421439888498e-01,1.705441207252192948e-01,4.780549829590419186e-03,4.151786922440546812e-01,-2.807411904589138807e-01,2.486926115586814978e-01,4.234607271854327060e-01,-1.686219345289287075e-01,3.994676896764227658e-01,4.434293082767885030e-01,-4.985277494395009557e-01,-3.973730664066541518e-01,-4.519379523103561613e-02,-1.240400372598937651e-01,2.842799550928090113e-01,2.462667668238665009e-01,-4.158963039482033164e-02,-1.958634420450855451e-03,-2.459407949321522624e-01,2.176160935869719815e-02,-1.087951501828230416e-01,1.393170981575607703e-01,4.413052074241250455e-01,2.231185682718244134e-01,-1.626253141981914840e-02,-2.825502760320689477e-01,8.381924114487449007e-02,4.627412477013848058e-02,-1.950602575911621894e-01,1.348604356675758842e-01,-1.225730383596239648e-01,6.798901987218741727e-02,3.633348963596717551e-01,-2.032288836062092763e-01,-1.201267423255585332e-01,6.667754052090235639e-02,-5.393506687940918809e-02,4.911690181860570714e-01,4.253889759864071252e-01,-1.127066220470717139e-01,4.895470297814665805e-01,3.780096603664397925e-01,1.034508317076894279e-01,-1.177535511632705756e-01,-2.060262212902450596e-01,1.490411708483520004e-01,3.799096669668737825e-01,3.649174854980015148e-01,-2.310742340836116071e-01,-1.350806884553070741e-01,-3.884213868281449766e-01,2.840946894356042307e-01,1.781565502934412404e-01,-1.569237583239183609e-01,-7.518459063627713768e-02,-4.362234034355757517e-01,-2.479729388287827963e-01,1.833557476170285527e-01,-3.090695734533123185e-01,4.638121725985522303e-02,-4.363862090006870309e-01,-2.164985155324378185e-01,-4.617163825620336226e-01,-3.314152311980400611e-03,1.647467552404744406e-01,6.567236444696256115e-02,2.627923012505597455e-01,1.864607012320267376e-01,-3.657249841243022104e-01,3.088526825894126748e-01,-2.722740393477223186e-01,4.113682471351671754e-01,-2.688564257521179890e-01,4.020063792698891358e-01,4.447301033790784786e-02,-6.278146167971199176e-02,-4.224764151133569845e-01,3.536795850350538117e-01,4.232689647054053150e-01,-3.586049987219804835e-01,-3.750161046836635315e-01,3.156073481339514153e-01,2.496825953092889350e-01,-4.879846325097539905e-01,-4.081564512850172077e-01,1.267881702781123998e-01,-4.687867524308843015e-01,5.677911591368733912e-02,2.453062836012265269e-01,4.034275795943964571e-02,4.392237881840637126e-01,1.966842423470345214e-01,3.980657903606465986e-02,-3.797821635477416358e-02,-2.698480995666158178e-01,2.538300146306683436e-01,-4.135590688670939263e-01,-4.484147627027438299e-01,3.114197990486368139e-01,-3.056671007961035968e-01,3.746922260000025151e-01,-2.155424696429552034e-01,-4.244714157935175480e-01,3.363529676070378116e-01,2.043854086804426373e-01,-9.842999743053948425e-02,6.836882386785103627e-02,-2.210972347331749965e-01,-1.261119365408184256e-01,-4.772078646867109475e-01,8.162216853056358801e-02,-4.527700265818522807e-01,2.931984947109358419e-01,1.309009577228050780e-01,4.633182451496729026e-01,-4.282264928865683329e-01,1.982046675456545781e-01,1.968402363373229491e-01,3.916706367440966341e-01,-3.158805145870322573e-01
-1.617757848715785096e-01,1.075152424778591520e-02,-1.685612428755534076e-02,1.025023066475295730e-01,-1.281117203083326217e-02,-4.359651355383568072e-01,-1.554201226333603580e-01,2.123523475287929507e-01,-1.385982169946438081e-01,-2.072932523722459397e-02,2.922183835383596051e-01,-9.551088206926272584e-02,2.066413983045218838e-01,-1.825751146564758010e-02,-4.604248089293146995e-01,2.522398560796580425e-01,-4.873329390962037877e-01,-4.722729934274508823e-01,4.191001877096369732e-01,8.815813553627038779e-02,-4.768052719188149435e-01,-3.055581184318173493e-01,-3.034748705053339490e-01,-1.075002394635147240e-01,3.626086157954144795e-02,-3.376900521270371769e-01,1.610094363302591036e-01,-4.696744507335730567e-01,2.376200045092158319e-01,4.894229530532117067e-01,-3.612227134735079837e-01,2.512441293813038046e-01,-4.123687261893038691e-02,3.003202978800163514e-01,-2.942861303856194599e-01,-4.050574916122539060e-01,-4.628146792237216589e-01,-3.688813945571639552e-01,-9.688113003880105545e-02,3.528520583819788614e-01,6.953588701940394134e-02,-2.440865497872432011e-01,5.062667208465276847e-02,4.441662861178741206e-02,-1.394535252488432464e-01,5.283015055360185119e-02,-2.596516719674289986e-01,9.233373593213967112e-03,-3.790937615556031481e-01,-3.996726602404886419e-01,3.243106411069639483e-01,-4.092341141940986082e-01,1.862867785240140961e-01,4.860670558986608381e-01,-4.194692693514778803e-02,-3.781774146692393757e-01,-4.488856888893947295e-01,-2.997533213296498245e-01,-1.840953695211211549e-01,-7.069279528383820566e-02,1.971441942866999364e-01,-2.516039459865555550e-01,2.434425560128131716e-01,-3.063504909684272581e-01,4.553447167155704189e-01,4.845163798306795222e-01,3.867591834363653946e-01,-2.895151849820293277e-01,2.986663343847836272e-01,5.799576301181741389e-02,1.897255836757246739e-01,4.332294237561954420e-01,-2.642177522541558909e-01,7.215497321031139055e-02,2.450937204025497307e-01,5.015750777359040402e-02,-3.842164264169659615e-01,1.662344643946820355e-01,-4.182453767918665744e-01,-2.235867515856753140e-01,-9.660211929901696415e-02,4.715167444572097022e-01,2.441765319918671739e-01,3.257312794202793516e-02,-2.836822139067786130e-01,-2.832993519236665092e-01,1.268216749305659530e-01,-1.839515611245168270e-01,2.093611597971990479e-01,1.983861914967948170e-01,7.790940076745667131e-02,3.874788249333960266e-03,-7.944702436813477764e-02,-2.878182928281913799e-02,-2.929876698899969156e-01,2.468655326051516496e-01,-4.405811027034626237e-01,3.072856413029012579e-02,2.816107322678894631e-01,-4.889206867828477243e-01,-2.791044276979770533e-02,-3.120491310603652479e-01,4.525588652617414942e-01,-7.846244297233506693e-02,1.368195177110057559e-01,4.385202631441547094e-01,-1.199512256431324309e-01,-2.056364784043740457e-01,-3.130541654274328067e-01,-2.892614292966066980e-02,8.391581704892803195e-02,-3.300419964472257606e-01,-3.471713803448605029e-01,4.329982346807808025e-01,3.306839104882518532e-01,-4.132115909944211740e-02,2.642626102435948754e-01,4.846216903002465992e-01,-4.088417390288867637e-04,4.869005083767816711e-01,4.407218133719255082e-01,-3.754322902203557355e-01,3.312870537227778911e-01,-4.753244705240177170e-01,1.313346766368651553e-01,-4.260650279322208966e-02,3.794474564896265223e-01,4.899157210534059725e-01,2.494717921025076945e-01,-1.026500688628334546e-01,1.261133569950347866e-01,-1.539203678939227160e-03,-3.302858423552318401e-01,9.035759017274003213e-02,-4.184596343318582878e-01,-3.346471092743062981e-01,2.285785139223418527e-01,9.787735781525697121e-04,-4.030035652870864737e-01,-4.927495008210331928e-01,-1.836569451342826564e-01,3.633914540151431671e-01,-1.897658934870993797e-02,-2.344979076310793609e-02,4.388284567144398185e-01,-5.456948821243112757e-02,2.895257519251832612e-01,-1.965450377407927940e-01,-4.815165967527996749e-01,-5.631096998051832170e-02,-1.915910865415970665e-02,-2.472311540372268412e-01,-2.808165294906270759e-01,3.210846724173707090e-01,-6.737745935318806279e-02,-3.471018285087150712e-01,-1.715794950937525876e-01,-2.852029620541521870e-01,-3.709366358385602913e-01,-1.163776860847940409e-01,-3.533970879843093549e-01,-4.849062617670965025e-01,-1.328232033083909247e-02,2.120142211073573479e-01,3.469192252508401797e-02,4.318027374445214672e-01,-1.869607886889916859e-01,-2.973928553385380980e-01,2.543193034466562086e-02,-1.338954152003387632e-01,4.679941951206963990e-01,3.759548039325427693e-01,4.927637300383728158e-01,3.641045832266520677e-01,2.978033297448632322e-01,1.142505451717508169e-01,4.166320438463344544e-01,-1.902327975007048755e-01,-4.596665729629756392e-02,4.304376386547994482e-01,2.554623104846102111e-01,-3.114245188664466202e-01,3.529167908309396307e-01,4.626311467988688531e-01,-3.326960773287190865e-01,3.887489482433273968e-01,3.660270938308740618e-01,1.467905156637359099e-01,-2.470822383011471723e-01,-1.207878345769577422e-01,3.966482540030629167e-01,-4.361518699678019750e-01,-4.656112015589967124e-01,-4.484347197552130959e-01,-8.295356563471967259e-02,-1.658429784639796623e-01,4.063540564620076179e-01,3.592594258655188444e-01,-3.015583488650892541e-01,-1.840812449244452198e-01,6.883835585443853766e-02,3.188666728104483372e-02,1.649357019821909853e-01,3.798991484433212884e-01,-1.915623799000273353e-01,-2.861143252740530052e-01,-1.605549396730254763e-02,-1.533586481198006002e-01,-2.608858843805905714e-02,-1.383196198082451422e-01,-2.281274558040159439e-01,-3.998139993621163679e-02,-1.951148435913152568e-03,-1.937778788026908172e-01,4.800338320430180827e-01,2.666238736839396939e-01,3.307397366604454270e-01,-1.458801061042425129e-02,-4.594637720281721238e-01,1.910004431965206528e-01,-2.023273697048270092e-01,-1.057909703246697752e-01,-4.349059470763807500e-01,2.682195202536429290e-01,4.383627908405826057e-01,-4.198049401978637407e-01,-2.402309560672284405e-01,-1.524005876447565022e-01,4.749942843585611696e-01,1.538440700525111060e-01,-3.467915361581097589e-02,-4.164127526130956269e-02,5.364046559353197186e-02,-2.135365401609320424e-01,-6.154747890849499026e-02,-3.126268323942945626e-01,3.920995940680083169e-01,-2.033109793727627679e-01,-3.019053325221168205e-01,-3.433947528749259348e-04,3.793323690775858292e-01,-8.588806189551445591e-02,-2.534912129984692175e-01,-2.271422761468310236e-01,8.417809323664060539e-02,-2.358811001804561602e-01,2.885695780693309231e-03,2.810547729670200834e-01,-1.323925436809320066e-01,-4.602703489857764563e-01,-2.032285835850040634e-01,1.612553099056099892e-01,-2.596742504678647423e-01,-7.518734431205276181e-02,2.560819011464852135e-01,1.226893711017976729e-01,-3.885081550340918621e-01,4.493230925875705273e-01,-3.331658478746674090e-01,-2.413939355730784220e-01,-3.911931812260560637e-02,-2.035040378536633332e-01,3.477868943115833833e-01,4.924554656397365227e-01,-3.893008082686285620e-01,2.654264034128378524e-01,-4.109920092305762163e-01,2.789812242287363908e-01,-4.465252904675316437e-01,-3.449320202034551475e-01,2.111547111529266108e-01,2.463728607349091604e-01,1.627817063641522344e-01,1.701585963373810628e-01,3.311912246612424005e-01,4.095741144093170139e-01,-3.595337130720924756e-01,-2.152600440961599526e-01,4.439857712984803806e-01,-7.049045035602496956e-02,4.936163632514460886e-01,1.666973882488398395e-01,-3.849328136481187101e-01,-3.951268975250044058e-02,4.165797294387121319e-01,-4.168648726503668689e-01,-3.980611451860958105e-01,-3.934859963213575007e-01,1.642308893246287038e-01,2.935328086484885191e-01,2.230531169017915261e-01,-1.239763470511082710e-01,-1.897065751237906328e-01,7.591345153951722935e-02
2.830768496632295461e-01,-2.207516506895568220e-02,-4.178532836370830728e-01,4.485989451357057511e-01,4.663100029929234669e-01,1.226827213657678550e-01,4.204575625894547697e-01,2.763401205284986561e-01,-4.269147962764245907e-01,1.302021583597930965e-01,-3.226196167567301210e-01,1.603751370196218051e-01,3.911745738788308113e-02,3.165928574235001847e-01,-1.233800549513461853e-01,-1.706539279060503844e-01,4.144582271411367813e-01,7.661748988545236116e-02,3.096141364782807326e-01,-2.636648321374074344e-01,-3.617343030275325111e-01,-2.804872083014060546e-01,-3.325922407479280363e-01,1.498688619454163762e-01,-4.447667082728906651e-01,4.222419233621556023e-01,1.204883651951439427e-01,-2.440308808045023037e-01,-3.977711518726447792e-01,1.506349102336026480e-01,-3.436553038797922621e-01,-4.066598817622991691e-01,2.582948403983176267e-01,1.133607390606252707e-01,-3.573997767142406135e-01,-4.467680396403839183e-02,2.257631771170225399e-01,-5.882706548746174935e-02,-2.617909720870178480e-01,-4.495135233083547011e-02,-1.134021944172127760e-01,-2.734378061276415695e-01,-3.234335254246467617e-01,8.826432771781778097e-02,1.529785047490221928e-01,3.654953005044270231e-01,7.771550179352881838e-02,-2.881361210334673073e-01,1.340451577173346065e-01,-3.813926879213359600e-01,-6.419692796085152420e-02,4.199204167313407288e-01,4.472593023914495092e-02,-3.120015589995642769e-01,-1.719947360967892802e-01,-5.545798468127272063e-02,-2.288659571996631836e-01,4.286132884076441218e-01,-1.007156108066693534e-01,-1.457669876364720007e-02,-9.659203054159859470e-02,2.499313897160204689e-01,9.773393280664133265e-02,-5.774421231387516507e-02,9.061776830118395409e-02,3.725695693169085443e-01,-2.704981448122006915e-01,-3.325939481775196382e-01,-7.344737853466398736e-02,-2.357847336552197914e-01,-2.342647869975880148e-01,2.482334361082739749e-01,-8.581683439360943133e-02,1.008683908111950300e-01,-2.386257696913839377e-01,2.048509964656548554e-01,-1.916666238724347160e-01,-3.402804682959041926e-01,4.878092188431508713e-01,1.182976673559065217e-01,-4.552560621742607339e-02,-2.684945201479556065e-01,-1.418111969794244587e-03,2.997160532815967837e-02,1.599254501585183341e-01,2.156389848411667254e-01,4.956776010402479393e-01,8.419247663642404067e-02,-3.619150094935564832e-01,2.446473300609808277e-02,-3.407956938312430850e-01,2.354257822468439620e-01,-1.528800482431266206e-01,5.497363030438684461e-03,-1.577873545073197326e-01,-3.252672529323241690e-01,-9.614139485089057136e-02,-1.762880572734580875e-01,-3.139086196422522512e-01,3.656436036148044133e-01,-4.738275200655600594e-01,-9.016696689344261273e-02,1.001004597049228728e-01,-4.473115509485601216e-01,-3.938563116399634856e-01,-2.993603105528743757e-01,3.372722612044642965e-02,2.518664288006776664e-01,1.987755543231178867e-01,4.110592754067956545e-01,-4.891514523709944440e-01,4.500918914125995318e-02,1.570138181960136770e-01,-4.832040798597312392e-01,4.241776984299270303e-01,-3.652176617283291460e-01,-1.056424394245575327e-01,4.181476666017615029e-01,-2.758820579764986736e-02,-4.550165638057113160e-02,2.004368817847645978e-02,-1.495217999521240015e-01,3.973958682056542013e-01,4.117816728962191419e-01,3.583105405508734131e-01,4.813962683867905046e-01,3.728777227294453045e-01,-1.177101611465245501e-01,-3.919331855890676453e-01,1.811024531258886849e-01,-1.337899972322549313e-01,-4.960361770296396466e-01,-3.270396058147334584e-01,-4.832140486301742532e-01,1.721900030199309262e-01,-9.582350532114258801e-02,-1.200507308439681120e-01,3.744071404306449358e-01,5.136911891622097937e-02,-1.721211632191715912e-01,-2.482629043961226412e-01,-1.301000898966743202e-01,-3.603022186158822970e-01,3.686487096772447236e-01,-1.281805325159414144e-01,-4.389528642670204039e-02,4.357723133778024227e-02,4.774480120778129555e-01,1.108081895698590502e-01,8.485927162997142226e-02,1.478888310035416653e-01,2.958637353874338238e-01,-1.358330828118178291e-01,2.437784857777050007e-01,-2.349620130548280006e-01,3.978761257017049413e-01,2.567322894897520191e-01,-4.666919443110532084e-01,-1.229571850737962713e-01,-2.887392682422846857e-01,4.848566174603906598e-01,3.744415978222677133e-01,1.650860069706490130e-01,-1.029020754292288009e-01,1.215807535190042143e-01,-1.962129231906261095e-01,1.510269915789514972e-01,-3.976640886295093047e-01,2.153503188789853695e-01,2.720217856538283963e-01,1.643831303612003358e-01,-3.915225240249841088e-01,2.524022336662268273e-03,3.516087323412008248e-01,3.329828058072736852e-02,-3.606519425173418947e-01,-1.014497719199833892e-01,-3.620218548903653133e-02,1.573936805015174745e-02,1.544002138941258373e-01,-1.909905975416170687e-01,1.972386728260869804e-01,2.726534610064901276e-02,3.106957770448214307e-01,-2.768454880570778709e-01,4.637192392888450643e-01,-1.879011640805757777e-01,-4.106354839642930576e-01,-3.210611182659415253e-01,3.246550509166761245e-01,-2.591517352404512087e-01,3.036107606871027986e-01,-3.642685529344481532e-01,2.213845939843607225e-01,-1.473576352756913455e-01,-4.427716729098878368e-01,-2.510745216113056122e-01,9.137297936772481588e-02,-1.883705004224223156e-01,1.474494089721612999e-01,-1.931305214278079552e-01,3.668809899280225384e-01,-8.939548750941883615e-02,4.858675633821026851e-01,-4.234100929587008011e-01,-3.710531048878789040e-01,1.560797200064611978e-02,1.975723924978471935e-01,-6.296476085378177601e-02,-7.845886195133555674e-02,-7.346606328955784804e-02,1.969163521896080127e-01,2.340161902940215422e-01,4.195768131887813723e-01,8.072119382439890689e-02,1.813098325188368110e-01,-2.256247452923076935e-04,5.789641075886764465e-02,-3.652610909094090585e-01,9.042058844301803511e-02,1.569232053910896152e-01,3.424226358398894110e-01,-1.126631464455907228e-02,-4.759326179448069016e-01,1.025995005975153251e-01,-1.930284358741299888e-01,4.282788917314409582e-01,4.715071820321616869e-01,-1.959552921161724637e-01,3.649162858500403228e-01,8.764229889557406672e-02,1.002594233710620841e-01,2.875158339010065456e-01,3.735163720483984928e-01,-1.407862347243619139e-01,4.341816754775511544e-01,-4.671299492721932012e-01,1.626288392272323691e-01,-4.334539631164490148e-01,2.648279501820512971e-01,-3.746588366723291319e-02,5.370574418527629401e-02,4.766794333786108506e-01,4.131429794511557452e-01,-3.919334814484987106e-02,1.248828384097163680e-01,4.080104788529135273e-01,-2.343758068385096704e-01,-3.318251301910085660e-01,2.339312223604079755e-01,2.303031660468934927e-02,2.113429588000974579e-01,-4.403123164612698925e-02,3.750228431611858371e-01,-2.625446776007415162e-01,-3.303065441294450455e-02,3.478473626720346434e-01,5.834664171129255728e-02,-2.619174219613866761e-01,3.895849922006675570e-01,-3.712220305347651017e-01,-2.074032330641284450e-01,8.781471497020310046e-02,4.886460404373860200e-01,2.989194555869432168e-01,-8.813132204161122640e-02,-1.829408164698592687e-01,1.575715270764499465e-01,2.715132647559111989e-01,-2.101628236397405924e-01,-4.922612998590888411e-01,-3.799512250355817633e-01,-4.687492706440532508e-01,3.600100651108573135e-01,4.118209300101760562e-02,1.011168320086260897e-01,-2.086659085800346425e-02,-1.010825899993209598e-01,-4.285672787456563659e-01,-1.128075275196811500e-01,-2.291347185352696769e-01,-4.241147475995783456e-01,-2.334878874671093563e-01,1.077011054074505925e-02,-2.577809558768212606e-01,-4.893545269886446780e-01,1.684898969391757095e-01,-3.314639285413781833e-01,-3.913822022522928101e-01,4.418588991958369849e-01,1.443556975078886806e-01,-3.069030150310826377e-01,4.402306113560660039e-01,3.668302208606425419e-01
2.281899490803815933e-01,-6.695640371912414679e-02,-1.378961585389383293e-01,-1.540568643526828430e-01,1.045190557175829094e-01,4.484392527915506133e-01,2.212628895161392606e-01,-2.707987751529106202e-02,-2.126060337073599760e-01,2.094935695344536386e-01,4.303377588296539713e-01,-3.158860711886950501e-01,3.363631071880851531e-01,-2.198343347897774303e-01,4.973257599789138172e-01,3.502023039854014197e-01,-3.815375963485524435e-01,-4.300716991822748358e-01,-1.099068779736042112e-01,-2.234430607380499811e-01,-3.909070836832352347e-01,4.598851168670220479e-01,-4.955910577838977815e-01,2.610114094175819410e-01,-3.166756688722870416e-01,-3.878281110114450980e-01,4.827022281008614968e-01,-1.783791354903390136e-01,-3.502404998516817081e-01,-4.356066468415749071e-01,1.394322622909361931e-01,1.214012739009830977e-01,-2.446420346067248452e-01,-2.444753702443774879e-01,3.951626008066548845e-01,3.958790353586462141e-01,-3.588827277749130351e-01,-4.624225631936029757e-01,-1.444449285655098336e-01,4.536910685912488583e-01,2.929911982659578751e-01,1.748029737567270425e-01,-4.701329320112279664e-02,4.765314850010520242e-01,-3.208844255039430271e-01,4.514066266180017939e-01,2.078963230028501030e-01,-3.659132494539111269e-01,-3.107813631068667704e-02,-1.372012896259404702e-01,4.392740637426951755e-01,3.028765318445559851e-01,2.968887838789011635e-01,-4.785285565804736629e-01,-9.767671999809990346e-03,1.405626684297567319e-01,-7.978594349791201523e-03,3.206366752789180374e-03,-1.370343622043198595e-01,4.320560295984720023e-01,-6.990158998912499033e-02,4.881554901463126539e-01,-1.864842628798574209e-01,-4.510709863011788112e-01,-2.491038645827444720e-01,2.662565052586659542e-01,-1.291166703670126870e-01,-2.663741482153498819e-01,-2.468197986400594290e-01,4.699104234561027882e-01,-2.588989665914814831e-01,2.078091726573204623e-01,-5.278036510399308767e-02,-3.400273727615111818e-01,-6.360284553162565135e-02,-4.658555339188010791e-01,-3.774710668365848232e-01,-4.168820010405938081e-02,1.873945424576565211e-01,2.896161788217341826e-01,-2.922723914461528016e-01,-4.579150445542503611e-01,-3.225825784997163881e-01,8.525755926999989409e-02,7.384317425394848478e-02,-2.249937624110883716e-01,4.456764982370818862e-01,3.690369992859482418e-01,-6.790731033278696316e-02,4.930890347279682784e-01,-2.461535848921131420e-01,-2.226284875167597876e-01,1.363414761875613168e-01,1.795010501092836330e-01,-2.950625578870555987e-01,-1.756828348096348691e-01,1.926899076448672643e-01,1.488594905511754218e-01,-8.361932464511523388e-02,2.082539052491400033e-01,-1.593104445993597240e-01,2.970469695153300504e-01,1.867162312587395956e-01,-1.091511912624365532e-01,-7.712022979908694786e-03,1.035967672429952691e-01,-4.735189551671354913e-01,3.529120815537680755e-01,-8.939909490878994447e-02,3.624428362213786281e-01,3.166636453048776723e-01,3.272560574556979685e-01,-3.678168280236482346e-02,3.776391190526844355e-01,4.589483723589214970e-01,2.303320349930054745e-01,1.514473766238840780e-01,-1.515371364539719323e-03,-2.078305382882424945e-01,4.901382484290475183e-01,-2.472119559364366337e-01,-1.096696045463982916e-01,1.149858333655521259e-01,-4.488521155919419359e-01,-1.754524527984476778e-01,-4.490219703382397620e-01,-1.720711119869989814e-01,3.995656283845129275e-01,2.550088811801565214e-01,1.459671980243576472e-01,3.431666435139764104e-01,-1.907055005710605045e-01,-4.499995310052695707e-02,-4.181580029671969623e-01,2.058560462347018838e-01,-2.238380584938390871e-01,3.495211522044923136e-01,4.159032562778913755e-01,-5.100102230527581160e-02,-3.534786781560987912e-01,-2.205807961504674397e-01,-6.846285410675423400e-02,-3.753544126308192563e-01,1.371211002946287616e-01,-1.118201111881189647e-02,-4.248665771894987175e-01,3.828565354042204882e-01,1.482476000316026443e-01,4.364158306209700022e-01,1.809270137434777492e-01,9.062544996080834636e-03,7.649517835972030610e-02,3.144999691361483052e-02,2.322278241489911244e-01,4.428200275923920293e-01,3.314478476506678151e-01,2.274067981870785404e-01,-3.662208227352653500e-01,4.567268253632853492e-01,3.046751387159524205e-01,2.162253340931462597e-01,-8.881733106141731504e-02,-4.901069930901957861e-01,4.816313250651662603e-01,3.134988032614485221e-01,-7.714227939974083181e-02,-1.936083235565343452e-01,2.615895399401750865e-01,4.191397679557591349e-01,1.768170901548556939e-01,-4.787769864245423612e-01,-2.132644725716136280e-01,3.966297401803680067e-01,4.784837466229183711e-01,-2.736471544469947226e-01,-3.483637744998935304e-01,-4.688816830741209252e-01,-1.310627267296022858e-01,-2.392813534163613642e-01,1.143265835957112397e-01,-1.086957391411274010e-01,-9.107930354512394633e-02,-1.498626146980864826e-01,-1.161119237012173677e-01,-5.965443877447684784e-03,2.895427945693486160e-01,-1.304425591888644931e-01,1.664843246630247631e-01,8.301725993672393056e-02,1.092531871695010537e-01,-4.851320630733612083e-01,3.650262420318052259e-01,2.642855392147491767e-01,-4.474532051108670583e-02,4.865790016840262355e-01,9.514050535744933423e-02,4.910229470035603061e-01,9.938190924299905582e-02,-2.708425587622599329e-01,1.146660901969013269e-01,1.957616090698229838e-01,4.182769701140660601e-01,-4.092595508488154898e-01,2.910491746588179662e-01,7.769604836502053136e-02,-4.256998961081265298e-01,-4.987822355007970332e-01,2.011277550669765546e-03,-4.844730224698653442e-01,9.575910794469799647e-02,-2.927713559900035900e-02,3.808743719015572626e-02,1.415958164295940680e-01,-3.185414568341864427e-01,4.057472279924710934e-01,3.377795672839586372e-01,-2.331320845567637079e-01,3.191605487492142901e-01,-4.134707762231905059e-01,-3.798234425209401355e-02,3.779988276907544353e-01,-9.388985824876638908e-02,-2.459164805549038935e-01,-1.247547252373394366e-01,4.387773925354834237e-01,3.273054121413075945e-01,-3.192941320442087560e-01,-1.803146897716383368e-01,4.876061925748961245e-01,4.904683615997635915e-01,3.940104938946071833e-01,-7.542385892234548805e-02,1.417830339478488577e-01,-1.243191413225939179e-01,3.680254851601860722e-01,2.205217033636062141e-01,4.793459144894908208e-01,-4.067017315197011262e-01,3.581958024184438427e-01,3.551035124956177791e-01,-6.137129337589841693e-02,-1.517047423834660957e-01,3.128906285158195022e-01,8.381218005264767790e-02,9.608704810453072565e-02,6.332786235159859611e-02,7.615212779238411667e-02,-1.548139946486254415e-01,4.509324050262764061e-02,7.759814546803078805e-03,-4.186196925498307797e-01,-1.833570051167421333e-02,-1.792427198632868812e-01,9.765444242865117808e-02,1.072328190900290190e-01,-1.487047359929483115e-01,1.835758118271411110e-01,2.315418183569587507e-01,2.229570625776496895e-01,-1.451710255311683406e-01,-1.969033995067178688e-01,2.245442951579038615e-01,3.381349005080972470e-01,-3.087292406918474841e-01,4.968223807709126749e-01,-1.499711924741563562e-01,-1.773136364675003129e-01,-2.857957782102195088e-01,-4.591301904570255221e-01,1.455821234369331085e-01,3.763636955377832605e-01,-1.070985563807140828e-01,4.522191866423774798e-03,-4.272034144467018457e-01,6.191616746627626178e-02,3.863835527075208942e-01,1.023993638944747930e-01,-1.874327672924112065e-01,3.792729960254339616e-01,-3.498044303732248395e-01,-3.366824069597528224e-01,3.213765066738899501e-01,-1.507979498335910717e-01,-2.809500339623873799e-01,4.990772935976228730e-02,-1.542320189597881086e-01,4.868616219054591188e-01,1.430073274793483007e-01,4.060818317822285639e-01,4.381186678512682953e-02,3.087478247313332202e-01,3.702149774939876847e-01,-8.728496954779152439e-02,-2.024222033095821605e-01
9.677989414736565266e-02,2.499176342598962153e-01,-1.613740732493195162e-01,-2.623717512233897375e-01,2.346737472578004358e-01,2.693088409587908183e-01,3.760777824059607921e-01,-6.605978754015973120e-02,-4.929519947650073952e-02,-3.863414849946447127e-01,-3.355925911448428556e-01,-2.492653995238984788e-01,2.139900512014163425e-01,-7.068772330865980003e-02,7.815935500308812678e-02,-4.092815362963797554e-01,-2.942560427527132205e-01,-3.232280276851706713e-02,-1.265459949710291410e-01,-4.182666328202090389e-01,4.152784915944668365e-01,3.265481527479263679e-01,-2.587772095750381363e-01,-4.269287482137794631e-01,1.360879459856950691e-01,3.168168126295840548e-01,5.024736349641212296e-02,1.607671231839948867e-01,-2.439294929086628372e-01,-1.278567233498006939e-02,-1.347015105218920539e-01,-2.261134629916251582e-01,-1.452509026304533712e-01,4.074609716688150085e-01,4.229598497443961547e-01,4.676255929799491007e-01,1.513421330977721135e-01,-3.077130765730806683e-01,2.671443032939482265e-01,3.226172118597213645e-01,2.494530520755173786e-01,1.197178151675508673e-01,-1.247072659743077017e-01,-4.801014249823997160e-01,4.712250315074379969e-01,-1.256433465259902960e-01,2.034711963489977959e-01,1.851160268212576065e-01,3.460062116181129577e-01,1.724855760564927287e-01,8.057871032113705922e-02,-1.266147374590398389e-01,-2.395804726673973484e-01,-1.167087600909330058e-01,1.772556072211795009e-01,-1.200516411730208066e-01,-4.467256544387361306e-01,-5.554407378079007085e-02,3.656501163019167944e-01,-4.075960180930482402e-02,7.124924939895205256e-02,-1.909912085908995749e-01,-7.013427417906425987e-02,-2.742640365375393907e-01,-4.528513900044498497e-01,4.653939841808458766e-01,-1.060319108020751910e-01,1.253967901142690744e-01,-2.877767424275030628e-01,1.315176424771979935e-02,-2.181650989319829925e-01,1.786742343365587127e-01,-4.116671295116369755e-02,-1.412503763642658505e-02,3.467104189475340714e-01,-2.200185095814527481e-01,1.658818081814457113e-01,1.106306937561978287e-01,-1.438677847219762551e-01,8.834887606786101522e-02,-4.284073817563461839e-01,-2.392333908691690603e-01,3.236964831117140617e-01,4.445158556715338438e-01,3.876259959618290063e-01,8.655394130702076527e-02,4.431224371369301140e-01,-3.512516873282032215e-01,3.203235467496758915e-01,2.875613677803998680e-01,1.111697784602433403e-01,-2.589882096113671484e-02,-2.758346703889926754e-01,-2.932439395752051148e-03,1.559451854459040776e-01,-4.106984751621277629e-01,-6.236331084879276343e-02,3.995812499362806358e-01,-5.498722242416231865e-02,1.386093127057183017e-01,-5.534326101345699023e-02,-1.238566964581295782e-01,3.553340637358887166e-01,1.617443274732300873e-01,9.733073216975374198e-02,2.913672161577810504e-01,1.036435869827421197e-01,3.566135609895793035e-01,4.021487534639011097e-01,1.435417051123601961e-01,1.531460104058114391e-01,-3.890911054172646599e-01,-2.332247011343814291e-01,3.570743694548967895e-01,-1.627820107451450893e-01,-1.939185226421156205e-01,-4.505118971908751435e-01,2.812710422776287800e-01,3.991535736388605038e-01,-3.595289602581387411e-01,2.728367882768248931e-01,3.706963568871678438e-01,3.776235205122469019e-01,-3.773150282696987601e-01,4.522784240307538006e-01,1.822590044128422626e-01,-4.036487248846429843e-01,-3.547749826425368180e-01,-1.645383373581337239e-01,-2.866044405527681249e-01,1.837928255684573298e-02,-3.661596578560490922e-01,-1.416912726364466524e-01,8.549641948993214058e-02,2.120707048974694864e-01,4.097779310725127022e-01,-3.418178262538500434e-01,4.547612612298614909e-01,-8.273005144517631138e-02,-5.367627574530375867e-02,-3.797923449198126189e-01,-3.496850600325822622e-01,-3.236993916648871483e-01,4.304321329452819311e-01,4.212384957737427271e-01,3.550369563371661430e-01,-3.594325800081754618e-02,2.593702233076887742e-01,4.650936003746556358e-01,3.771921615536305561e-01,-1.436126486943235525e-01,-4.098938516818898536e-01,-2.812659045612200259e-01,3.735529653881196621e-01,1.569858748693723216e-01,-5.793398075638034328e-02,-4.142844126346543199e-01,3.457858526696888646e-03,-3.319579401027892285e-01,-4.456180967089207190e-01,-2.289830785558922832e-01,4.125466726525502947e-01,3.931949300908237355e-01,-1.017918194179034952e-01,2.867823522638364153e-01,-2.439577054372140674e-01,8.709905750279445247e-02,4.565339204146501295e-01,3.479247630133103231e-01,-3.730553271165809592e-01,1.362207156151309384e-01,1.128110526652765788e-01,-4.990699239245445229e-01,-1.235273136220617074e-01,-1.749493172978278110e-01,-2.212934775082208150e-01,-3.304536774290722789e-01,9.378029338885007782e-02,4.125481455645019224e-02,4.160209129103782377e-01,-4.742692545849147567e-01,-2.247515505597066365e-01,-8.158930359365013096e-02,-6.286671996717230204e-02,4.879401808956916886e-01,4.715556296371876677e-01,3.622824275899972912e-01,-3.303191041993206456e-01,-2.808354841499915988e-01,-3.592402720272954708e-01,3.174367309658093772e-01,2.934486166165513055e-01,1.131871826000252490e-02,-9.436238926846340913e-02,-4.032887783554970351e-01,6.846119198477718104e-02,-3.467429116001825573e-01,-4.227490111926011096e-01,4.898585045888383949e-01,-4.112218320963232365e-01,3.569430240463700166e-02,-4.982512610934802799e-01,-1.305576717581871105e-01,1.374175246153441776e-02,-4.343192087895080267e-01,7.908736974069097148e-02,-1.245063169567385275e-01,1.039033542258704923e-01,-1.407472426086378015e-01,4.469380396363634711e-01,6.752472274966558885e-03,4.571691460923044126e-01,4.535024536451892629e-02,-2.104160143591838894e-01,2.343377673402013972e-02,1.207653272336466355e-01,-2.108778228196943605e-01,2.151709486194066656e-01,3.371927866438219068e-01,-2.124953287912255684e-01,3.332393861203164498e-01,-4.903870793054428967e-01,-9.451504618782269329e-02,2.216436308521594345e-01,4.984356315672233695e-02,-3.371293741097091123e-01,4.253303366958435250e-01,-3.237360074404933563e-01,1.321662442996899278e-01,3.944502399013565253e-01,2.357008375286817614e-01,3.817809601564311484e-01,1.655464120391422211e-01,3.424048414041713784e-01,2.818160437559364961e-01,4.773935220847069782e-01,2.056374599644206214e-01,-1.413916022678827211e-01,-1.177414454584491121e-02,-4.759990277870314035e-01,-8.953853476282480628e-02,-5.171104062408138358e-02,5.174830751839176735e-02,-5.089486148724042813e-02,-4.198582340577010630e-01,5.917427303703381991e-02,2.634666016537738908e-01,1.668262577737388286e-01,-1.067190055759384970e-01,-1.877733751521255545e-01,4.256624664703444472e-01,1.795799748739009827e-01,-1.007946412166141892e-01,-2.336625278982173981e-02,-2.233182585283458588e-01,3.654504076310457483e-01,-5.468677157558543556e-02,4.497867156081422069e-01,4.761853010899648186e-01,-3.074535027958704703e-01,3.701623858700817671e-01,-1.580189362343362713e-01,-1.972794824967071259e-01,-2.871542222355247809e-01,-4.347691547746991292e-01,2.755680266509319409e-01,1.646642018232945537e-01,-2.529719405292767398e-01,2.807597325904409580e-03,-4.063432729067145699e-01,4.275558881193086691e-02,-3.081267317039602105e-01,5.487805629367636939e-02,2.305287592321484391e-01,-2.261272539314918006e-01,3.038205349205906902e-01,-3.132388239345094139e-01,4.534491362744028642e-01,-4.050440861966407846e-01,-1.541075323136431585e-02,1.203511726976913554e-02,1.195643286420270401e-01,4.611219091632542399e-01,2.268924012545869839e-02,1.583569622067076965e-01,1.514426345603734347e-01,2.018562668689287687e-01,1.465474344323206557e-01,2.919824365408629774e-02,-1.565460635879160067e-01,4.169383856518195097e-01,-4.546050709613997931e-01,4.807720472828627134e-01,-1.349146105770904214e-01
-3.146918903941925416e-01,1.993452573367272551e-01,2.541543778231111217e-01,-1.040443076422907787e-01,-4.554889728070341537e-01,-3.254480267976391783e-01,2.056798418115147742e-01,4.849914178616721028e-01,4.421396654019997818e-01,-2.579627729110816059e-01,2.381925254851372520e-01,-1.521195258475502854e-01,-3.334462100556014885e-01,4.147160643581905282e-01,1.368083346818401713e-01,-4.351597313115409538e-01,3.001547608346073481e-01,-2.830840967005201492e-01,1.563901933211720996e-01,2.922017561321701429e-01,-4.455368840913831452e-01,3.000790575433173180e-01,1.127856741151858078e-01,-3.199593625141885500e-01,1.529693035318957506e-02,2.037191487339606866e-03,4.794324217548172617e-01,1.908647811602229849e-01,6.651722300370421781e-02,1.390527855724743578e-02,-1.567886172615448048e-01,-1.474248937150303140e-01,4.314288218386652662e-01,-5.790129556540024591e-02,-7.440842854221108027e-02,-2.326343932544805426e-02,2.608946833928358355e-01,1.517388186351480428e-01,4.296088330506642183e-02,-6.969193742495694011e-02,3.645933887501858761e-01,1.034674741407726195e-02,-3.201626834002280209e-02,-4.981331279164290526e-01,-1.500619193173005073e-01,-5.475165648104740601e-02,-2.905179515491729259e-02,3.736219845873484102e-01,-4.909748312142248050e-01,-4.528238867659021283e-01,-4.748315666519102862e-01,7.583681515689078001e-02,2.073544078277895775e-01,-4.891187865759096809e-01,-1.591939348984154901e-01,-2.164963844830365414e-01,1.524910572140240062e-01,4.779224489647830865e-01,1.691387525427321403e-01,-4.562005978407491780e-01,2.658556602742125907e-01,-3.211813982351835461e-01,2.994722996289955752e-02,-1.466618752833815931e-01,-2.259775761146796125e-01,-7.509712378028776669e-02,1.514792224435106416e-01,2.081266724230816934e-01,-3.186019660359673544e-02,1.056112861780913459e-01,-1.564092312203501089e-01,2.311489354358511328e-01,-4.808135718038631934e-01,-6.716043252297154709e-02,-2.561016748798559117e-01,-3.957892699041944962e-01,-4.875065285734379028e-01,-3.236829251748282177e-01,-3.389823678173727872e-01,-2.936510307105906215e-01,-1.533177617866012810e-01,1.248920186587506587e-01,3.542141517111533355e-01,-4.454864264136937368e-02,4.063310904843012716e-01,4.740233613903983567e-01,-1.084821104916808832e-01,3.979530433453615235e-02,2.429331979954373333e-01,2.593305850042662009e-01,3.348569605778372038e-01,-2.914234844256305967e-01,-4.306995958332089369e-01,-4.679363757679677605e-01,2.138588114521682293e-01,-4.220356168744123782e-01,-4.545839476887914010e-03,-1.828565722522832449e-01,2.338127816773813983e-01,-9.423017733004435126e-02,-3.053634838738250590e-02,-2.948921328585620838e-01,4.823454462729734882e-01,-2.428835705629867059e-01,-2.264434303920496161e-01,-1.383814076402782867e-01,3.569388884422449726e-01,-1.132165685223182061e-01,1.978692261416598042e-01,-1.923721611990769631e-02,8.673138641994582176e-02,3.952923488183568423e-01,2.793652933133181637e-01,4.033720929539399425e-01,4.277968840065812239e-01,3.107790640331099530e-01,-2.418680239723817182e-01,-2.963516222586842774e-01,3.837608195700115132e-02,-2.676398393747492221e-01,-2.066421326819658510e-01,4.078284894431541963e-01,4.187256707185049720e-02,-8.192786887537562013e-02,3.963492315012783207e-01,-8.890667423717357742e-02,9.776484519225947523e-02,1.456360795601464586e-01,2.736906755474473041e-01,1.107386826436012051e-01,-1.466149551853528354e-01,-1.058893325476962799e-01,-2.991477735609806565e-01,-8.314799087856294957e-02,3.525078847099828439e-01,6.353252931716391050e-02,4.624201943115879843e-02,-3.504242157762166299e-01,-1.427877247823583495e-01,1.666303123440276979e-01,4.450023822019012476e-01,-3.945631734600469898e-01,-4.004599637065061613e-01,1.152319854313262892e-01,3.211342221982138589e-02,2.981030117883929353e-01,1.627552642172543917e-01,4.445349602480946904e-01,2.864352442428260703e-01,5.401402181498426991e-03,-8.173666417577718502e-02,-3.169840505238329387e-01,-7.362181570353876214e-02,-1.146435730105954676e-01,-3.903457619472135987e-01,-2.855463832446274441e-01,5.783130678993042562e-02,-2.429954389497102074e-02,-4.615830516132609640e-01,-2.636114631815221765e-01,-1.436101897332311417e-01,1.056822948015516683e-01,2.958009007814065283e-01,-1.844617855762361591e-01,2.241049796845135944e-01,-2.708449245983423070e-01,-5.484648130851921266e-03,3.976932364210599147e-01,1.974270400160917927e-01,-2.468152741152169760e-01,-4.003377889365349329e-01,-1.387396918584153926e-01,3.835594344245136789e-01,4.839914419462559847e-01,-2.792727264574185186e-01,-4.162864229416087802e-01,9.892513310809991633e-02,-1.210320042729282619e-01,2.878842148582904104e-01,-4.945038377255660533e-01,4.124846101830050848e-01,4.651726470938097879e-01,-1.495646130274801422e-01,3.769190609267949466e-01,4.471460741058856936e-01,4.538935289668393214e-01,-2.665533742939393269e-01,-1.928617564046120059e-01,2.076213326324977126e-01,-1.749955947542891632e-02,4.876789151194478311e-01,6.858456260709067109e-02,5.131274198744850690e-02,4.034570012962885865e-01,-2.191874513920194500e-01,-3.232054269870102692e-01,-3.819751991676989533e-01,-2.242664935279180538e-01,3.328168978409240530e-01,-1.441534622141560362e-02,1.583762905894351425e-01,1.340500157095918521e-01,-2.683518209339159633e-01,-1.089589037956375517e-01,-1.063169723863510718e-01,1.729824695849119243e-01,-2.198711512292691461e-01,9.653527767276137705e-02,-8.267367713689532938e-02,-3.040807280021762260e-01,-3.399021189328178538e-01,-4.521467890463672923e-01,-2.857440963826752833e-01,-1.143595284554481673e-01,5.024216634201950082e-02,-1.889478069016915507e-01,-2.807378433353987512e-01,-2.983430173547035880e-01,1.932904137551864077e-01,4.937447096704710159e-01,-2.229139583501708044e-01,1.651694284776948907e-01,-3.447702780791767063e-01,-5.760358532004927756e-02,4.788350254412913065e-01,-3.986193992769606620e-01,-3.131381651508138297e-01,2.470282902237472822e-01,-2.490271916490742754e-01,-3.244183533138064179e-01,-3.920277698552872003e-01,-1.369258063895154587e-01,3.115467736952126643e-02,-2.447911741656750850e-01,-2.123460746583791803e-01,1.243874757195382319e-01,4.858483702286654493e-01,-3.204464973291053509e-01,-2.457964814583828428e-01,1.318107450805938718e-01,1.650782775874365393e-01,3.271509129143319594e-01,1.720172843497534965e-01,3.761074014827100465e-01,4.930273688326501924e-01,1.745711048072942084e-01,4.665196372363178412e-03,-4.820222322883538357e-01,-1.686304841176577973e-02,-7.886994336203290157e-02,6.267468123149433357e-02,1.083406703869234100e-01,4.052842246993983988e-01,2.653032899794058874e-01,3.744702783911002530e-02,2.389487864015027441e-02,-4.169941291074427125e-01,-4.680471093518436820e-01,-4.167886812370199534e-01,2.741910274287779892e-01,-1.785931292533631254e-01,4.658104770251281224e-01,-1.355239024471799336e-02,-1.151071447599072428e-02,1.214272646816840773e-01,-3.438914604447865786e-01,-2.051483586466854581e-01,-4.190764499963119949e-01,-4.898215628447185610e-01,4.822049125606721054e-01,-3.700671284961640772e-01,-3.574812589738203261e-01,2.422707169483392375e-01,4.902471259199070452e-03,-1.344568578934934866e-02,-1.680488048456557637e-01,-2.367921143576824372e-01,2.762945989811828040e-01,2.021508612817040085e-01,1.701300976016966171e-01,6.795327498203573846e-02,2.161827265378507557e-01,1.834988586450656545e-01,-4.664906778982877977e-01,4.364753370692909806e-01,-9.271522805151943825e-02,2.187158624386890127e-01,3.781484308978055875e-01,2.586261636988352874e-01,3.011774616087619094e-01,1.101711256908386449e-01,4.604198830636712092e-01,3.737686905276438321e-02,-7.558302045539511127e-02
3.184211249203264815e-01,1.366894511500593712e-02,-4.162938448436545036e-01,4.268136112080757050e-01,-3.699736351110475274e-01,2.116884940789810488e-01,1.523039112119812799e-01,-4.115847930410579947e-01,3.065133253290094340e-01,-1.291605300324202288e-01,-3.701113876889895460e-01,-3.142211991692989148e-01,-2.047192268699046247e-01,1.226207661752458655e-01,2.874850472513529320e-01,2.795585906848320201e-01,-2.191294195244166687e-01,4.145948758562065795e-01,-8.077349637634922974e-02,3.016464842802936142e-01,4.121599831047697560e-01,2.734190492123632632e-01,4.624378043896999468e-01,1.646573922048593097e-01,-2.335255584780924210e-01,2.586264664893977994e-02,-4.345233044535814493e-01,-4.670075278417673559e-02,-3.094915067375918483e-01,3.881735030281099341e-01,-4.113301833507763128e-01,-1.130587568440728496e-01,3.494375654181026691e-01,1.727423321232454123e-01,-2.717215335546410149e-01,3.907363607428240293e-01,-1.152066500037151053e-01,-4.900968300769583674e-01,-3.852411181142947338e-01,1.789649146543343949e-01,3.100137053510988450e-01,-1.577485388590523785e-01,2.601600497334851658e-01,-1.761602289781929453e-01,-4.539912019877326843e-01,3.801423456296906256e-01,-2.263589109295633950e-01,-2.919503804242401523e-01,-3.355542124843384766e-01,-4.239748169492874030e-01,-3.970135589587107106e-01,-4.697514842990994088e-01,-1.990074535528038036e-01,-1.697236581570283898e-01,1.074598481280419904e-01,3.028465111820221045e-01,3.609132490722010145e-01,3.960571718274572550e-01,3.470059387890385150e-01,-2.726541745463274546e-01,-2.746165100314923446e-01,-1.262284503633992472e-02,6.328963884724814193e-03,-2.924110165236799563e-01,4.757244369472999335e-01,-2.406565005617774533e-01,1.392394198412567619e-01,3.199697526717855123e-01,-1.715002150100444211e-01,-3.701707820542786687e-01,-7.517929137252121752e-02,-2.079617672650746485e-02,1.298865323782695258e-01,4.440173467095298587e-01,-2.248932887133087144e-01,4.293794825291740169e-01,3.574176060866692817e-01,-2.796497184402859659e-01,5.219099208075506091e-02,9.703520294023915138e-02,-2.032278369386329997e-01,-3.453965249665271742e-01,-4.467709769401615461e-01,4.125023502095611638e-01,5.146170124363824705e-02,4.850807390488369730e-01,-3.164062869468092787e-01,-4.246185298372431305e-01,-2.241754568583529394e-01,1.664577847570121172e-01,-3.114415972676043420e-01,-2.573753885102206818e-01,3.445013677747829073e-01,3.665566629038147228e-01,2.682093948390481541e-01,-1.073320336553055254e-01,-3.251979571038510208e-02,-2.917303599522492741e-01,-5.308149072011181246e-02,4.809392567385606387e-01,3.327657111425693648e-01,-2.646146308554154780e-01,2.726337009813587509e-01,-4.812015768118083070e-02,1.630720717502052164e-01,4.786101480233362349e-01,-2.643305896847032432e-01,3.110071293586096353e-01,-3.991721967982211350e-01,4.311138919204332565e-01,1.834849962428356518e-01,1.778390119987713902e-01,2.155353155738369830e-01,3.475655827655722563e-01,3.594177566782826849e-01,-4.048750311469481167e-01,3.381573265754911350e-02,9.643300554902689559e-02,-2.139465096849203496e-01,-9.552041582599457570e-02,4.622516795689973756e-01,-4.155598653214090943e-01,-1.923128005643093275e-04,-2.017163871133720310e-02,4.194223745966096928e-02,3.338655915557350307e-01,-2.341235984268008608e-01,-1.714562837405197993e-01,-4.789456060334539300e-01,4.661249440736161542e-01,-3.396721143332125381e-01,2.851540545583277630e-01,3.428432176686065924e-01,1.028917742685386827e-02,-4.921294995562410790e-01,-2.794519598111666614e-01,7.814576063994427280e-02,-3.690797143953471471e-01,4.077114193373168050e-01,-1.241041393681833194e-01,1.529597453706915688e-01,-1.431795091582532820e-02,9.237153603881653741e-02,4.825416255856439518e-01,2.395168253960170412e-01,-3.266628046737812818e-01,2.882480521694568143e-01,-1.732398818526755813e-01,-1.306864732587662559e-01,-4.772803695729173068e-01,-2.806693088838635441e-01,1.198535549198056493e-01,2.601219912830282643e-01,3.339019993124566765e-01,-4.464797229248395061e-01,-1.862166944914948052e-01,-3.784739050345113931e-01,-4.258059565908898225e-01,8.058024578247724445e-02,1.211160800905589641e-01,3.969169231201344905e-01,3.393475178528635450e-01,3.692644983862020114e-01,4.928565297679484702e-01,-3.231631967202629463e-01,-2.684163606706295724e-01,-1.635383267636006943e-01,-4.470652205786576072e-01,2.051282912154002158e-01,-4.843725945003121147e-01,3.988473578484211801e-01,-7.866965614151721908e-02,-3.989722204705633546e-01,2.629219824220853097e-01,-3.339631078372140571e-02,9.930660949732372789e-02,3.564736982631954154e-01,3.057485631024718931e-01,3.909415055404430461e-02,9.613396872787993708e-02,-8.049342191453845441e-02,2.764658335558297653e-01,-3.807681784532449543e-01,-2.088337838305323046e-01,-2.600642063021417760e-01,1.496156463929805280e-01,3.995764082161022968e-01,-2.630401372153812201e-01,-3.053467960353746236e-01,-2.534596026618640696e-01,3.794994667320316095e-01,2.134725913474398995e-01,-3.933619380762582995e-01,-9.834998238876535570e-02,3.973652338524514827e-01,1.991469754735419873e-02,1.575112545171942768e-01,3.478857254178066016e-01,-4.513048385193313417e-01,-5.694806008502883987e-02,2.030736963872470380e-01,-4.308045485496863058e-01,3.018015096816092369e-01,-8.609394089283739504e-02,1.155316865327439269e-01,-2.730466511740765601e-01,-4.997825730058674809e-01,4.403878007622529234e-01,-3.278126066511795056e-01,4.193389777475240443e-01,1.512374363341288941e-01,3.004717823456173331e-01,-9.976625521626025783e-02,1.634752039770659415e-01,2.264344327283637215e-01,-4.955559388338776072e-01,3.262529931524297266e-01,-1.543371378161650931e-02,-4.625067870918588842e-01,-4.631074998847948265e-01,-4.394810320966935357e-02,-8.179760067571595350e-02,-6.783257764363836984e-02,-6.721423711403773371e-02,-2.736040561680700423e-01,-4.468679420244615619e-01,2.806469667936268841e-01,2.739712912523616373e-01,-4.149436048655733567e-01,-4.984577399652282415e-01,-4.677519463563390989e-01,-3.038925400877289240e-01,2.471061813930310880e-01,3.833563683969273272e-01,-4.010324002540683885e-01,-1.152329597023921126e-01,-1.607515263179732923e-01,1.849957126218816361e-01,-4.738488619174339167e-01,1.345017145024853811e-01,-3.148232972803390872e-01,4.687767842362409176e-01,3.294142641891558698e-01,1.559596299808878594e-01,-4.726267230380616358e-01,-3.170584215496273783e-01,4.874565797200487438e-01,-4.031489139387459675e-01,8.529691939094619091e-02,6.417377841998961330e-02,2.040514014395399256e-01,1.217327400048598962e-01,3.557874511362425496e-01,1.615283003102253589e-01,-4.053374987033827592e-01,-3.036135363457124203e-01,-4.211030048811071902e-01,-1.760381414833382951e-01,3.953858874721826178e-01,-4.006128253954520657e-01,1.492902049906724704e-01,1.213266660587891677e-01,1.556240345806300107e-01,-3.662305411775668151e-01,4.656038370453489117e-01,4.992840117761423446e-01,-4.922663597227988630e-01,-1.169362346983923162e-01,2.602132789851399064e-01,4.723375693229994177e-01,-1.164288669392732345e-01,-3.497654756849732927e-02,1.901961145331643177e-02,-4.821243174394853614e-01,-3.234389649401765432e-01,-1.188298777583286503e-01,4.654327558757809236e-01,-2.745129241982424695e-01,1.247755752783537009e-01,8.142458791237805471e-02,-2.023163988053812146e-01,-3.503125175905711375e-01,2.214372390237676624e-01,-1.209986554784143742e-01,3.345567370268991425e-01,-2.771643302461468394e-01,-4.552091417869053025e-02,2.862474905893589439e-01,4.394682090330703783e-01,-2.137970410940293053e-01,-4.719502761551810366e-01,3.300953577921750259e-02,-1.263232066440910240e-01,3.502755634584133748e-01
-3.676909306697668800e-01,1.764114788368271736e-01,-2.636040054217858586e-02,-3.463542711703205823e-01,-4.862393363600088225e-01,1.823838576232394981e-02,-1.534380793198090176e-01,4.268396177972657579e-01,1.993158245788121397e-01,4.413650343146668931e-03,-3.753347326356429869e-01,1.093541843190084517e-01,3.618071668169509092e-02,3.785437817528984894e-01,3.853913522716783113e-01,4.068257802962121916e-01,1.019631858697818139e-01,4.783894296708866012e-01,1.728441006383910628e-01,2.366677683796665210e-01,4.031274997590215126e-01,3.225344674501084974e-03,2.332997120230330124e-01,-3.422234081244615034e-01,-1.529179512741228875e-01,4.318456126025937980e-02,3.444575809926561094e-01,-3.821053306912900460e-01,2.073410613053680018e-01,-4.979782976590493293e-01,3.900017759129613681e-01,-3.857189552395299259e-01,-5.558182552007673305e-02,-3.316269315050270894e-01,-1.852495648535991135e-01,-4.060186948431409037e-01,2.016537781379053040e-01,2.851489686672959989e-01,-1.505383847841192946e-01,-3.140627095908082866e-01,-4.839002429467926802e-01,-1.175415183014807408e-01,-2.262563643297916816e-01,-3.881229886124708539e-01,-5.082572998116763330e-03,-9.484122140098050213e-02,1.358943930847882342e-01,-3.504275382620455348e-01,2.827243241578603072e-01,6.494942900329558899e-02,3.535587336307819406e-01,3.296091027891402403e-01,-3.943435019032787148e-01,2.364298302024991916e-02,-4.981127345518913119e-01,2.215701351357201032e-01,-2.764259343137364100e-01,-4.335558925640758954e-01,7.032976074767338659e-02,-1.733781315885144503e-01,-1.642797670796176668e-01,-2.954588841531307075e-01,5.153049912797103005e-02,-1.806697152544929352e-01,4.242941017159693740e-01,-7.198242509408980805e-02,4.711319833649882938e-01,2.369307034810875789e-01,6.175100812659006788e-02,-3.383097478290501003e-01,-2.872100173578439053e-01,-2.391655463943969107e-01,-1.543586452575820278e-01,3.229383446772029487e-01,-2.694041438268086619e-01,-8.514183239475014986e-02,3.972949549159132676e-01,4.177177728782669464e-01,-2.894126519596498248e-01,3.052897157266780681e-01,-4.888575695449757230e-01,-7.962990744030673529e-02,-2.628295071757880130e-02,4.103316478636058751e-01,-2.369327131913856466e-01,4.176980390383752129e-01,-2.369845229995271030e-01,-4.594483311947614723e-01,4.960995776671466295e-01,-1.150608088426400277e-01,4.614249232457133809e-01,-3.939262632872808645e-01,3.990695763368484750e-01,-3.160160482366242141e-01,-8.001701623798762597e-04,2.202622660530029197e-01,-4.049852756901195505e-01,-1.326359022120711106e-01,-4.200358447106053994e-01,4.591015772313528087e-01,-4.033331126394279487e-02,4.801680546171437358e-01,-2.508462637025049569e-01,1.668362139061358995e-01,1.677463489123307561e-01,3.643787667086451076e-02,4.068296134231775829e-01,-4.064322743308614871e-01,-2.475523940959208913e-01,4.078370462983815781e-02,2.252419409776772463e-01,-3.406360644550477934e-01,5.793269753389562737e-03,-2.726501486432659771e-01,4.302236146087963231e-01,3.604334245909259771e-01,-2.472858270284316040e-01,-3.250159732681783264e-01,-1.433315927565224079e-01,3.633143951405278793e-01,2.415989162353719966e-01,7.832004845127993331e-02,4.096593731578719311e-01,3.676390680911745257e-02,1.741139029880661715e-01,6.637748288478850789e-02,2.387295605588896086e-01,1.306464680554338953e-01,1.263565848407545156e-01,-1.046523933677605545e-01,-3.517800656289062911e-01,1.177693432859118206e-01,1.294282348161148732e-01,3.268013258750213090e-02,-1.275419368187080682e-01,-3.390994827490800834e-01,-2.242947104254148227e-01,2.152259252281725210e-01,5.066992366954203852e-02,-1.451672418685209243e-01,6.201251692169118535e-02,-2.109725184860073988e-01,3.197101910528036273e-01,4.330385571511214948e-01,4.255547566487282163e-01,-3.387496222033017368e-01,-1.361828704600596129e-01,9.995667849537459571e-02,-2.329807163102091128e-01,-1.311688509736820274e-01,3.829010756873763022e-02,2.706169485097680294e-01,-3.835659563752981116e-01,3.197623507910372087e-01,3.805812978818506886e-01,1.120273297311574767e-01,1.845126775895590265e-01,-1.829139303813855921e-01,-3.167540303608140650e-01,2.885549140052171557e-01,-4.747338704959420674e-01,4.368735498793387961e-01,-4.108727922110376740e-01,2.069340752252724069e-01,3.594658059124029581e-01,-3.706939819059608121e-01,-3.057669783881215020e-01,3.925526843349126382e-01,3.372279358552338069e-01,1.729049286871585656e-01,-1.475449944846536354e-01,-3.653765909711159665e-01,-3.736954675714071472e-01,7.951077250346294534e-02,-1.098405584398606250e-01,4.231268573504665120e-02,-3.446085929565952943e-01,3.882376425871305603e-01,-4.944857982796586615e-01,2.965279826349552783e-01,-4.007086355218113516e-01,-4.565675255016234946e-01,-2.276943313911364841e-01,-2.536828612271571082e-01,-1.384629709639325634e-01,2.044583952963713314e-01,3.762465850286963454e-01,-1.420117901047381892e-01,-3.443095256673133209e-01,-1.763532232197859706e-01,3.779705628310325860e-02,-4.902658195931937080e-01,-1.055866399375089415e-01,3.962451053632873865e-01,-1.387546037771565377e-01,-1.574432591321326402e-01,4.535096722781535306e-01,-3.822321546102236400e-02,-3.539936814593851455e-01,3.307125441976155322e-02,4.827689008527193959e-01,2.085133989849945468e-01,2.642330998728079638e-01,2.637474244936057755e-01,-2.701881722294431354e-01,2.118711633896833701e-01,-2.197535489470784364e-01,-2.229444665794999558e-03,7.049196449599226533e-02,1.631532697002563426e-01,-1.746963286132319215e-01,-7.779103715394997121e-02,-3.094819857054748047e-01,-1.034381424629990942e-01,3.344161636084295175e-01,1.640700829648183978e-01,4.304451765087369264e-02,4.328932303193920861e-01,-1.271149739135110091e-01,-2.032673157245344919e-01,1.481064772438548394e-01,6.727428876713970052e-02,6.164220044485235750e-02,2.157523553936461225e-01,5.976135391004222530e-02,-3.808942173744108706e-01,2.876780595243855210e-02,-3.159143551517604731e-01,1.480788201486544775e-01,3.963244362654606556e-01,-2.770219355246463788e-01,5.162117813702282731e-02,-4.130306056998127584e-01,-3.011282212970760597e-01,2.395253451151549973e-01,1.384287003006984262e-01,-4.573065458422681528e-01,1.794536651846850850e-01,-4.909344141808796858e-01,-4.638997559710227314e-01,-4.741261897032447159e-01,2.883828978084495009e-01,2.364023882540944310e-01,-1.062002454200150492e-01,-3.241470803879278328e-01,-3.097273983982071766e-01,-1.715913216114428597e-02,-3.083734885581174145e-01,3.224753962434259158e-01,2.122333698123135548e-02,-1.695007719549564973e-01,-4.413610650056434270e-01,-1.215636707920320081e-01,1.924228108319856467e-01,1.620288026623938338e-01,3.939935703120300836e-01,2.950934733063589333e-01,4.262310576735837131e-01,3.505526885396831327e-01,4.687139644112882086e-01,-7.380056547445124071e-02,1.967866008371035313e-01,1.210443288056913813e-01,2.432816391760511676e-01,4.273479181734867183e-01,3.256983327111038218e-01,-3.015432945072051840e-01,-2.287709834422702038e-02,-1.387095510385351060e-01,4.189837878674844696e-01,-4.402876658660089815e-01,4.697799564989220134e-01,1.205761914172073235e-01,-2.494237976012920743e-01,-4.083634033369869520e-01,-1.835860744288853041e-01,3.257641455935654795e-01,-3.312623357973640825e-01,-2.562771533178251904e-01,-4.620087435811960352e-01,4.382759404016520755e-01,3.599574103652792845e-01,-3.154864184226691126e-02,-4.042505717510506136e-01,3.900654123414052377e-01,3.709510659445811598e-01,2.607058856943699210e-01,4.321823310615324765e-02,-3.033949193939691202e-01,4.300854375246450090e-01,2.602378578101495199e-01,1.257016104812491708e-01,-4.014876785239644974e-01,-4.945615908272530392e-01
