4.196035282298149482e-01,-7.727829601669544690e-02,8.173288129732636520e-02,4.523956116954154227e-01,4.321187825492267542e-01,4.082522932896556211e-01,-3.564052502408007195e-01,-2.040611454979124328e-01,-4.042449562816625708e-01,2.006084595251297342e-01,4.154347479179074654e-01,1.764637249945364417e-01,-2.455758688723943539e-01,2.268510353830077708e-01,-4.718419767518858832e-01,-7.433903537148212060e-02,1.667538847661425017e-01,-4.060968785867313802e-01,-4.266517458110065109e-01,4.102586145364603976e-01,1.557729264130575109e-01,4.318676782756531995e-01,1.715793079680713040e-01,-2.104307624699623958e-01,3.618044220946728950e-01,4.273418593388608189e-01,2.030000364431699955e-01,-3.302120007195674667e-01,-4.340364735390974671e-01,-6.545642413653263159e-02,-1.195186702003333545e-01,-1.130486724327195436e-02,-3.181415272482808199e-01,1.233748581870692806e-01,3.031097746516144831e-01,5.721605689539699391e-02,4.036703859991117582e-01,4.567164060419410809e-01,-4.039255488913782166e-01,8.651044311678024457e-02,6.703457523569900101e-02,1.722967444648254576e-01,-1.864782956615360643e-01,-7.528107444048126595e-02,2.692159754332010824e-01,-2.920113380800193337e-01,2.322051525085783164e-01,-3.842387353226550673e-02,3.147226542467864707e-01,-2.754471083979046497e-01,-7.406742008326916427e-02,-2.119325549715911361e-02,2.492826022265859365e-03,4.552460020161057663e-01,5.738968583690495784e-03,3.825610351038881696e-01,-3.438740576422373296e-01,-8.697567752212087555e-03,3.222736515390104417e-01,-2.018083681394545748e-01,1.233368498603969465e-01,-1.298057718816331141e-01,2.994585588014109234e-02,4.799305600300265429e-01,-1.885309140753799184e-01,8.216618861801272544e-02,4.933548900250616098e-01,1.739838717893193998e-01,-2.681853934316991150e-02,-2.320464832498245755e-01,4.243722167256924749e-02,-4.179398714109922031e-01,-1.031952393260351375e-01,-2.465173585025480785e-01,-2.226839346074726000e-01,2.227318314546083977e-01,3.899882201851556651e-02,2.684751709455711621e-01,3.239846567722335369e-01,3.766677298582110645e-01,1.024123662288539682e-01,5.677366378549153492e-02,-1.595620232172383357e-01,4.712443718695622508e-01,2.057360231813241125e-01,1.245022778944540054e-01,-4.509980231528035732e-01,-3.158108331308985273e-01,-4.244078770389457800e-01,-2.940895525047393377e-03,-4.795443752600078158e-01,4.875627813177931813e-01,-2.141449534068134986e-01,-3.786135995638677532e-01,-4.395833774763697743e-01,-5.324630863837098715e-02,3.512789926637630566e-01,-3.871164374808577779e-01,4.627278527682676668e-01,-4.090476408451678703e-01,-1.427408902907140176e-01,3.123171455641552408e-01,2.758725289101721101e-01,2.276366042522297573e-01,3.206389824283450984e-02,-2.035348684641280492e-02,-2.069615220329397154e-01,4.405408578668917885e-01,-3.695868774898747322e-02,4.432437883892703656e-01,4.753169624385911174e-01,-1.491997871038107659e-01,-6.494115746407080891e-02,-1.909781858840849944e-01,-2.501621237697275735e-01,-5.606869640356126894e-02,3.256686055440231042e-01,-2.164726987552140214e-01,1.854542421644631567e-01,-8.015638524729329362e-02,-4.580938793494013783e-01,-1.676049527767476954e-01,3.186773958238711124e-01,-6.826135793781806793e-02,-4.014982948410018571e-01,2.491750705339796923e-01,3.408240674166402862e-01,4.697027071571645562e-01,2.199134057130897046e-01,4.738789264108373978e-01,-9.726542329041398816e-02,1.358109701658183344e-02,3.900562275844489113e-01,8.407757755772538033e-02,-4.505054418008965778e-01,1.834869664675253809e-02,4.217385444710378684e-01,6.252377122082231065e-02,-5.937405622405800276e-02,-4.881780325662015141e-01,4.323562732071399850e-01,-4.013619909138997910e-01,2.513941104845480723e-01,-4.981878251243332389e-02,5.221322905222069988e-02,-2.368929498985926640e-01,-7.615298846861573434e-02,3.667533983412504250e-01,-3.169190134447765761e-01,-5.598703820036687873e-04,-4.409267904443495700e-01,6.082725173534464513e-02,-2.993551172299125929e-01,-2.138838256641824032e-01,2.613930937113247976e-01,3.643811096870678279e-01,2.151437418663049161e-01,-3.545231354452774708e-01,-9.100504684062260541e-02,5.303775737532878676e-02,-2.925878106087809183e-02,2.290258695862004146e-01,4.175002426298395353e-01,-3.141330272925948464e-01,3.635349172841741971e-01,1.479067242270202254e-01,-4.520006206956810324e-01,3.424007631265020279e-01,2.906988800543908180e-01,-3.404008220399709073e-01,4.024341863191667201e-01,-4.008299249425611999e-01,-3.121043891000563342e-02,-4.179730079321382075e-01,-2.615857702397675899e-01,2.732448612088356210e-01,-4.952366420685174742e-01,-1.678876173511278935e-01,1.532527534879455366e-01,4.983540981206480147e-01,-4.975545376077584736e-01,3.117605051278138362e-02,3.150514438534628425e-01,-4.347294103973484702e-01,1.549016358570335372e-01,1.345493569073346052e-01,1.721683498049734196e-01,-3.935190594718991353e-01,-5.252145829372156793e-02,-1.714756732185229726e-02,-2.637923428104227419e-02,-1.289124009399716941e-01,-1.796999580529747842e-01,-2.003112588598381372e-01,-2.458539688710615900e-01,3.511109904048801411e-01,-1.243514820646407504e-02,4.430187770874344233e-01,-4.161662053188769361e-01,4.100313600364637878e-01,-4.631101746068555514e-01,3.186827920338586306e-02,1.439746182007884956e-01,-2.064427897075019613e-01,1.742926604450669714e-01,1.714992053044178677e-01,-4.604175576482174570e-01,2.289479736163657630e-01,-4.213042340537124231e-01,-3.973907247120788133e-01,1.717008893735871844e-01,-1.273396611897071873e-01,4.754512633412809608e-01,-3.923622550923000496e-02,3.582359214328885155e-01,4.106431373075948299e-01,4.810211937483502842e-01,-6.289642195642708433e-02,4.822571180871668695e-01,-3.543835630168751250e-01,4.394594671260021457e-03,4.833444474650625544e-01,-4.302348014075146887e-01,-1.308419483204226186e-01,4.362176270779997145e-01,2.841194219069868021e-01,8.819206064247153698e-02,1.212308507014754344e-01,-4.744044596193713881e-01,1.708175976503710780e-01,1.237450040758771852e-01,4.587223408243075173e-01,2.091569492167277833e-02,4.496872548659178737e-01,2.515663620647804466e-01,-1.338839999492550392e-01,-2.225338705515195192e-01,-1.713674888527583207e-03,1.298693869652041144e-01,4.999698945613846313e-01,2.546918842956660267e-01,4.929840544643988576e-01,-2.047536033160878288e-01,-5.976569126189501535e-02,-3.348888068384296979e-01,-2.282960941975162861e-01,-2.846073057223160729e-01,-3.182663171826888293e-01,6.765055931274033263e-02,-4.599369025512158871e-01,-2.948534772524340486e-01,2.651119839128653899e-01,2.173821017150552315e-01,2.885202360903282859e-03,-2.144608841406823174e-01,2.518313171405248685e-01,3.228166833868337804e-01,4.245307356733255544e-01,-1.492200101829703751e-01,4.589549123664977692e-01,-4.336853719871158752e-02,-6.195445004185318183e-02,4.910596081389064782e-01,-2.742141522152521382e-01,3.856032121228496479e-01,-1.671877214428872938e-01,7.747857977326244594e-02,-1.466269277751597322e-01,2.782618090333826011e-01,-1.669465727205787786e-02,6.606885081791102898e-02,-2.711185396199253805e-01,-3.547090299390723844e-01,-1.795641164633265952e-01,-3.957520952446943463e-01,4.002979888712898671e-01,3.645807718804002784e-01,4.215829016816579067e-01,-2.950712721664906502e-01,1.738860481017787674e-01,3.738252169984834783e-02,4.379905583124519275e-01,3.095158178357796386e-01,4.766514477150144424e-01,3.789109352176087686e-01,3.103650519051512902e-01,-1.754254337274726572e-01,-1.494735535348945543e-02,-4.848282894295536938e-01,-2.713060575934607144e-01,-3.369881866280444171e-01,-1.750379283972731681e-01,-1.341021073895006799e-01,1.176256143882101757e-01
-2.695372098599556621e-01,-2.424800016154370352e-01,3.669345801851930933e-02,4.861546284296640597e-01,-1.692213798047161877e-01,-2.049968953566531082e-01,-4.904279446752862759e-01,4.395160869339265197e-02,2.664618505733032938e-01,1.036392222573927491e-01,-4.658717198846484830e-01,-4.237306254679308326e-01,-3.942378268731461244e-01,1.865163620901568731e-01,-4.379400321103237292e-01,-4.750685405151134910e-01,2.249349410849226238e-01,-1.482675262580024356e-02,-4.487952376150927680e-02,3.659161599430234002e-01,4.015043348495562769e-01,1.349109040957682248e-01,4.042156830039124182e-01,3.640002701030984333e-01,4.714133261122799290e-02,3.397555537650558399e-01,-1.554567445022715377e-01,-1.234886608205691960e-01,-3.210342424503785930e-01,1.233657780967056805e-01,-1.164902215943149910e-01,-2.813036669608964813e-01,4.355832993952050147e-01,3.610019364180143686e-01,-8.046275395726898427e-02,-3.302583741630042979e-01,3.712397833025797844e-01,1.942744889412444387e-01,-1.650777785831234468e-01,4.331365130358527660e-01,4.569828990467563745e-01,-1.732721234017279288e-01,-1.776818345377492170e-01,-4.071605096301367244e-01,-4.090794187480883970e-01,-4.118505839114062761e-01,-4.461146306903052139e-02,6.360083033091079585e-02,6.157261503880828712e-02,-4.609817549311721052e-01,4.143868740177262255e-01,-2.606998591173514956e-01,7.379713654529840294e-02,-4.962421123615288199e-01,4.663516894039884120e-01,6.762811828144499326e-02,1.351769157266915489e-01,4.606313544666098547e-01,-1.850224660178205749e-01,2.757045466518082133e-02,-4.079079231629497704e-01,2.193973951956734725e-01,-3.499014560886426484e-02,2.138387811387746362e-01,-4.046592327563020008e-01,4.064841576544864221e-01,4.301346467078137614e-03,-2.157750210520070766e-02,-1.803960455300627208e-01,4.535133932360000397e-01,-3.248926533085130242e-01,-4.175077945692681203e-01,2.172985432449111576e-01,-4.376084000750368741e-01,3.449292778894664790e-01,-1.141215485037577748e-01,2.926623820854722391e-01,-1.084467524771556279e-01,2.800168438353950462e-01,4.424820954049967225e-01,3.006509293034467234e-01,3.742932697590124480e-01,-1.521130410440693081e-01,1.736608720906318570e-02,4.009731523778515827e-01,-2.151073605436006897e-01,2.314750131045594239e-01,-3.304744917702829854e-01,2.259946359600332189e-01,-3.565326292694792620e-02,-1.776585886435196882e-01,2.659389516276055021e-01,3.128621025140878587e-01,1.315203110954814569e-01,3.286886105392723412e-01,1.652852417261726492e-01,1.589804260066767227e-01,1.311043676516915335e-01,-3.163538965349665943e-02,3.364446913870218214e-01,-9.014973829340644507e-02,-3.563233617085144189e-01,-2.819807528680347009e-01,2.633974835550489946e-01,2.114397729913266577e-01,4.496451412130406666e-01,9.473415044318722611e-02,1.319995420658847118e-01,2.355525765614808753e-01,-2.700470802833773165e-01,3.597747865039730986e-01,-1.535133065552751752e-02,3.137549545803144380e-01,-1.226934393352505648e-01,-4.344042174252640276e-01,-1.389724961219637178e-01,-4.185510780734025271e-01,-5.694081621392954595e-03,-2.102550057347940538e-04,4.769256057331312526e-01,-2.270165162890696031e-01,-2.248370571087088265e-01,4.676612093994187980e-01,3.874000625166164058e-01,-8.129454205053721072e-02,-1.082341027821709378e-02,-2.915858252842247200e-01,-2.857390216624298152e-01,-1.156808980979575630e-01,1.149718173860347914e-02,2.555365084455570868e-01,-3.586231160501497373e-01,-2.166852980400025830e-01,-2.044937677871496717e-01,-3.805571241691806383e-01,-9.631323210753683917e-02,2.964889493847256974e-01,2.283211429292266725e-01,2.822826358354921794e-01,3.692847645404251367e-01,3.129865802057254509e-01,-2.412625344283124695e-01,3.884932248792886123e-01,-2.043270038846989323e-01,4.138698589260940697e-01,2.557583566034147271e-01,4.832560223454597237e-01,-3.280220311191536231e-01,-4.095107889869668005e-01,-3.538345384041121644e-01,-8.738694390754409014e-02,4.647662463089463625e-01,3.172283600671289561e-01,3.319965333523303697e-01,1.465895254721667484e-01,1.154427137351936583e-01,7.101367108961298413e-02,2.821100025525657973e-01,3.526937176485194225e-01,2.637518591260787915e-01,-4.529146049528478546e-01,2.001338171088192786e-01,5.934092569496307590e-02,-2.296219138018322781e-01,-2.964094099429870344e-02,4.085375821220321724e-01,-3.327564885954031881e-01,4.149437745267461342e-01,3.647640548539288208e-01,-2.167122717400409293e-01,-4.468217036998619607e-01,9.015965665002634299e-02,-6.631427845225024154e-02,-2.061508627786353687e-01,-6.994591834781993533e-02,2.295190819530684712e-01,4.930662179881705187e-01,2.977102947979981540e-01,3.562551941935480082e-01,4.582071547032240399e-02,-9.618908931940695073e-02,2.871020044497207824e-02,-2.155917305798362715e-01,3.886387837551128488e-01,1.761523132634131850e-01,1.200346467249761018e-01,1.519532271258948741e-01,-5.157400342948892380e-02,1.532295104636030025e-01,-7.136214915384397894e-02,-3.348928800041359732e-01,3.972357317346224548e-01,9.546979875352146205e-02,4.151959906116543531e-01,9.070963349246297103e-02,2.351966996627131712e-01,-3.763977590346507807e-01,-3.048868827421683525e-01,-2.760932445733133012e-02,8.059629542021373716e-02,2.570477315659948081e-01,1.185645448448876538e-01,1.542810086782687717e-01,4.880752335274827214e-01,2.081401562393336846e-02,2.058094226469708854e-01,-3.890326618363957323e-01,2.802088377366099836e-01,3.507776053895230728e-01,-1.665853376864943058e-01,-1.900368823926035233e-01,2.163451763502255432e-02,3.232976471820220299e-01,1.612732576817382801e-01,-2.711853622567418354e-01,2.287648580635437412e-01,1.583049721960216871e-03,3.895778673356827815e-01,-3.049572419714751126e-01,-4.387257873091009452e-01,-3.538954478866791487e-01,-3.596605309679536955e-01,1.953511881892124880e-01,3.427020081989529121e-01,-3.120628173965672714e-01,-1.946879616819318093e-01,-4.876087551165841916e-02,1.240329996162835569e-01,3.019878364425913064e-01,-6.064998400205545703e-02,4.273323963003234915e-01,-1.486844106030984491e-01,-3.458529060431115854e-01,4.020619975868572338e-01,-2.018136251519002666e-01,1.775234023155092267e-02,-3.717913052280850117e-01,-1.074357856082527318e-01,1.922967344224366659e-01,9.316336497558475038e-02,-4.459775288270423355e-01,2.553902298894287215e-01,3.194538705243239463e-01,-3.854622658916606603e-01,1.138519121220245012e-01,1.440404196185824937e-01,-3.018920567688391232e-01,5.376225986396454548e-02,-1.968363037903705370e-01,-3.381523160665844685e-01,4.148839462323854477e-01,1.494053311700699327e-01,-1.765211070616846678e-01,3.082805671865717079e-01,-3.103045179555410371e-01,2.192776171297327048e-01,4.672997051179303973e-01,3.471341409911042897e-01,3.938019515040200869e-01,1.864137706411488349e-01,2.170827882376712425e-01,-8.642216440514205456e-02,-1.258296767561053464e-01,1.322074445795509146e-01,-1.450987494150597357e-01,-4.880425846999703055e-02,3.131471688483312699e-01,3.286622821309745923e-01,1.008012463734947461e-01,-2.431257226845009445e-01,-1.166849934233683550e-01,-2.668434835789993409e-01,-1.714289770766885823e-02,-3.253478045765476612e-01,2.636420497514226913e-01,-4.240891653882084000e-01,-3.908982666142007956e-01,-5.363438307280532502e-02,1.152104131047940738e-01,-3.280964823332530589e-01,2.007902588137563393e-01,2.805548076925686862e-01,-3.507585475306300715e-01,8.539476123573830346e-02,-6.134614329821819201e-02,-3.288271671355771364e-01,3.863904118741605664e-01,-9.941134460502187853e-02,-1.831506390160196895e-01,2.891357360703711299e-01,4.083464446831034378e-01,-8.031799404832506983e-02,2.071750217194474608e-01,-4.917165355497913337e-01
-2.600134868209105221e-01,-3.364972874010350168e-01,-5.029684890405006215e-02,-1.829263856488407836e-01,-1.884645902040736898e-01,-1.601217100182336095e-01,6.391343821624617672e-02,-1.677070247232043121e-01,-3.771586047164943167e-02,4.535154419739374498e-01,-2.418366448075234265e-01,2.893204492497772895e-01,5.405320338924413104e-02,5.082111214105866637e-02,-4.562114004350298346e-01,4.220332036955900534e-01,-1.369349249522354706e-01,-1.023238979964440354e-01,3.645192838409305747e-01,4.759528722960865155e-01,-1.647636420224531939e-01,2.160656284335635835e-01,-4.845431848866554869e-02,-4.048226745871149612e-01,-4.899909003842568556e-01,-1.390155312448431157e-01,3.009074227424342052e-01,4.497528943355233455e-01,-2.110049866080082603e-01,1.746509593955185569e-01,-2.038519739192201641e-01,-4.767862177808410706e-01,-1.963673083280714771e-02,-4.254749346853049508e-01,8.971136259228640331e-02,2.588990595319839993e-02,3.720908747811453310e-01,1.024736358719576801e-01,-6.898331958031256317e-02,-3.689479464383427221e-02,1.511289071541804807e-01,-8.891423752739335828e-02,-2.179832303322375431e-01,1.205694364183852452e-01,-1.008329286472497976e-02,-1.329079606399208302e-02,-2.076360783666700849e-01,3.996264773231855694e-01,-3.789867696972467614e-01,-1.242478818450449829e-01,-7.131552429252407954e-02,4.088492946952483331e-01,4.153571200587304890e-01,4.696339560792076595e-01,-2.542664009070672027e-02,4.680802712644638319e-02,-2.089167785707923830e-01,3.062527534744513558e-01,2.730502465346518193e-01,3.378189431219362771e-01,4.029303047611680899e-01,2.626710056932035631e-02,1.982671393390027514e-01,-7.186490174986781554e-02,-3.054760016952685620e-01,3.249082546382741077e-01,2.430104176554135353e-01,-6.725175648269099415e-02,1.006185009971189981e-01,8.153933968661486453e-02,3.752433045136271961e-01,2.366803733426431355e-01,-4.236854828489157176e-01,2.246503153374430628e-01,3.153385417279265246e-01,-1.046449527205783880e-01,2.562398494950748340e-01,-4.167762820543705615e-01,-3.278729435115302904e-01,-1.694285259302991120e-01,2.041203235793195292e-01,-4.893228975308161477e-02,-1.883889763736432688e-01,-2.639885644083556082e-01,7.774927384332819269e-02,4.857956278968608155e-01,8.360155192859175521e-02,-2.386809713151638590e-01,2.128934554975012716e-01,1.082144734350377613e-01,9.030834883110694378e-02,1.613895499625508378e-01,-4.146660398959436389e-01,1.545868064348850934e-01,3.285137785822503931e-01,-2.933027029415081754e-01,4.977539212013656345e-01,-3.939845307708249589e-01,-2.808435419419574863e-02,1.765983252795026992e-01,3.219863052886435817e-01,-2.715381344451573975e-01,-8.514601569871482756e-02,3.309847451447978095e-01,2.911084179797832627e-01,-2.428839867413804532e-01,2.196027462960795651e-01,-8.487026497288818749e-02,2.654656125868932737e-01,-1.920221103953074770e-01,3.583981299837091239e-02,3.105456202207779182e-01,3.165361627208014283e-01,-1.097480364855220047e-01,-1.895602918934112813e-01,-3.290666497717075201e-01,4.008330565120649114e-01,-3.917344640421079882e-01,-2.387888294855802229e-01,-3.212769413137511743e-01,1.835169642384054667e-01,-2.857148413906382967e-01,6.814234489082948709e-02,-3.866365151795386756e-01,-3.460146346002979101e-01,-1.285456481366815673e-01,3.311103182694314917e-01,-4.121666277367803666e-01,-3.646700812103658151e-01,1.361703633069779595e-01,1.450289213878750427e-01,4.156715426353556619e-01,3.857074110297709080e-02,4.795368483196903453e-01,2.070547246573427591e-01,-3.832721819785718242e-01,-9.284846060676932300e-02,3.355802629167015105e-03,-4.771024351380789286e-01,4.409728145574520752e-02,-3.661850594646333112e-01,1.907460517734425043e-01,1.238796273335519560e-01,-6.716054990213971010e-02,2.481849361202944637e-01,2.984526926144804859e-01,2.954775629315542496e-01,3.294181364151771430e-01,-2.067423646411099547e-01,2.974689700824505456e-01,-3.942638055483563830e-01,-4.354476136951119791e-01,3.595025526237316527e-01,3.191116390392424451e-01,-1.211791844051547384e-01,4.390656621069836119e-01,-1.400206566139167164e-01,-2.290178867370580296e-01,-9.599418916098267918e-02,-8.665889884476507543e-02,1.539088476275713990e-01,-1.445010369102391889e-01,4.311309767223896472e-01,-2.392299781266489234e-01,9.894777835590007342e-03,-3.859059947313893124e-01,8.597292292648006651e-02,3.968763867178126681e-02,-9.904029191465868465e-02,1.227425276101165030e-01,-2.136235207046349727e-01,-4.606901010478896552e-01,2.963972288807110722e-01,-2.905914030482207311e-01,-2.494347508792021939e-01,-3.982964099716784778e-01,-9.694941666277623327e-02,8.932336606203716833e-02,1.648223805730252289e-01,4.617461664345641204e-01,2.143547439253349340e-01,-2.553372483736024989e-01,-6.616754565308480274e-02,3.236543071957493911e-01,2.854685473437788001e-01,-5.314139952120666699e-02,2.427121081548272441e-01,3.019912486521012518e-01,-3.078567373095197901e-01,-1.484534076406758274e-01,-1.042955268834352411e-01,-3.743053915512739582e-02,3.043779634412946411e-01,-2.784815283945929476e-01,3.537434018866830732e-01,-2.683311714188230113e-03,3.238531001187040514e-01,4.292257047372715073e-01,9.727635962188030394e-02,2.794195942503113761e-01,1.119416317420918183e-01,2.940097560944024968e-01,2.036370042018841309e-01,3.242196865191091515e-01,-3.259785596840822919e-01,-3.919651555403516063e-01,-1.318730839414544720e-01,3.189233271371875178e-01,-4.969816889680839234e-01,3.548167164895948966e-01,1.620163253396845748e-01,-9.024399579658171078e-03,-3.449463337614636638e-01,3.876085424940918234e-01,-2.825154586013447489e-01,4.460877072908223662e-01,-1.557225546317198006e-01,-1.934454401406904278e-01,-4.826727432382629246e-01,1.966066141890587815e-01,-3.948274179167714504e-01,4.223947344921741287e-02,-2.065134439987377224e-01,-3.879015745031823004e-01,4.890416346298553929e-02,8.520792911194785546e-02,-1.680490152704123830e-01,2.316774915620103403e-01,-1.824293023575082051e-01,-4.941692503435943795e-01,4.104395687425249628e-01,-1.781953416882032792e-01,-3.058556201678267472e-01,2.882220474246296460e-01,-4.223327242397181269e-01,-2.748620568359899652e-01,4.647559506973968357e-01,4.779041482593232582e-01,4.521960645106977150e-01,3.884537260616223175e-01,-2.381566209309590176e-01,-4.188349574338475767e-01,1.044703114035849811e-01,2.895202232997052816e-01,-3.166284656222494442e-01,-2.616206929404323311e-01,2.351478552787585885e-01,-3.308065754916483803e-01,3.739470806489632038e-01,-1.836283801908545898e-01,2.188806401495209109e-01,2.107964405468744085e-01,-2.170072543839399737e-01,4.469227069716125156e-01,9.387325383472544527e-02,2.400244760311851522e-01,3.373596724862436558e-01,-7.619088110047267381e-02,-2.668638716472235828e-01,3.246880801098764868e-01,1.308348456854914188e-01,-3.609918244892382777e-01,3.027270609666411483e-01,4.298523972567446227e-01,-1.561024044859884441e-01,1.389437163390605523e-02,-3.972900119617369663e-01,-9.722565179938302826e-02,8.039810532181579372e-02,-2.086686931846503112e-01,-5.499832417290106967e-02,-4.809925101781293844e-01,-8.154207654702427810e-02,4.485389371246062407e-01,1.981799029343709329e-01,-1.019716756716102513e-01,-2.405649109824943288e-01,-2.972324341496171973e-01,-3.455279251587216605e-01,4.423585073953903990e-01,-3.897047004160275607e-01,3.963643982058207005e-01,-1.536375896184791756e-01,4.579301458927166335e-01,4.886588456440144057e-02,2.097361486677891129e-01,4.985469108072295708e-01,-4.885050995797584061e-01,4.656018908976168325e-01,8.949965964965944654e-02,-9.335946534029049282e-02,2.004192879619159928e-01,6.929264128298751046e-02,-1.136910699035010852e-01
-1.654580313433585692e-01,-4.542023554817739006e-01,7.826881656895745554e-02,3.033476600839377646e-01,-4.259302710919179447e-01,-1.288194241229416726e-01,4.186434624262977966e-01,2.509035490152996539e-01,-2.033073148783481887e-02,-4.398102710887865641e-01,-4.927426994415980976e-01,-4.188973991921386419e-01,2.844056394419598455e-01,-2.399875099752687424e-01,4.366923578050708743e-01,-1.002307902968787579e-01,-4.831760675684385609e-01,-3.571849306093539678e-01,-1.626008885740048981e-01,-4.952304331087783451e-01,-1.419997361220908250e-01,-2.201197526316200914e-02,2.369141971498689436e-01,-4.688971696248827037e-01,-1.811736669062239402e-01,1.315056697286554055e-01,-2.514349664284687424e-01,-2.819470621965717294e-01,-4.647467847268306196e-01,3.672569565253169799e-01,2.682428396707730034e-01,3.700347593800481505e-01,-8.030962071255620671e-02,-2.848033339412159304e-02,1.959060746284135845e-01,9.828673538725862802e-02,2.693485293647549517e-01,5.832954458105921169e-02,-4.926076734417390579e-01,1.554956098515313245e-01,-3.215802257119483309e-01,-4.811604572575746142e-01,3.180249123569645064e-01,4.811240119799522486e-01,4.619926096994608766e-01,-3.892393292824403161e-02,-2.653190642520655285e-01,-2.953087445537387890e-01,3.151333016112403129e-01,-3.193159019865329240e-01,-4.944438384323333047e-01,1.048901144536704688e-01,3.724543168112818270e-01,-1.808179137990375551e-01,3.977797309192898645e-02,6.090924600784963783e-02,3.234627661128590681e-01,-1.207163441944949511e-01,-4.522171548600055768e-01,1.047585794089880284e-01,1.473627569647688595e-01,4.193487493932570587e-01,5.113696226687503010e-02,-1.183457116629068606e-01,3.403179947064960409e-01,-1.991076524119251845e-01,-4.246860092790557539e-01,4.225442999788034948e-01,-4.520990169658620772e-01,-1.912544674222279584e-01,-4.159605516513095180e-01,-3.935517359917346525e-01,-5.792246375884757548e-02,1.682742371243511892e-01,-4.715483960544537556e-01,-2.964499492612726606e-01,3.639442516719525456e-01,4.733248332630258792e-01,-8.782949550741703248e-02,6.426742434958421235e-02,4.661533351637906497e-01,2.167447415413377154e-01,4.289474308681934245e-01,-2.996045849134907346e-01,4.149120130476207091e-01,4.639932496783294447e-01,1.741975388320928797e-01,2.736819849769428492e-01,4.009718694255810512e-01,4.438826894340067719e-01,4.219053541198607427e-01,2.481342281553248208e-01,4.117016925653538273e-02,-3.897417757376463454e-01,2.772175619860861584e-01,-4.281516887713787689e-01,-3.884689531074151381e-01,-2.452479868338288682e-01,-1.710072325081649636e-01,2.046291012691709987e-01,1.137337265894436955e-01,1.401903888685501753e-01,4.217709374585268955e-01,1.054943595606984141e-01,-1.257569249795742472e-01,1.150515751226183214e-01,2.664481181149176425e-01,2.809314060638901100e-02,1.206572963408680810e-01,3.114001523712317532e-01,-3.286296545422197068e-01,1.479856233655937325e-01,1.334847962002506661e-01,-1.074552944087359130e-01,1.388662959288198273e-01,-4.588329172959084712e-01,1.350934001414459962e-01,-4.285568984639962498e-01,4.833557263065506593e-01,-2.274313700319189335e-01,1.395095440904899897e-01,-4.167953570559520537e-01,-3.217545559462636762e-01,-3.826854852215411107e-02,-1.903316259277150202e-01,3.983729542922375133e-01,7.327895562393549334e-03,4.472317822945027777e-01,-2.102137924135958347e-01,-2.307350625336089811e-01,-3.966928734981929328e-01,-3.493943793812364085e-01,-2.241489497730744240e-01,1.854823077173933799e-01,-1.769773119104770531e-01,2.776328964762563301e-01,-2.300452435304021215e-01,1.098111493291940022e-01,4.559675620105775318e-01,-3.256310107946115417e-01,3.062097465196901291e-01,1.242773831577943522e-01,2.853800636913403910e-01,2.703387305507868321e-01,1.448766838227355525e-02,-7.560543241649886337e-02,4.334673632988852443e-01,-2.563572342125307602e-01,-2.319228066363949736e-01,2.965212083931190179e-02,3.714329491785689497e-01,4.979227091806116556e-01,-2.303719485601771755e-01,-4.400328113732899782e-01,8.833024007720180482e-02,-1.946333806317379622e-02,-4.804276233370947669e-01,4.813690433189962148e-01,1.398821284234132989e-01,-3.499453613968079857e-01,-3.223961685163666546e-01,5.470353017331730516e-02,-7.195840964583122279e-02,2.990257147816752781e-01,4.670215928087545487e-01,-7.596406016156687091e-02,-3.723821833540768012e-01,-1.571224557685839684e-01,4.441501391627662443e-01,3.905382808203956557e-01,6.374228368540724166e-02,-8.171766708433403359e-02,3.760891916784093736e-01,-1.461979427820928601e-01,4.585193444412697383e-01,8.800385657419562691e-02,2.520083364875517207e-01,4.743464356081714683e-01,8.639548334458369006e-02,2.399589122904081107e-01,-1.558858933337514685e-03,8.107102849040037640e-03,-3.474834484825033432e-01,4.447602945579073319e-01,-1.223426987104692110e-02,-4.907839831606134462e-01,-2.432704997299605099e-01,4.245366294807951801e-01,6.790924995173031053e-02,-6.353463231632205943e-02,2.953920368923900197e-01,-1.312998805649367995e-01,1.220021669813842191e-02,4.819521179751223849e-01,-2.827174339162689121e-01,-1.623873160603312993e-01,4.906065852788419335e-01,3.573928766665579460e-02,2.414643285084776547e-01,-2.942812688447080660e-01,3.141703577146413018e-01,2.509789594470730467e-01,2.577039547433498390e-01,1.880356837053592800e-01,-2.621907596198583823e-01,2.128828006539948969e-01,-2.409636223328665006e-01,-2.024941308746641688e-03,-3.417997652686394217e-01,-2.383569451366200909e-01,-3.242006477029656386e-01,-1.960584526175246367e-01,1.507541535365114482e-01,3.340081728318643473e-01,-1.740350284328279207e-01,1.014568624030178778e-01,-1.493607399217170562e-01,3.822683901946600793e-01,-4.654727161699433458e-01,7.667937908429800498e-02,4.307709545794770056e-01,4.783819489757785703e-01,3.438172830787473711e-01,1.967275780961753595e-01,3.227386113259718137e-01,-4.848207218364198878e-01,-2.490473409755433742e-01,-1.500102794774953452e-01,4.913461834960921593e-01,1.930475072045851892e-01,-4.729392593735720629e-01,2.186283224757078480e-01,-4.364051803448996125e-01,3.596969687000566296e-01,3.952833582155316217e-01,8.669785576611144240e-02,-5.176777031807622276e-02,1.795434831925932784e-01,-9.375409031005932370e-02,-2.365345448053285393e-01,4.217480508350426316e-01,-1.065255332817975908e-01,4.122772884697205598e-01,3.485415067880326401e-01,-2.406971967207218732e-01,1.117454199175660357e-02,-2.829416303798104604e-02,4.321191413378677737e-02,1.399700180335207156e-01,-3.291626159623906034e-01,1.112358960205582781e-01,2.601632523831569621e-01,-4.756522920897281459e-01,-3.340646397692228486e-01,3.712281559621503080e-01,-2.529446041856168170e-01,-2.549874166140957410e-01,4.966349701173299325e-01,3.630602065393840894e-01,2.227184671298709784e-01,2.741513424213202210e-01,-2.001180420165645790e-01,2.900464643692693967e-01,-3.551194991236942267e-01,-2.745415939589568310e-02,-4.588611486833896747e-01,3.680147967761884242e-01,4.876457695535303394e-01,4.955820670738750877e-01,-9.616767827870786878e-02,3.043652021126757035e-01,3.373403818593558867e-01,-4.688105598324191492e-01,-3.359290741962425164e-01,2.464097420385535919e-01,2.057849269357467925e-01,2.360442493900822836e-01,-1.869456089506946750e-01,-2.794153587330413524e-01,4.455360073597652848e-01,-2.002101681865732230e-01,4.924528641214727109e-01,-4.571487395056716974e-01,-1.923978227011533537e-01,-4.309307145172102116e-01,8.202569686188732057e-02,4.437850894052554063e-01,-5.690295381648224904e-03,3.588557471272472155e-01,3.794541840015042133e-03,-1.145145874957448351e-01,4.101355404877258248e-01,3.182949209153158598e-01,5.687416514067789031e-03
3.660954497645948491e-01,4.674567153470041703e-01,2.307942458333400726e-02,8.942555444293831535e-02,-1.681704772101166867e-02,3.207283464924548522e-02,-1.467590031047050214e-01,-3.283267083734958680e-01,1.917072976795142214e-01,1.094586741104959238e-01,-4.326621255465227245e-01,-2.342154098354672920e-01,3.306665244305847517e-01,3.518484570948020584e-01,-1.505410705375183067e-01,-2.612065632363841372e-01,-3.503473178877052341e-01,5.319846688081020236e-02,5.575961503001336528e-02,-2.179638876984190121e-01,5.016524764037777473e-02,2.737681845911459355e-01,-3.164493217184047857e-01,-3.940003786767831695e-02,-4.447853747869594532e-01,1.102228488678279605e-01,4.064389704447779472e-01,-4.944259087436145839e-01,-7.741029587742909168e-02,-4.394251827124762144e-01,1.561267095407333771e-01,2.126341775830533631e-01,-1.828475941042174702e-01,-4.777176402993260629e-01,4.624849539615062399e-01,4.356069473937351777e-02,-2.962856603003339862e-01,-4.580870595615734731e-01,1.909903716194499834e-01,-4.427723965656495952e-01,2.504627957488890777e-01,4.712641645592359207e-01,1.515933992266582653e-02,2.823426218977707070e-01,3.386471809415140255e-01,-3.400751145346404547e-01,3.172348466845779091e-01,-1.687617845759243895e-01,-1.308197734353898634e-01,-2.813690111933210281e-01,-3.477843134497436983e-01,3.642099582646692868e-01,8.729878241841493303e-02,-1.496111644949627006e-02,4.662466313410962293e-02,1.193321355648007120e-01,1.820258158770449164e-01,-2.637984759834394177e-01,-4.327390202611252068e-01,1.256377009844467096e-01,-3.628094995399010481e-01,3.792702465119169863e-01,-1.474336793128376843e-01,-1.086898084749715609e-01,8.873038407956612694e-02,3.269730504247919667e-01,-4.075249458519433210e-01,6.488618108712707055e-03,-2.580878937715247456e-02,-4.398910257916944788e-01,-8.750067165104247202e-02,-2.704739071535146033e-01,2.919995158892553233e-01,2.424790936684139142e-01,4.588081149987425222e-01,3.349901094164418058e-01,-2.506043049749332452e-01,1.768820934302285375e-01,2.112850751790615877e-01,-2.138665446238420254e-01,9.631491652065549136e-02,1.997578741882710673e-01,1.144009276837820721e-02,3.781027343457595835e-01,1.415599182078737250e-01,4.731900190182055654e-01,-7.502217075580652761e-02,2.534626861460509417e-01,4.285883689611885705e-01,9.824182893565169827e-02,-1.042820851163586138e-01,-4.959164567228990794e-02,-8.350132827057099583e-03,-7.728133916421475735e-02,-3.899351691446188983e-01,3.742816220761113755e-03,-2.073780401922660221e-01,9.204868917039366050e-02,1.452519792364803664e-01,1.273098986551283174e-01,3.006856549483545304e-01,-1.805867989566447562e-01,1.244337422844540297e-01,-5.774276451646487285e-02,3.578500620847574476e-01,-4.208484517298660688e-02,6.068029947155950676e-02,-3.514831721657617480e-01,4.549571324774323022e-01,-2.041062084856325454e-01,2.825568680299422875e-01,-4.160299733869559091e-01,1.192192906886417880e-01,-3.777585239238863135e-01,9.886299590503755397e-02,-3.535598661992875869e-01,-3.069510599199618550e-01,2.096806954319762051e-01,-1.535571185003203887e-01,-4.165246973085734439e-02,-2.836301100613298765e-01,4.498633094466596427e-01,2.357237471627798842e-01,-1.090665463926971945e-01,-5.978665422271045582e-02,6.007839457959818219e-02,1.204501919238120111e-01,-1.488680097357822918e-01,-4.172128096357901050e-01,3.229850140688598215e-01,1.509699190582149964e-01,2.857888469552903876e-01,-4.319909837372358785e-01,-4.977404252080837033e-01,-1.989877988783782525e-01,-1.105843623202190651e-01,-1.363488887225217105e-02,6.304282628431501223e-02,-2.000260985442483541e-01,-1.257979777212389072e-01,-3.461302500343297339e-01,-4.021728698066828755e-01,-2.755253222846671957e-01,4.040901322350060054e-01,1.699694426449844809e-01,8.040462985535246077e-02,2.129013859704793621e-01,-4.594029826666956584e-01,6.006616010187293409e-02,4.525318613009442492e-01,8.951028626745571870e-03,-2.664329942000354112e-02,8.303627843158367661e-02,-3.459387213324236487e-01,-4.704146780265294758e-01,3.996028169831072896e-01,-1.004316312658648513e-01,-3.850803469017671787e-03,2.884428270606530509e-01,-4.421150639053860187e-01,-1.508810904133955910e-01,2.305602916172880823e-01,-4.508721974953415756e-01,3.373472019339478489e-01,-3.199287345711973041e-01,-3.788569810567274931e-01,3.215871722795159426e-01,-2.034670969310388156e-01,2.381770000450896818e-01,-1.505627897040123786e-01,3.139793827909017621e-01,-4.175659084016358769e-02,1.352293904723642637e-01,7.339980375794974421e-03,-1.902335415888648518e-01,1.683456080928018572e-01,2.484022510395211825e-02,-3.981211330486578159e-02,-2.721167185184497628e-01,-3.719344753772277912e-01,-7.028109366904378152e-02,-2.546627019351345167e-01,-1.276732343719814144e-01,3.476006169589799244e-01,3.978720548552874270e-01,3.232027387235176796e-01,2.676798717676920347e-01,-4.790171774073799238e-01,5.998194294201653065e-02,2.084939143397372963e-01,-1.804285549016204637e-01,-3.523362483959531222e-01,-2.596971219535882947e-01,-1.739725659027965277e-01,-4.425699680936087121e-01,1.435565820264141923e-01,3.905283192848464369e-01,1.487361890341528659e-01,-2.998281429424219935e-01,8.369818288132579998e-02,-4.591959961102806131e-01,3.650926385485290249e-01,2.353371020172917438e-01,-3.693877997992069950e-01,-2.222855100149302432e-01,-2.112584609609114983e-01,-8.379266089553705221e-02,-1.765383930110832056e-01,3.556500079755710031e-01,-1.100028300403397274e-01,7.816546026677173575e-02,-3.097157962253449526e-01,-1.653801343022618386e-01,1.690836504517652106e-01,4.898612828026559507e-01,2.827154384303436352e-01,6.018400099013798688e-02,4.413607552868190620e-01,4.465894122936215904e-01,4.158017782775891291e-02,-4.648996304438511862e-01,-1.502527984794402860e-01,4.060672180791591312e-02,-1.332793027684417986e-01,-1.455475908322353407e-01,-4.624072087059172276e-02,3.171514752397186498e-03,1.579738699789601242e-02,1.708112543418160989e-02,-4.571453160897520629e-02,3.314899994615367884e-01,1.909452692635137394e-01,7.855012901046720675e-02,3.969685234618169911e-01,-1.057653663631604735e-01,-2.326422554339968585e-01,1.041865794574883264e-01,2.357418687452378370e-01,-1.224373143360626415e-01,3.938559276346229598e-01,2.593114646331140527e-01,2.168802092627760691e-01,-4.171994127670238806e-01,-2.371895555454542892e-01,-2.436505996795054196e-01,-1.737615050184808663e-01,3.476908000798989429e-01,-3.381657380087468301e-01,3.306339211558451119e-01,1.317537349023668591e-01,2.040387812992482397e-01,1.162918525166135586e-01,2.406088854158012769e-01,-3.323188984031341109e-01,-4.738054645963194478e-01,1.328101156353923562e-01,1.986411173309745593e-01,-4.055981009098414969e-01,-1.490554739231610970e-01,2.674060176613534123e-01,-1.730113540478886991e-01,-2.017488794781473471e-01,-6.352424177073390243e-02,-3.010810188311268121e-01,2.398145202521584363e-02,3.880320593557806674e-02,-1.650872173384982933e-01,-2.487793212745490479e-01,1.293131170819867837e-01,3.791498111523299297e-01,-3.719807158220804766e-01,1.450734705281776504e-01,6.485107257606903541e-02,-4.231800838759527394e-01,2.282898452315229587e-02,4.393835659124546433e-01,-3.358781694573572674e-01,-2.586760868131534608e-01,1.269671302204743446e-01,-4.009308118317609360e-01,2.130920236392979117e-01,4.700500875575145399e-01,2.574771858658969625e-01,4.381420703938111449e-01,-4.454634865208977335e-01,-1.761225703508806362e-01,-2.467660904929869226e-02,-3.769275104356089034e-01,-1.314150690605008220e-01,3.735495885772381897e-01,6.671706665052024032e-02,-1.908162493709602003e-01,-3.252508359041139663e-01,4.791592210003295937e-01
-4.182900387877108717e-02,2.540040471782202269e-01,1.471679633136746546e-02,3.685800192956629751e-01,3.766546960926814291e-01,-2.813760417513522238e-01,3.975358165237065089e-01,5.477879920753780940e-02,4.495651335733429343e-01,4.129789060654763810e-01,5.730170769951881127e-02,-1.722897030783228089e-01,1.321080474300214691e-01,2.745411014198091415e-01,-4.599090597185143681e-01,-4.351172027727971958e-01,-2.320794139301722847e-01,-3.447931851148088311e-01,-2.551005284883508528e-01,1.129825626080893652e-02,3.783568573837591265e-01,4.716033272999268222e-01,6.543970351605710167e-02,-5.657028602725489019e-02,3.967435360066470240e-01,2.637848215091794790e-01,5.530854566859477739e-02,-6.755371848606051000e-02,-9.318248803025563909e-02,-8.598415101594392151e-02,2.737198696858839098e-01,-1.627625370485067391e-01,1.436667516730927296e-01,-2.195568313897749979e-01,2.747448053745216168e-01,4.246228566892115142e-01,-2.457842562820636845e-01,2.654331256218256385e-02,1.991389291165406306e-01,-3.551543309299838302e-01,-1.943464454011706311e-01,1.039740345450635983e-01,-7.280905865704967450e-02,-4.963191099031644127e-01,-3.335691945171037620e-02,-2.422453562953520434e-01,-6.060932540410468583e-02,4.303544208238123669e-01,7.361415417009231632e-02,2.053885881160717464e-01,-3.910199941065972684e-01,-4.050209027148782281e-01,2.946542946440910971e-02,3.995334137462341895e-01,-2.282763995845183969e-01,2.539144550037972792e-01,-2.406888870006570480e-01,3.252784951607596842e-01,2.461371676254426877e-01,-4.659754733281916694e-01,-2.055875168076578552e-01,1.789563661153409369e-01,-4.258758507549894601e-01,7.278022213270840535e-02,2.197920872565327643e-01,7.911687378796761205e-02,-2.587179282577399819e-01,4.793121371274805531e-01,-4.433693561000017214e-01,-2.313298504665077804e-01,-4.531758296321920509e-01,-1.597043888341855844e-01,4.752234015318616001e-01,1.796294166584266883e-01,3.307023180765291670e-01,-3.387142125678158644e-01,1.962128427587216395e-01,3.979121381095168664e-01,-2.196164001322447046e-01,-4.707928319029449638e-01,-2.746308945491476861e-01,3.756623526845705996e-01,2.356651061773784583e-01,-1.335437199267432984e-01,3.671387575612078402e-01,-6.945199349915509579e-02,1.789010193039392016e-01,-1.681485020091859628e-01,3.470716352007948702e-01,-2.716570623457580380e-01,4.772680175961712123e-01,-2.702406710493147068e-01,-4.752706027140587430e-01,2.390784919127498798e-01,1.326290273814784149e-01,2.320843503269578445e-01,2.851337490614425096e-02,1.526020922087467646e-02,8.316432570888587783e-02,-4.155778393811624394e-01,4.015569281548736491e-02,4.865886476181350284e-01,-4.574301433733529709e-01,3.936828410933439493e-01,-4.325252338993442747e-01,-3.076412992170162175e-01,-3.937495388658570628e-01,-4.696783601922325246e-01,-7.124954518994752739e-03,-2.960595617826864423e-01,-4.543690960003555768e-01,-5.456521841140293816e-02,2.398174650735767077e-01,3.872397393857408554e-01,4.848242428313942476e-03,5.780869180986869527e-02,9.622578114589663834e-03,4.158398747457311417e-01,4.425644162257813541e-02,-2.728096588178340332e-01,-8.407724979890296435e-02,2.817811147333593169e-03,-3.899125621228446414e-01,-2.251903415538685227e-01,2.034063388118803051e-01,-4.482789197383481028e-01,2.230957396259668490e-01,2.804962121145836429e-01,-2.341672354255641686e-01,-2.814263885719738845e-01,2.179176748289490817e-02,-3.288961693418005483e-01,2.479846192774189939e-01,-1.658550773963428648e-01,1.671191139138696879e-01,-8.897769651672993163e-02,-4.656911069957487825e-01,-4.325896438602122585e-01,-5.476673797668818455e-02,3.163905604851539044e-01,-3.593004060878131067e-01,-6.880712299255997699e-02,6.335356938381986325e-02,2.924520850962321061e-01,-3.697187467087497126e-01,3.368631950222732430e-01,-4.733900806833066799e-01,3.747703931400703237e-02,1.880100875777168667e-01,4.129924394813626609e-01,4.379603373179064008e-01,-3.350281352733267548e-01,-2.049130129372518372e-01,-1.522214776337948994e-01,-1.966623925419912489e-01,4.411562914771740562e-01,-3.076581176343953228e-01,4.644013603427998849e-02,-5.386642303736677295e-02,-2.119679188223757560e-01,8.634506141634468168e-02,1.433292689322300806e-01,2.541820719397663852e-01,-4.288873218365798490e-01,-1.108161303247002794e-01,-3.881093207366403952e-02,-1.906546387579843849e-01,2.139233734089573957e-01,-1.039240219007538935e-01,3.333174725869395560e-01,5.112444604082311272e-02,2.652544767296970418e-01,4.590028243805110986e-02,-1.100537012990902008e-01,2.214114489478004044e-01,3.256782234659445496e-01,-1.028834958034204883e-01,-5.546600160253756240e-02,1.668143721309988114e-01,-4.371879592058056652e-01,2.622719891032030404e-01,-3.817413687449495718e-01,-1.775454593481901044e-01,-2.600225432736145148e-01,7.697054240584133566e-02,-3.598446543941297149e-01,-2.168984627885506278e-02,4.026034121012367351e-01,8.569337884093664037e-02,2.073177326875409454e-01,-1.077088171249619419e-01,-2.731913514045163360e-01,4.385106087652613782e-01,-3.877469453393520560e-01,-1.822616847556174369e-01,3.860872889091921945e-01,3.733543502799804292e-01,2.481726892934309481e-01,-1.203114153365976158e-01,-6.743036158552651038e-02,-4.748450901462493157e-01,-2.913180100066284917e-01,-7.087858822161696715e-02,2.021004864613352714e-01,-1.074949699575582507e-01,-3.935432528907386596e-01,3.891125067226622880e-01,4.523430646743387129e-01,6.959578825435830396e-02,-2.536005431948464839e-01,-7.691760585381657300e-02,8.210082040818766913e-02,-3.207412902840715008e-01,3.059722822442871859e-01,-2.112710237179484807e-01,4.225639448725264646e-01,3.414703262244556115e-02,-2.885804890557425173e-01,2.605202766200686026e-01,-2.734978815012215625e-01,-1.365239750938727070e-01,2.736722730162213235e-01,1.590229649712624482e-01,2.838398915903211917e-01,4.852524034295940814e-01,-6.691544305796626180e-02,-4.416840198829818931e-04,4.478893637196170729e-01,-3.029772589415112849e-01,9.740515951663675231e-02,-3.646916663098113132e-01,-2.058219549586688402e-01,-4.638143665296469154e-01,1.482557931986977495e-01,-3.174941039864928038e-01,7.252077960800340506e-02,-2.062068175835176653e-01,1.124135906908818594e-01,1.831762128682336010e-01,-4.328626652569339539e-01,-2.934955600019958366e-01,-4.457790389348901261e-01,-8.646422042889823079e-02,2.124357720391105708e-01,-3.531839487177913517e-01,1.386161824172655876e-01,-4.036959420143493293e-02,-4.842839897876415334e-01,4.865732786495846618e-02,-4.675124243852613048e-02,6.047413415224012212e-02,9.482086625477093023e-02,3.173008777743594466e-01,2.528384270761058206e-01,-2.474091126009342334e-01,-2.841390916470135641e-01,1.178833286372985567e-01,9.743354923987257443e-03,2.696167020198181330e-02,-3.089177950425802122e-01,-4.735160122123157622e-01,2.232851550192139767e-01,2.135530299403493038e-01,4.260304143504735075e-01,-4.413335693130033821e-01,-2.934804280974587787e-01,-3.849438833985459052e-01,2.815024476214105231e-01,-4.730393657599739621e-01,-3.861857721327714987e-01,2.203025327827189406e-01,-2.394671840119744211e-02,2.179484171967716044e-01,1.933935353444335981e-01,3.196522669194535871e-01,1.855135576121079710e-01,1.723025803226418962e-02,-1.044227261596472056e-01,-3.690632049275832660e-02,2.121111999995569652e-01,-4.769539034276826239e-02,-1.307256619267619380e-01,-4.753794632019523458e-01,4.219524145056153808e-01,4.175340357420420645e-01,-4.771448685227887010e-01,-1.736817845316286357e-01,4.276051144446488816e-01,-3.973602021567246290e-01,2.453584031647310093e-01,-1.454652440444407224e-01,3.410424869870283260e-01,1.789137762703062462e-01,2.142059130096376496e-01
-2.176655788430644778e-01,-4.503873682956669455e-01,-3.805524945588545371e-01,1.136363062881049490e-01,-2.115381393406103872e-01,-4.400255754716867473e-01,-3.869353043306631434e-01,-4.837399662234662667e-01,-4.047954466495177206e-01,1.066985364671049208e-01,-1.383269227614044583e-01,-3.576881319177402929e-01,8.036152389085116088e-02,1.484744837858420485e-01,-1.522378481823023488e-01,1.981872894270139129e-01,-4.357900954861049225e-02,-3.964511478079865148e-01,-4.179117602014974509e-01,-8.651681985001302699e-02,-1.962927155098177501e-01,-2.710744402878333403e-01,1.258321951714691522e-01,2.408438582125642657e-01,1.014286128236907558e-01,-9.535549448515434623e-02,4.194265068915289385e-01,2.469106775233045337e-01,-2.724943496818162947e-01,4.286501228582115797e-01,-3.301575212749991994e-01,4.436277134423862734e-01,-2.978389699152548253e-01,-1.635836017056644387e-01,-3.273264525735887220e-01,-3.787603117763386207e-01,-4.323042355600716924e-01,-4.096430010736804572e-01,-2.438593425354163013e-02,2.419859902924270667e-02,-2.731238159284207212e-01,1.090720661168901318e-01,-3.563176113182308091e-01,-2.789785351580853501e-01,3.494071054218845784e-01,1.750076139841472145e-02,-4.091666309066116503e-01,1.396191419900499886e-01,-2.130056630675358775e-02,-3.463588833100820219e-01,-1.803176864443637450e-01,2.975624750629282111e-01,1.340272603107095506e-03,3.688861331392589982e-02,4.802016824705179765e-02,3.314281100609508535e-01,1.608848925919781347e-02,-8.652408139461287284e-02,-4.707910742294963979e-01,8.550905576715983614e-02,-6.662703826244198435e-02,-1.473495934315366407e-01,-1.391421338619978076e-01,4.289553024078134325e-01,-4.693600127796475618e-01,9.535717406250010519e-02,4.604063254509682679e-01,-3.397971342081304025e-01,5.452185161637490562e-02,1.130678971350890238e-01,-3.912478080389230062e-01,3.656857932712365145e-02,2.612053292141518490e-01,-4.515487087990205373e-01,1.370365044611581151e-01,3.005501020203460438e-02,-1.404132808103548680e-01,-4.456214096891373266e-01,1.757930377550304124e-01,3.571989069841386977e-01,4.671591209493658470e-01,2.667538502504217535e-01,-2.426732704033699450e-01,-1.654182515420443700e-02,-3.054074102418686820e-01,3.750856127244994731e-01,-4.878467862201375516e-01,-4.466813123266232255e-01,-5.589979270388933941e-02,-2.984061986910565567e-01,2.461539497532398979e-01,4.473824533335226672e-01,3.062626175202696199e-01,-9.174614613694442866e-02,1.854600261022173457e-01,-1.229998355737546012e-01,5.996664190709455333e-02,7.916427627450017823e-02,3.887083300773441774e-02,-3.391107421089351037e-01,-2.459842182139782008e-02,5.983048444641880792e-02,2.126671888503699481e-01,-3.202215056933859216e-01,-4.823939248619281139e-01,1.605476153824753061e-01,3.341406407836238213e-01,-4.747722032794865488e-02,2.778391174652438123e-01,-4.422433207763346585e-01,1.609631233762216507e-01,-1.769309903190744437e-01,2.169623530992051963e-01,-3.107677271329215563e-01,1.763803676684665422e-01,2.279410601572583461e-01,-4.139144713886344640e-01,-3.707493965032105931e-01,4.284075108640353902e-01,-1.813797876610175885e-01,-1.543373516148094371e-01,-4.182893384052610575e-01,-4.098002353458862768e-01,-4.327221185268600445e-01,4.910981110168231023e-01,-4.490287806130626169e-01,4.302800903879473449e-01,4.426241269181524496e-01,2.082257965055039906e-01,3.637151960099904713e-01,-3.535827272920453179e-01,-2.533550383399549855e-01,-2.400885476791699835e-01,-1.044062750368013326e-02,-4.709685803974994478e-02,-3.674952816766008379e-01,1.279225493570936845e-01,-1.588079282045902207e-01,-3.766576162963872765e-01,-1.723668622565017738e-01,2.409160585349291450e-01,4.318426983581650225e-01,-4.002555649950695349e-01,-5.806777092776183036e-02,-1.605057567119414497e-01,-3.997183477385898298e-01,3.975813196437925079e-01,4.977919915533821626e-01,1.149623194048599029e-02,-2.312289269669484115e-01,-9.746485128800730369e-02,-6.370595191815564551e-02,3.683932845643890230e-01,-3.207037280046954875e-01,-2.404501538921783865e-01,4.356191402398608137e-01,4.769270182437823635e-01,-1.587688781491980450e-01,5.378030324515525873e-02,1.296353813016976053e-01,1.300615351878546821e-01,-4.451806312972814705e-01,-1.772948368240012673e-01,1.623846206835859451e-01,-4.618705566760956671e-01,-5.842941858395023225e-02,-4.050689151090176576e-01,-3.999498431368042617e-03,4.309729877896073535e-02,-2.702239123666283493e-01,3.155224946561027144e-01,3.842998900575542720e-01,3.093781228650421822e-01,8.614918228136092537e-03,4.658123569056593638e-02,-2.063308230156830625e-01,1.396665524022437932e-01,-1.033555291948444754e-01,1.127908831911402787e-01,3.866804457122092753e-01,-4.775130857652840621e-01,-5.637653288366673010e-02,6.838368326673849307e-02,-4.429191952486122297e-01,-2.479317625757172516e-01,6.872357241074578127e-02,3.213371626215255628e-01,-3.064817348365771466e-01,-2.142707173715314717e-01,-6.206732409386295224e-02,-2.789013824502422079e-01,-3.875538415403229076e-01,2.742588332017820152e-01,2.129939915781657866e-01,3.422675982482706880e-01,6.936432981844620205e-02,1.167861002787181635e-01,2.758765245845613556e-01,1.846467586391675741e-02,4.806278481595569474e-01,1.314976079778598095e-01,2.927273145214607242e-01,-3.442595511380648343e-01,8.319026342500668303e-02,4.678024521556976012e-01,-1.193411449621761822e-02,-3.613960515097774939e-01,-3.103085300772435717e-01,3.213824971349279469e-01,-4.823002833094823805e-01,-1.161692067338915280e-02,-4.472864112672082504e-01,4.302339436806295048e-01,1.597870333242268348e-02,-1.794603320644994060e-01,5.441186990133284329e-02,-3.185481744113491942e-01,3.014860503958922688e-01,-4.811159421052575436e-01,2.473039987013531116e-01,-2.245920981441140718e-01,2.059250044984358707e-01,3.048298637749057294e-01,-4.816515015016095136e-01,-3.778448490695942574e-01,4.549980543118986587e-01,-1.185949020377741192e-01,2.027541936457403215e-01,4.000122803535088867e-01,2.190221111602663751e-01,3.691495077963823368e-01,-3.344404467338660814e-01,-2.207212342630058277e-01,3.778110872012012678e-01,-2.633049367913609107e-01,-2.706714116915138746e-01,-2.734866146508984075e-01,2.902026747143587881e-01,3.746426249076963977e-01,2.636342154356986489e-01,-1.791626472859638719e-01,-3.288560224483479955e-01,4.046394869860474586e-01,-3.303379766264094020e-01,-3.424486708949276981e-01,-1.320086407029830156e-02,1.498893929755713561e-01,2.937102497590087236e-01,-4.728082793804385675e-01,-3.734577102343289434e-01,4.840426377965434401e-01,3.258655158494396797e-01,7.636159976883694078e-02,-2.945084569085861803e-01,4.109598475840087195e-01,-2.623930724920499058e-01,-3.335314924053329744e-01,-4.172629689307361112e-01,-6.386663094840638877e-02,3.244204480834079751e-01,2.506553224543379699e-01,-3.296853572697026058e-01,3.086355349796117142e-01,1.985150187011928136e-01,-1.531070672300135493e-01,-1.011483389437616287e-01,3.466202170353596124e-01,2.793633315743072609e-01,1.539614736227039593e-01,4.047435843068807326e-01,4.179585173892680361e-01,3.941507877923194902e-01,4.842535519234532071e-01,-1.249050777450888550e-02,1.495585661675912226e-01,-3.087144594245123663e-01,-9.552984043407919401e-02,-4.277629449030888598e-01,4.397581725717156775e-01,1.660620313101600631e-01,-3.839455020515349926e-01,-3.885959793157076625e-01,-3.844913478845349841e-01,-1.508659731638188894e-01,-6.981079373898879670e-02,2.672652808050287598e-01,-3.991452493745553110e-01,2.398809593621367142e-01,4.833279193058730439e-01,-4.229459839704632351e-01,3.415787039429095673e-01,-5.647641642096845604e-02,-1.297409133674491954e-01,-2.866714339165943315e-01
6.695820601982260811e-03,-4.000558564841387721e-01,2.730921381142469295e-01,3.723088967916156067e-01,9.784362305177762842e-02,-4.223086719381619059e-02,6.717955365371020005e-02,-1.984628741838978527e-02,-4.127134051862436648e-01,1.338500405725614462e-01,-1.019105225331523590e-01,1.338460720757506106e-01,1.462899879262913316e-01,-2.728563987785187495e-01,4.891000145190123050e-01,3.494618295598180824e-01,2.668082724106508596e-01,-2.007615846033405926e-01,2.969605344685345427e-01,1.126919318550806404e-01,-2.271690996417139452e-01,1.030318296805543543e-02,-2.269474716094843636e-02,-3.772605938338668974e-02,-8.182100479944676152e-02,3.088248839358465059e-01,-4.781723073707400129e-01,-4.785184156505353226e-01,2.853431728508204479e-02,2.919202219132327469e-01,1.064065921309720331e-01,2.627966776115421288e-01,2.675824480477210221e-01,-4.336792534371844976e-01,-4.594626449663200551e-01,-2.441176624335216205e-01,2.881821490297920008e-01,-9.508431169241005065e-02,-1.451480476832313071e-01,-7.903588079738221861e-02,-3.042605718630031486e-02,9.724844766699547449e-03,-2.644192545226683455e-01,-4.977875429119732464e-01,1.914363308980245870e-01,-4.679764280831023582e-01,-3.822717653078712141e-01,3.705312716467614731e-01,-3.312723431725363987e-01,2.081008370433143906e-01,3.968376999752021295e-01,-2.233324332945381130e-01,3.645762417068814099e-01,4.046530453787746673e-01,1.811109882262107451e-01,-9.084508221594023158e-02,-1.732442110923115841e-02,-2.904689442861964066e-01,-6.842627036987281031e-02,-3.568254174302701864e-01,2.094849293367289089e-01,4.557829398334942717e-01,3.143710013210879728e-01,4.585790951798399684e-01,-2.550102217975370733e-01,5.220135902613964873e-02,3.445695878100962783e-01,-2.164543169013499746e-01,-2.819845160766535352e-01,1.296574663623466517e-01,-1.466661729942889680e-01,3.030967356465459339e-01,6.120855629143528986e-02,3.755081976820575651e-01,-7.915935455432576706e-02,4.111390857729273485e-01,-1.310507019151696539e-01,-1.207753007845981941e-01,4.107466091105056449e-01,-2.256322551369164264e-01,-3.968135298247813525e-01,-4.803664063224829528e-01,2.364538606201193049e-01,-2.362347418402357402e-01,-3.814357508049703860e-02,-4.849375298443753257e-01,-8.614358425229506899e-03,-4.681803756201088351e-01,-2.144436048480479196e-01,2.599183029127940525e-01,-2.920370979587022520e-01,-1.882415025617358850e-01,8.696523254214594267e-02,2.399690148443850424e-01,2.350950803128176725e-01,3.201157096496128895e-01,-1.887907033327380635e-01,-4.747016570303217442e-01,-2.668244506075414524e-01,3.125916509102043550e-01,3.104634009776916503e-01,-1.955228052429222041e-01,2.107728211343585789e-01,5.209855709273170099e-02,-2.464348349246506809e-01,-4.999360699393196050e-01,2.964202172835181948e-01,3.446946352295716665e-01,4.265713470215330982e-01,-2.353189860317205229e-01,3.870676976586294726e-01,-2.039508382960349975e-01,-4.692195460437980081e-01,-8.404980733744615851e-02,3.197011923758222851e-01,-1.491883750466216352e-02,1.740175469082129167e-01,-1.278128152609390167e-01,3.368646915441494416e-01,-2.656444245098091850e-01,-3.901178103825616583e-01,-3.751131855231283341e-01,6.442498409843699925e-02,-1.559478093810129362e-01,3.556121426528191520e-02,3.665207684227609342e-01,3.884460097966937475e-01,6.581465217510917842e-02,-2.609914711195969739e-01,-9.988200702108407381e-02,-2.026971925906586591e-01,-4.607989611849634404e-01,3.411433012903946072e-01,-1.248453704259918640e-01,-7.962572793404631977e-02,2.379588688541464103e-01,-1.409705572368452620e-01,4.663279644386951750e-01,-5.196185049014911961e-02,-2.663718927116776047e-02,4.258213164804192097e-02,4.474983996395242025e-01,-1.572052304419869762e-01,-2.947163842860984762e-01,3.762556840939087488e-01,-1.986164275242127131e-01,1.790919529850104608e-01,-2.704420714394725200e-01,-4.359084395526616751e-01,-2.231358357754020805e-01,-3.538955839795598912e-02,-3.207177497619772000e-01,2.849814464067699227e-01,-1.082045668006189620e-01,-2.195865712958917637e-01,-1.309687878006907669e-01,4.666882532363232361e-01,-4.141595822052369646e-01,4.594718234105292787e-01,-2.712935193585011007e-01,3.322311044923784706e-01,8.198717853163806080e-02,1.441608914803911290e-01,4.244411564547185822e-01,7.670552052650625452e-02,2.070077093586327743e-01,1.475895797840587331e-02,-2.181872034321794551e-01,-2.753088860027208540e-02,1.753603931909056834e-01,-2.534842119458355914e-01,3.619124620804751169e-01,2.271575452796462669e-01,-1.608349458828890466e-01,-2.637422972076310934e-01,3.523154882018247891e-01,4.386884780444088028e-01,1.590772140837722892e-01,4.804529657804037512e-01,-2.991174902786901679e-01,-2.637122486860115078e-01,-3.029114042964410336e-01,-4.596822734934972177e-01,-5.802438812374155486e-02,4.776819443248561115e-01,2.364689601055550705e-01,-1.584557174408647295e-01,-5.364990434333161140e-02,1.474858634485246567e-01,-3.676484720058672551e-01,-4.797183457847770116e-01,4.411028080535702722e-01,-1.899616067465094149e-01,-4.234365502965798944e-01,-3.291144853592031794e-01,-4.719025136562167155e-01,-2.402101733368029457e-01,7.499316542114087270e-02,-2.503604576591450526e-01,4.387276914422036933e-01,-3.227123019225093259e-01,-4.507914297023779548e-01,2.878567418706771130e-01,1.845944227394172854e-01,6.431725143758226793e-03,2.008331401019546325e-01,-1.841183804874396701e-01,-1.524271401555591376e-01,1.039444221274004043e-01,-2.304901217567779659e-01,1.720649912305041163e-01,-4.760615854474825603e-01,-3.418651365252850516e-01,3.713077905590905781e-01,1.676831898869918236e-01,-1.518794754858854290e-01,-1.119904507162370333e-01,4.491746032210862660e-01,-7.837642518797194313e-02,4.484439442122049035e-01,2.849467985215360377e-01,1.202205881383332509e-01,-4.546236914573464905e-01,4.026370797280359737e-01,-1.174138631887297057e-01,-9.500450335889354392e-02,-1.875587790219099826e-01,-4.440702519898809264e-03,1.929702728780278154e-01,-1.310277025937407469e-01,-1.161315662797471893e-01,7.710355397772927777e-02,6.327544638797810705e-04,-3.806150121648145257e-01,-1.296048669609920490e-01,-3.978879145796573313e-01,3.826247666635194111e-01,3.377909580616541563e-01,-3.007184422349262753e-02,2.299089049569299492e-01,-4.559192602716354292e-01,3.496324900991655271e-01,-3.107365004616199355e-01,2.612650574165408246e-01,-1.695824562027783422e-01,-4.048467572196434716e-01,7.144347909870385482e-02,-7.044828571564276665e-02,-4.460245455870787135e-01,-3.306215423040860246e-01,-1.829946805674291799e-01,-3.294572809042030093e-01,-2.530068324319099116e-01,-2.612201355424790261e-01,-1.473107591848665798e-02,2.165442100053512897e-01,-8.353527762056289774e-02,-2.461059191010538383e-01,-1.237837131439201155e-01,2.380048442780187123e-01,3.796324103884429757e-02,-2.991337620721001844e-01,8.209787398611556597e-03,3.261846440169984263e-01,-3.612611306849377035e-01,-4.588436204533554719e-01,7.854446165521644652e-02,2.834908512661162838e-01,-3.113716381381864684e-01,2.318667410325447875e-01,-2.615761155904506863e-01,-4.389820226810400294e-01,3.244302472139498628e-01,-4.076306570492669312e-01,4.629069751019746493e-01,-4.141665825481285479e-01,1.998749309182313860e-01,6.695005724082447873e-02,-2.879839464126402460e-01,7.897121255124106565e-02,-4.353038693858045649e-01,-3.537259332148131596e-01,-1.446032835269303041e-01,9.296011866141096203e-02,-2.748482617194992761e-01,3.622775406947060794e-01,2.908429087799208057e-01,-2.211029052722117694e-01,-4.838592126355234502e-01,-3.999023158972673242e-01,-4.665909389923014183e-01,-1.940368027939108897e-01,-2.289349147324426514e-01,1.911355703126860206e-01
3.506416462283398205e-01,1.264970945568543170e-01,-3.724168533474169207e-01,-2.103917600286843159e-01,1.252960663736878422e-01,-4.595066342509412927e-02,4.667632954916097754e-01,-1.555102773108858472e-01,-2.251604164556952892e-01,-4.187840032004217505e-01,-3.334506640043199965e-03,8.496900547560792827e-02,3.558080312980038684e-01,4.565901056761223487e-01,8.825319817595100869e-02,-2.823653385858791998e-01,-2.719384254617827068e-01,2.975557283152102661e-01,-1.520074610304100737e-02,2.681813599956789362e-01,7.872015678815225126e-02,-1.321198986982714541e-01,-4.860911175818877217e-01,-1.661267413107317958e-01,4.867970605451832355e-02,-1.757280227231172720e-02,-4.240718278790818196e-01,-1.846054287561316176e-01,4.154385803781878161e-01,-1.560163092356846581e-01,4.536417578657248040e-02,2.007520278387895374e-01,3.049507133273497983e-01,2.624975967463620830e-01,4.543703380592045704e-02,-1.617608794144417272e-01,-4.159100576077942035e-01,3.747874471634868865e-01,-4.905715394765504112e-01,3.586250675333862992e-01,-4.192157129211676603e-01,-8.494212093439923450e-03,2.690779583263713803e-02,-3.579113043214093848e-01,-1.477231639004437103e-01,3.040731987829806693e-01,-1.405212523811468772e-01,-2.094004080998047579e-01,-3.021157950744841614e-01,1.443102462890444304e-02,-3.525125366576964403e-01,3.828601834008243943e-01,-4.174273400138118761e-01,-1.355637981386381696e-02,3.292815824802297620e-02,1.541340223310313506e-01,-2.566686922630068146e-01,-3.323663711884973226e-01,-1.961357604913467334e-01,1.542356909454154490e-01,4.508790846898467208e-01,2.725621843542987977e-01,4.816731324710706863e-01,-4.677023164267676281e-01,6.445993630215307579e-02,-4.643725333635049246e-01,-2.407363994527100814e-01,-4.632220840969615283e-01,3.808175151167912942e-01,3.010314728002698725e-01,1.509037616961237394e-01,4.500268915429511685e-01,-2.782585375117174742e-02,-1.208971619005498876e-01,-3.419529250250550323e-01,-3.186645306525088817e-01,3.955205262858223492e-01,-4.999253094633651084e-01,-4.502368310625506354e-01,3.718267883857183653e-01,-4.535271417137086702e-01,-2.479635725149321734e-01,2.639642242777122672e-01,-4.957210291587588191e-02,7.201559601760210150e-02,9.345119188874484450e-03,-4.813357868831927844e-01,1.367972334739137041e-01,-4.886712313043019007e-01,3.787945808141056636e-01,-4.743320093376196533e-01,4.737844430031893372e-01,-3.862308539608215741e-01,-3.631905866907146896e-01,-3.333039979798411157e-01,-3.117030643941730572e-01,-4.968058931406632572e-01,-2.547747524123122886e-02,1.495729045091075404e-01,2.888729976987003401e-02,-1.020510976619368737e-01,-3.097628000243151103e-01,1.136734795972160761e-02,3.733069672998564625e-01,3.104030993920270376e-02,-2.292837931919311512e-02,2.773296587524005652e-01,1.260153232891531028e-01,4.691619910243585156e-01,-4.686251166976599380e-01,3.853718589654034909e-01,-4.678312979736365396e-01,-3.485994302502500863e-01,-2.072754079826800711e-01,-7.509740367185524512e-02,3.438771187494585879e-01,2.323650317934328191e-01,7.710330238048124230e-02,1.130449431656503911e-01,-4.617036509515253240e-01,-2.553212182757389481e-01,-2.304223809479265528e-01,-4.497142412678158951e-01,4.207908728753368965e-01,2.189472019286586857e-02,-4.176545769874890901e-01,3.872209451617296683e-01,4.673884629536644297e-01,-3.602688560207543134e-01,3.244849921464992848e-01,-4.348384417733575091e-01,1.889554084242121013e-01,2.975267423312637494e-01,-8.523313842702739951e-02,-4.732341110819947572e-01,1.143118333459551828e-01,1.788106967747095100e-01,4.579933523485995028e-01,-4.017585497163252972e-01,-3.231865203323547320e-02,2.688758869477296809e-01,-4.513753154492038400e-01,3.941932195956737717e-01,-4.087295504608990937e-01,-3.810795190023432699e-01,-2.031005528864560095e-02,-1.720983395929380766e-01,1.024967684844325655e-01,9.826159065331740994e-02,-1.426909916283195523e-01,3.554390644831237900e-01,-2.034491039907038168e-02,-3.506966306559136104e-01,2.802022940461619260e-01,3.881310081849606020e-01,2.172026967402251874e-02,1.827973108040633621e-01,-2.998938120146090736e-01,1.335129844370220864e-01,4.671345259896961810e-01,-9.971768513884371465e-03,2.802202054991281832e-01,1.587141620298663236e-01,-2.718018802187738281e-02,-4.254190861921706146e-01,-1.541378751013759985e-01,1.932900903488863342e-01,1.804459977134097448e-01,-4.827311297377661070e-01,4.291380824973768382e-01,-3.228425027326893293e-01,4.475096214936294947e-01,4.782171513340816027e-02,2.223364243813097385e-02,-4.238774431721978875e-01,1.121071690187838144e-01,4.176102598822615253e-01,4.573739933067573205e-01,4.927842381737224109e-01,2.735110664744480058e-01,-3.171512282699051610e-02,-2.103768510739412179e-01,-3.870590788514765013e-01,3.144683702526087643e-01,3.392654213348265113e-01,2.457536037009636631e-01,3.228130363186342278e-01,-4.882083007522302065e-01,8.233966145383631030e-02,4.601397860766458514e-01,4.882112900655916077e-01,2.197373838055975970e-01,-4.190792785506087803e-01,1.644300568286519715e-01,3.011641886062577100e-02,1.742883842299483010e-01,-2.935283961359136384e-02,2.385317774375657063e-01,1.830916797278927532e-01,-4.022141318782160857e-01,-4.555314236620677804e-01,-3.344929124887426886e-01,-5.765358149616106598e-02,-3.797302050950557284e-01,-4.253732216952297307e-01,6.357685816618030561e-02,-1.666936780639181048e-01,4.900180081392716547e-01,-8.592579474307748821e-02,-4.583639005771855679e-03,-4.567050603434306133e-01,-2.828833218762428769e-01,-3.051091624026558424e-01,-4.916977683582275382e-01,2.569815846394577497e-01,2.287755048314095152e-01,-3.062434847326733767e-01,-3.526119376046431553e-01,-4.498004533408799244e-01,4.133758450659008599e-02,2.675900646286252238e-01,4.699778440882423913e-01,1.397854210755253845e-01,-2.847506990546272432e-01,2.490459407578710094e-01,-2.616556737708365388e-01,-4.567582490944440687e-01,-1.277634931354384440e-01,4.205952508686845448e-01,-2.480126350408897729e-01,2.253354961678452062e-01,3.860369421423248681e-01,-1.227954129205567346e-01,3.261415996622766267e-01,-3.692627896082402161e-01,-3.150829633352458803e-02,-1.629489623798308084e-02,4.427663846033103034e-02,7.442070729616312441e-02,1.031815825094590799e-01,2.385212765879355379e-01,-3.376413066614409875e-01,1.611090818610300124e-01,-2.842151498913674246e-01,4.785519905485454695e-01,3.662913990186937863e-01,-2.750202268727316435e-01,1.943157579628262965e-02,-4.747915548725312185e-02,1.083003637872265168e-01,3.009403555176904943e-01,-3.973920234507810623e-01,6.170529312326988869e-02,-3.284495465632051303e-01,-4.019821298278458688e-01,-7.979567716968594127e-02,3.485650868200013131e-01,-3.781690668378315801e-01,8.502677687321935629e-03,-3.665703754515448054e-01,2.366165562593680605e-02,-4.324314957635133627e-02,1.752831065055344695e-01,2.197877787716855380e-01,1.966923850641326688e-01,-2.357510213784167474e-01,2.909901431572246011e-01,3.470279777459225334e-01,-4.636457003348278816e-01,-4.355945691791651697e-01,3.728079416186218520e-01,3.671429450666238159e-01,2.749141470468456916e-01,2.281460290149703862e-01,-1.579282732649782695e-01,-1.727744936129996800e-01,1.945385472829672668e-01,1.612526784952142966e-01,1.361526967879758132e-01,2.403145322109683235e-01,5.503904824285887898e-02,2.564658648306874511e-01,-1.709926770295432386e-01,-4.249929210466802942e-01,4.974880782441477578e-01,2.507003172517029421e-01,-4.731730246551180130e-01,4.964870761229370766e-01,3.067663307408149409e-01,1.635253314423731341e-01,4.340046101223253849e-01,3.078323345352029783e-01,-2.148899973946877262e-01,-4.124561426676739417e-01
2.170699780972276116e-01,1.458927390291385739e-01,-4.308664223775928726e-01,-3.224391739972601867e-01,-4.108937873471019131e-01,3.803661615664910567e-01,4.032682206858286822e-01,4.626381876410632366e-01,2.437094233079186711e-01,3.332829934744200306e-01,-2.528125066732949122e-01,1.292636547528766000e-01,3.871162562791318207e-01,-1.357545724112666496e-01,3.439455869003871236e-02,-1.878301215195687934e-02,2.818997094095321287e-01,-4.647460005820570617e-01,-3.364977180278000413e-01,-3.109273722974947862e-02,-3.987486495180850854e-01,1.428599725367063478e-02,-1.507651881035717567e-01,3.066694014061323026e-01,-1.198626614548709002e-01,2.457612758799629926e-01,2.568943905697765873e-01,2.329873742238375289e-01,-2.460777716623673284e-01,-4.241899849969995584e-01,4.538394070565067162e-01,4.099517413231836827e-01,-4.235041176124817452e-01,3.767715256776020816e-01,-3.224902236583911952e-01,4.604699575943228540e-01,2.687820567587945186e-01,-9.489244364485072136e-02,3.798465148309523309e-01,4.722383930151091702e-01,4.681863291108546710e-01,-2.845676134940327007e-01,-4.197551354115024447e-01,-4.197406959788326786e-01,-1.434462721194945667e-01,4.889335864981111390e-01,-4.512744699404289683e-01,-4.611298631856093344e-01,-4.565851519840667949e-01,-1.704546336850299992e-01,2.753145747153690204e-01,2.299257592166447095e-01,2.907154392178015190e-01,1.215867703470752126e-02,-2.246453971678019634e-02,-1.305717021553277624e-01,4.994225637027742692e-01,-3.341566864165643747e-01,3.366320816269487981e-01,4.427148293584604044e-01,-1.456771234314632180e-01,-2.647941807418989768e-01,-3.396470741756021372e-01,3.927704378889519399e-01,-2.079035076826645234e-01,-2.732117960831486059e-01,2.360027318053778966e-01,-3.732495106523056050e-01,4.277779650716808657e-01,-2.248139261189523452e-01,-4.412953905958231227e-01,3.280858645705556631e-01,-5.608195281796135578e-02,-2.983494418788390501e-01,1.306268668617921458e-01,-3.905788363638817984e-01,1.740484293444850561e-01,3.645000928940005380e-01,3.300266717729632981e-01,3.455241631723767748e-01,-1.920626401361898994e-01,-2.974157204056115944e-02,-2.717052672211285325e-01,-3.352619651098656117e-01,9.888577785984142832e-02,-1.091545760065505410e-01,-2.252147177552437096e-01,2.466832737268658260e-01,4.564651889425370701e-01,-1.605538549057364817e-01,-2.511073424076842864e-01,-3.260392857610513451e-01,4.079721009749530669e-01,-2.677112515067581189e-02,-1.101657128250729256e-01,2.155465309200447210e-01,-1.600013580056802720e-01,-3.668472429798949053e-01,1.801616080614096838e-01,-3.786256802844044644e-01,-1.553528401574434392e-01,4.794259446510573675e-01,2.196832720416956874e-01,4.763175699364635696e-01,3.367727388678469769e-01,2.518728173104167745e-03,-1.711303701025913560e-01,2.133064129515312990e-01,1.438578210423158144e-01,-4.580701337729350398e-01,-3.562919254050556095e-02,1.183548675651820981e-01,-3.915670212233760550e-01,3.343786842946919746e-01,3.595410246865612391e-01,-1.360326366020455646e-01,-1.036801653011565350e-04,-2.988256779749727254e-01,3.938401438103850127e-01,-1.041814536911359612e-01,-1.929849152663711820e-01,1.757001724639333240e-01,-1.711897252695959715e-02,8.902214334717939437e-03,4.078934816805303010e-01,4.881718749537928836e-01,1.476597968262753913e-01,-3.390040853299558510e-02,1.957168756235536655e-01,-7.990176570056917171e-02,1.776071338182549919e-01,-1.766139109075678393e-01,3.496244988629815253e-01,3.741439510925859135e-02,-1.373224072845813382e-01,-2.374737542803597723e-01,-1.434974184866141256e-01,-1.633888499638636027e-02,2.283260526848777117e-01,-4.378319599758198066e-01,3.139775234441128937e-01,5.378571010032484612e-02,-7.534741049053605977e-03,3.323387883756646621e-01,3.316554653338243952e-03,4.496010104103353999e-01,-4.695943584329731468e-01,1.475071046229429195e-01,3.244604093905045783e-02,-2.011088788576456121e-01,4.836999854524735021e-01,-3.576137241932971778e-01,-2.105207327791649430e-01,2.420181699177912371e-01,8.037329283129435176e-02,3.559057805424615806e-01,-4.472550408320994375e-01,-3.275509747251310610e-01,3.591023655633478473e-01,3.819485887735235563e-01,-2.811246185722430235e-01,4.743880428681508388e-01,2.869008205671262912e-01,8.402839607487755380e-02,-4.484342732834117884e-01,-1.704414892975466556e-01,-2.364858972823972172e-01,4.166533546305429825e-01,-2.929862306006277839e-01,-4.662171904891622143e-01,9.081815649794600098e-02,2.419470053485629490e-01,-1.218382811304729030e-01,-9.608255170419510716e-02,3.033365224234454427e-01,3.035677929878056736e-01,-9.794248066987110146e-02,-3.251668849271985851e-01,-5.222719198390024520e-02,4.728965722392011184e-01,-2.876776055899059603e-01,-1.368162062644928678e-02,7.412424486642599231e-02,-1.256121823707057050e-02,1.169587389399107114e-02,-1.013684887707942961e-01,-3.883828175653498693e-01,-2.046453167658690564e-01,4.279179503779093618e-01,2.505396667853165837e-01,8.323733559186208275e-02,-2.485748505374865136e-01,-2.145560381616791190e-01,2.853132077296831604e-01,-3.250443826433854211e-01,2.399899584779152661e-02,2.442296843784768079e-01,2.610423880139478570e-02,4.608073521902875669e-01,2.889283742425482471e-01,-3.286022191422569572e-01,2.354608913616272892e-01,-3.412632532680537345e-01,-4.555352398461421926e-01,-3.067978667547174298e-01,3.110760243199948150e-01,8.232616383168456231e-02,4.541285239230076209e-01,2.426608840482969986e-01,-5.429877139190220081e-02,-3.586200811259463439e-01,4.120986825121091268e-01,-3.493120197679489003e-02,-4.709052572908767331e-01,-1.537612063057562928e-01,4.774019622756575654e-02,1.062944639489651344e-01,7.813100584651744285e-02,4.913135793788528938e-01,1.624423119876996502e-01,2.625634023286794738e-01,4.143017664001641398e-01,4.708464391374658220e-01,-2.290140015309694022e-03,-4.618006212247094400e-02,-2.205857701684549310e-01,4.697718776773094351e-01,4.228978644197616266e-01,2.833980567717937493e-01,-6.950521554463851004e-02,-3.146455852939853415e-01,-4.348941622962622100e-01,2.172204211661634687e-01,-2.510692048254498099e-01,6.884363075075938809e-02,-4.858025201696761775e-01,1.976355972529403315e-01,2.633206176044178282e-02,-2.603500020068639786e-01,-3.472926276541924429e-01,-4.656162629756399607e-01,-3.038711481497088363e-01,-8.418743190531818854e-02,1.709684027125309980e-01,2.121689302986558001e-01,4.545400786354850675e-01,-1.584245184854977673e-01,-2.455869767514569091e-01,3.996567562255933792e-01,1.640144889516983451e-01,-3.202764535210445018e-01,3.185953152332728910e-01,2.531453039727871168e-01,2.587843908764072554e-01,-2.656908244951199372e-01,-8.254931409006438514e-02,-2.844515525536635003e-01,3.498909392472749902e-01,3.411634743879066178e-03,3.054856493617014168e-01,-4.629392898106010623e-01,-3.976204857119096658e-01,7.206286115282323212e-02,-2.782694865279883301e-01,-3.339336295280371791e-01,-1.286588452739764188e-01,6.421812586725206273e-02,-2.068640731345674499e-01,1.352986167159099251e-01,4.547176019466000474e-01,4.463867273662616153e-01,1.968391913006554139e-01,3.894432028751080299e-01,-2.546996412700910373e-01,4.830329874797902878e-01,1.388165078993179868e-01,1.242494992275776644e-01,-1.363139549033288711e-01,-3.751966184084226663e-01,-4.205900964097196715e-01,-1.966086566166531657e-01,5.359116992908230515e-02,-3.180595373373673596e-02,-4.582161298492327672e-01,-4.598198064862801804e-01,-4.562609064164245831e-01,-2.855167972795732423e-01,-3.016090962826545319e-02,2.743057508076284234e-01,2.175049893145486468e-01,3.348861724346752222e-01,-4.760588369740480497e-01,-1.735521127772591266e-01,6.985795121071669556e-03
-4.814287725969246257e-01,1.159278455175178912e-01,2.551204876199270055e-01,8.392226893291687695e-02,1.797949380606870262e-01,-3.634487680429526746e-01,3.851916058046053193e-01,-1.384735558828082969e-01,3.658613346058043891e-01,-1.706709025534178803e-01,-1.617951512979409756e-02,4.954755902230606468e-01,-3.838142147090576328e-01,2.210264628541034337e-01,1.225708818317432502e-01,-6.276313838287728153e-02,-4.883907472396947780e-01,2.068380302836887452e-01,-3.040726303911136519e-01,-5.979036792247871546e-03,2.252644238284253753e-01,-4.902431904843840282e-01,-2.631698627166728643e-01,6.836744172923092666e-02,-4.512191862758285765e-02,-2.031249955217950820e-01,-2.339809839528915747e-01,-9.694564884430256768e-02,-1.801058039919994913e-01,-3.500741823051031210e-01,-4.437740824832283604e-01,-2.854233891460462580e-01,-4.885578253231595003e-01,-8.399652511135713429e-02,-4.865403444192721860e-01,2.923322849257008471e-01,-1.565078685865245456e-01,1.876864688887179833e-01,-3.243086850722415315e-01,4.390508166227071740e-01,4.533433786625410411e-01,-3.786710182306762817e-02,3.824595098913443625e-01,3.054368646194612902e-01,-8.162455863694351166e-03,4.010759307805659146e-01,-2.418084897025064572e-01,3.545869667966902172e-01,2.292485675751928520e-01,4.639240686717009954e-01,-1.416013633439983099e-02,4.334966730551280678e-01,1.277324512755757535e-01,1.676944475609900564e-01,4.789201048965420204e-01,-2.549582096421013633e-01,4.381700070766330057e-01,-3.767830578935829067e-01,2.534583232406119047e-01,4.973726297956816422e-01,1.466088890368260067e-01,3.783348699396337222e-01,-6.534271255833645764e-02,-3.463095389227579535e-01,3.045974981214454314e-01,1.337663367604456921e-01,1.272144364914686854e-01,4.975535779531348179e-02,3.133255942589037168e-01,3.846869476474203964e-01,-2.628241090571065142e-01,3.767080999459196944e-01,9.259490077427989796e-03,8.272165745926163272e-02,-1.227545302923291892e-01,-5.998322926608901096e-02,-4.110636389654753753e-01,-1.394382646440606166e-02,1.538151877478831642e-01,-2.326993515905622090e-01,-3.108696531902078730e-01,-3.270729621231708295e-01,-2.044210206668413132e-01,1.883151779054070829e-03,4.574384402474956923e-01,6.783864294426023012e-02,-4.593149726217531370e-01,1.705644277018705246e-01,-4.495633442954350967e-01,1.287991172024290920e-01,3.118243740678378062e-01,9.145891914358261765e-02,-4.898589375947318691e-01,1.071372822953358117e-01,-6.292784576634702365e-02,1.527237416855693475e-01,1.854289953132736146e-01,9.536644107499370193e-02,3.934422690372045839e-01,2.136590008552745612e-01,3.439318189166047368e-01,3.364025080742315543e-01,-8.980350575519757683e-02,3.612607337571167587e-01,-2.652735060515398757e-01,-3.540606763935023604e-01,1.790164597189691786e-02,4.468939898271923061e-01,1.272945553229660742e-01,-3.143687532970652621e-01,2.160015770366999766e-01,3.270405727686280795e-01,-3.464204875090555191e-01,-2.752911396001379574e-01,6.047268669400618357e-02,-1.245596868033560511e-01,2.309984125907819097e-01,2.664122400477616504e-01,3.555343046397061446e-01,2.264316301201250159e-01,-3.819371290110349371e-01,-4.736826597863650345e-01,-2.137720304354051581e-01,1.713035907976558914e-01,6.279939651595567440e-04,-5.306435258199937444e-02,-3.036803061030209916e-01,-5.588455002108283498e-02,4.752614212294099527e-01,4.414325442581364944e-01,3.487076803260402702e-02,-1.883949039746322107e-01,5.572884714145587282e-02,-3.908119663360839491e-01,7.566016403390662948e-02,4.763675695844975522e-01,1.338799366321294926e-01,3.129804548991694801e-01,-2.925479609423971006e-01,3.132944091173172074e-01,-1.212541962320475841e-01,-4.369316124942932422e-01,1.515601438081454200e-01,9.761817648836013106e-02,-1.228111497313998379e-01,-4.333484226231503200e-01,4.068599520779822010e-01,-2.037793934153059316e-01,1.130486370180779909e-01,-1.478325570886795948e-01,-3.051550558119227041e-01,4.194136850672277594e-01,-3.819668096670365554e-01,3.120256764018068951e-01,-2.447211196506722253e-01,-2.006899696728510207e-01,-1.139348986760476690e-01,-1.085421672558417594e-02,-2.374557013924031290e-01,-5.967487955362194008e-02,-2.469467136871195123e-02,2.397263396963745796e-01,-3.730618471991808960e-01,-4.182094009590856531e-01,1.353056086297473870e-01,1.651155495666989381e-02,-3.542422911838568611e-01,-2.790911834484811616e-01,2.340410021289861531e-01,2.566744635295677979e-01,1.567889038940071256e-01,3.034276995868332438e-01,1.374044303401347200e-01,-4.572820033566420417e-01,-3.603451940724589075e-01,-3.513949359874920519e-01,4.189866455134796386e-01,-2.248796392694629720e-02,-4.078995845732071857e-01,-1.645993141876911370e-02,-2.208168233435175987e-01,-1.756086532790731569e-01,3.528799427290791879e-01,1.839910454930171468e-02,-2.086884394260910547e-01,2.382111804296159763e-01,4.497722673943755911e-01,-3.147387023295815656e-01,-8.422446967436447718e-02,2.562865047449469635e-01,-3.710844562670044811e-01,1.111052431779525618e-01,3.575485555931835480e-01,1.545944461627659638e-01,3.764443417941789605e-01,4.891720474361054283e-01,2.442795563389104085e-01,-1.761886566882201466e-01,3.134255018347960053e-01,5.777649645480054108e-02,8.285176400515292805e-02,3.615645207106540360e-01,1.264409306906932873e-01,-3.859687089490297929e-01,4.277953138749476247e-01,3.332214994482517456e-01,2.820907021218655997e-01,4.981401099906926921e-01,-1.969783160036951974e-01,-1.921786393329516507e-03,-2.786084630728358214e-02,9.543326034836119298e-02,1.315288437074659811e-01,-8.810033337620437610e-02,4.449593837005891839e-01,3.376177907265104361e-01,-1.077169434801754644e-01,-3.323890074135530392e-01,-3.490291426968155086e-01,-4.149152178767293586e-01,-2.825172367780093285e-01,2.227911305556773414e-02,-2.115028388613107158e-01,-9.886309647291635638e-02,-1.883516307589797600e-01,2.197253967074325187e-01,-3.128261917412873405e-01,-4.921187474911230542e-01,4.374195638994060609e-02,-3.454772717302648788e-01,3.804421637228632136e-01,-4.580621452837818630e-01,2.038406407122154151e-01,2.356413630353537680e-01,-5.434920187564118432e-02,3.396800400173478618e-01,-3.868311146460345906e-02,-2.733297534803664774e-01,-1.123631054550866537e-02,-7.416809485301767424e-03,-4.072246179013607748e-01,-4.938725084248856145e-01,-2.390564959307609483e-01,-3.932315877132073201e-01,5.117611879851424739e-02,1.586819664426605270e-01,-1.118619237737653593e-01,-1.718392272781689156e-01,2.097216588142266636e-01,2.811199288819367093e-01,-3.944020189242466445e-01,-2.778487783103321673e-01,-2.841480511175487056e-01,2.910504177158454997e-01,-4.905836251165660578e-01,1.945769614880528131e-01,-1.831579138282656283e-01,-1.179553530589749766e-02,-1.801948241740148893e-01,-8.331256182762192264e-02,-4.317270309273402162e-02,-2.533344170092599601e-01,1.122038136669419872e-01,-1.196625744414621106e-01,2.033297471718754634e-01,4.036806343110974638e-01,-1.903750370452571561e-01,-5.431467162161596196e-02,1.867532008507333252e-02,-1.613183931949000449e-01,2.719617579134394614e-01,2.520926458382339863e-01,3.581863153351478868e-01,6.970476520520674235e-02,-3.576465365428126431e-01,4.032010886527005455e-01,-2.624893154547658369e-02,-3.243163627979990249e-01,-9.673471770671837611e-02,1.490191041224150359e-01,-4.660766233691835403e-01,-8.279343920896131692e-03,-9.289479084782725771e-02,-2.219032788273745949e-01,-1.647470294574748806e-02,-3.258815894467138596e-01,3.383935276323778440e-01,-4.916127407124681881e-01,-3.815289696966975841e-01,2.975521506950953299e-01,-2.290014076656023967e-01,2.923504199442243934e-01,2.418710697708074120e-01,9.632016034315549202e-02
-3.083196058680773843e-01,5.863559124575590253e-02,1.599328363169116862e-01,-2.053259517246528443e-01,3.420441487699227290e-01,1.044396997717605968e-01,2.976662438402166710e-01,-3.168116796418380954e-01,4.729147961522970345e-01,3.354965572462714762e-01,2.134576153818268374e-02,-4.074959362427179599e-01,-4.033571679696245083e-01,-2.505729843332881179e-01,-1.379302928762118352e-01,-4.799840274634790127e-01,6.764096719898093912e-02,2.077086776267955681e-01,3.415286331270028786e-01,-4.448521627195213268e-01,-2.825861387313006734e-01,3.313300672991363882e-01,-1.212739514360050563e-01,-3.336541505208314717e-01,-3.135979761673948207e-01,3.050120300168635001e-02,1.714649939046402061e-01,-4.180605528083355393e-01,-4.993746248908514929e-01,1.384359998365480848e-02,-4.984711936684690370e-01,2.444122107423226664e-01,1.337105690352078380e-01,2.533882911950036121e-01,9.550492643692676253e-03,-4.010909627717363923e-01,-4.496967918478241844e-01,2.826361458540105343e-01,3.779528697057525921e-01,6.635463724127976803e-02,1.430633634030296086e-01,-3.040935369142984124e-01,-2.037305936538108542e-01,-2.513474370147582571e-01,-4.370374106046657214e-01,-8.175602283506844259e-02,4.091752782564449520e-01,-5.294610336404226292e-02,2.719189243970735470e-01,-3.425695166470082986e-01,-2.711200561932264330e-01,-3.502457548089994432e-01,3.459622336567379497e-01,2.683480157472122318e-01,-2.406323030822183906e-01,2.698319949615844981e-01,1.554570616963181218e-01,2.809932509306286574e-01,-5.695416116907325854e-02,-3.344702803893880860e-01,2.251774199084610739e-02,-4.990069145153064323e-02,-3.773224389085944042e-01,2.194725108756088172e-01,-2.417254185697528257e-01,-2.092257089011424487e-01,3.637835196041231400e-01,-4.370878335888807031e-01,3.798443859420245206e-01,4.447021476563693954e-01,-1.468147035754163721e-02,-3.284006421932134101e-01,-2.909481133830328359e-01,-2.324093938540352511e-01,1.317088723058843502e-01,-3.033316989939852659e-01,-3.767998327594344055e-01,1.180706095605794648e-01,-3.639757092278322892e-01,-8.934661358644879758e-02,-1.883175136330249577e-01,-7.134363961776579721e-02,-4.316525235119170745e-01,-1.235172986846055920e-02,2.986131286032200904e-02,-2.372401379092103912e-01,4.261155098984091838e-01,3.187030042671485930e-01,3.951843938190794381e-01,-2.440184659217311536e-01,4.415990616707246019e-01,1.471281279761171845e-01,2.647467794563753696e-01,-4.337242422413288834e-01,3.516050022688071985e-01,-4.653290100178946176e-01,4.803897141116694192e-01,4.053550086360324656e-04,-3.045986213702336354e-01,1.942020542586174736e-01,-4.739782401288974434e-01,3.156150800631972730e-01,4.222185090847097033e-01,-1.761123445577494895e-01,-2.276039807365151102e-01,2.425678851326626972e-01,4.733563046491089388e-01,-2.886034606825211846e-01,-2.207912743237747666e-01,4.138802323970646180e-01,-4.251257869012252666e-01,-4.724711758778544768e-01,-4.456370173316994698e-01,-3.082357317296811061e-01,2.130652021023450304e-01,3.830562698777801867e-01,-2.855981615129833395e-01,1.975612762466859573e-01,4.850372198916974575e-01,5.800530206829479507e-02,2.788269489365835518e-01,7.484628550654792711e-02,-2.943007099603321963e-01,-4.098208423349075646e-01,-9.050777600410941925e-02,3.601585447091413261e-01,-2.622370523113563001e-01,3.916445177972525116e-01,9.387694059997597762e-02,-1.770679178772314177e-01,-4.414012769234862965e-01,8.579845217615644781e-02,-3.581688762152482886e-01,-1.611711472115973098e-02,8.242734956743535957e-02,-2.242366929499859385e-01,-1.449390814772306690e-01,-2.229827061293081503e-01,4.256815799230362352e-02,2.060680225394173615e-02,3.979355958379151570e-01,3.021934556186153253e-01,6.953586488873453320e-03,-4.802354151473342547e-02,7.934865845982008725e-02,4.128042355775104477e-01,1.710164855379525672e-02,-3.976944593998026356e-01,3.765092846445913244e-01,1.045839449327135018e-02,4.670571712818460952e-01,4.224768473105111610e-01,-2.901112811160193594e-01,-1.203175096727558957e-01,3.403446647364158917e-01,-1.175457476776280430e-01,-4.150313278945336748e-01,-2.440850318910094963e-01,-3.830406509956728600e-01,3.471619277432702599e-01,-1.714596467081126452e-01,3.972612092012683949e-02,3.313849433082983742e-01,-2.812505510310444601e-01,3.058000685071547986e-01,-1.326040004059216848e-01,-2.398944377218081847e-02,-1.066061204029555842e-02,1.149815861162545305e-01,4.337865520790311624e-01,-3.018279589012839992e-01,7.292280758879188252e-02,-3.570762633379306328e-01,-4.661517985738657943e-01,8.380841201160282861e-02,4.910799251739635940e-01,-3.649559096563836924e-03,2.005869854666092467e-01,2.017628048950828035e-01,-6.726366841863762325e-02,1.573180057970030576e-01,3.812058334736602161e-01,6.143926562638302169e-02,-5.528332948783110101e-02,2.613495925931601516e-01,3.678689841905669056e-03,-1.581275303546758604e-01,-3.720158934621019542e-01,4.180356009271668505e-01,-2.162725740222199988e-01,3.146496174182010774e-01,2.577303869900720024e-01,-2.991275024630880575e-01,-2.088174492120502546e-01,1.353885040053403044e-01,1.861912558888956237e-01,1.222943221627448285e-02,9.947941809709959227e-02,1.064978813747242681e-01,-8.325540082007443221e-02,-1.735146182181205310e-01,-2.150426996743489694e-01,1.930394195873244012e-01,4.826727714165959249e-01,2.177980677258720688e-01,-4.779649817861886252e-02,-2.574190993520593107e-01,-5.202786625127886477e-02,-3.059347324535655055e-01,3.127817232414544790e-01,-4.660037613560659153e-01,-2.832041915548599853e-02,-9.818939998828835058e-02,-9.569221380234715912e-02,-6.455216597832902359e-02,3.303493683161541350e-01,-3.471363651105093817e-01,-4.898317007917585286e-01,2.849023853008022522e-01,3.065466194361810004e-01,2.670426338201288274e-01,-3.656037155312208409e-02,7.900836251858611714e-02,-4.717036741197243588e-01,1.091341875699891606e-01,3.251459622069442501e-01,3.647491015892271315e-01,3.580881899788872502e-01,1.972576410905575450e-01,-1.428983047248618687e-01,2.197275663448962080e-01,-2.299740106295078412e-01,-2.651472061716112494e-01,2.437217831333389206e-01,-2.723705898198581776e-01,-1.902817597967921825e-01,1.370179754326186217e-01,-1.554461588374245196e-01,4.702068870439505277e-01,3.265278264976751998e-01,-3.348820438939670296e-02,-4.076185719646963079e-01,-6.517465176133141469e-02,3.918455382564658418e-01,-3.807327033938412431e-01,-2.368962171808169925e-01,8.684638799024169131e-02,-3.939276372514733948e-01,1.203301044649457419e-01,1.778425463074448931e-01,4.668841061984180252e-01,4.653421685270484609e-01,-2.516436110142659111e-01,2.003026541221681889e-01,1.275893428427652410e-01,-2.155704038009019774e-01,-2.508082685230956788e-01,4.555410209121358855e-01,1.414025088280790321e-02,-4.301052735371569957e-01,3.910744599806806887e-01,-1.299597358235664579e-01,-4.083548248444732742e-01,-3.730763549291786774e-01,-3.551777082129502494e-01,-3.393451838264434084e-01,2.595400048042344476e-01,4.339621745912044526e-01,5.724674686187092298e-03,4.242898373818155822e-01,4.859782558146265030e-01,-5.067349004689536418e-02,-3.598150521951142267e-01,-1.656766946852706868e-01,-2.607844837176830355e-01,4.432862818703237062e-01,2.498031801971438703e-01,-2.413508497462728553e-01,-2.917802716021709042e-01,6.158878066280915053e-02,3.610881465368718235e-01,2.245345034455261679e-01,4.553553192219650381e-01,-2.811266601015806055e-01,-4.599017984625776156e-01,-2.934625559372073811e-01,4.437074142738273164e-01,-9.502360883207328079e-02,-3.717635777987600143e-01,-3.346835497654537805e-01,1.940005820820058791e-01,3.926567163121567061e-01,4.266739945047826055e-01,-1.941661212666508929e-01
-1.807396359703382638e-01,-2.669037446851039164e-01,1.342371838328770828e-01,7.815980699036650936e-02,-4.374209766482984874e-01,-5.371992961328275751e-02,-3.680176302264475119e-01,-1.694884022262312939e-01,-4.408663024966621435e-01,3.922130406368331546e-01,4.401924794465963409e-01,-8.812004056730959878e-02,-4.705608426695911950e-01,1.838791877515688622e-01,-1.748278354434322779e-01,-1.432395305964551113e-01,-3.796445725834625140e-01,-2.391587791960095855e-01,2.739280709742336617e-01,-1.344862413602317952e-01,2.509461589515741275e-01,2.815526477914244152e-01,-7.188741880013072016e-02,3.231092379016837768e-01,-2.124897624066268698e-01,2.246013791979174501e-01,2.805646812011427516e-01,-4.053119167105554421e-01,1.151552750678792592e-01,-7.381809905411695905e-02,1.058169886396922443e-01,-3.623042097935393890e-01,1.975816054971308855e-01,-3.738810106755936502e-01,1.131677710587770669e-01,-7.873614151209262779e-02,-3.632382553282095250e-01,3.284211484136961845e-01,-4.197316923726397420e-01,2.419576496048650993e-01,-3.993433692245607070e-02,2.933026213703904261e-02,-4.939255447749072436e-01,-4.482707521044403398e-01,-1.875939979478122854e-01,-3.838222508971400604e-01,2.282878158396564050e-01,4.659456570469453496e-01,-8.623397060834114836e-02,-1.706709226767602061e-01,-4.242604634766017346e-01,-8.877369589667938321e-02,1.607967235108350712e-01,1.700816492499412913e-02,1.278369886897823271e-01,2.772632339394283107e-01,3.323140390317552706e-01,1.607092615752400144e-01,3.429067794593911866e-01,-4.233705955742852467e-01,-4.744993431295059239e-01,-4.250249394177019191e-02,-3.944203367718407405e-01,-3.382884232726448559e-01,-3.935709448855467807e-01,2.609003456633658402e-01,-7.362499950164180795e-02,-3.236857839575635332e-01,-3.573043877687588354e-01,4.805869130764578445e-01,1.314341206537007478e-01,2.218474263015913772e-01,-9.126517780429943549e-02,3.330083897123006231e-01,-1.738533596857515517e-01,3.190940975049585404e-01,-1.678439317943118958e-01,2.779629014209209492e-01,-2.734034459084637714e-01,-1.070226034537110626e-01,2.800889374796968756e-01,-1.161517947232458825e-01,3.019756286392727418e-03,2.947012007143567924e-01,-1.435745975065010338e-01,-7.152402384339173746e-02,2.795934015710188625e-02,-2.292003628999550457e-01,-2.763048446685396620e-01,-1.306351030700230176e-01,4.535452018378979266e-01,3.831187432040322749e-01,9.751205105904225956e-02,-4.021408387654917815e-01,-4.120372225965722723e-01,-4.399943841760710628e-01,-2.653501288006737679e-01,-3.529857887079335121e-01,-2.555742617030283270e-01,-1.054441019148144587e-01,9.651212763062644306e-02,-1.156300877653758663e-01,1.084597873973472959e-01,6.717102974662714221e-02,3.502574136131511029e-01,1.775854114489909819e-01,2.754637457813016166e-01,-3.658982587219845595e-01,-2.638239868438736480e-01,1.347450171395648821e-01,-3.341109531731121240e-01,-4.595309024667522113e-01,-3.621365781797177830e-01,-3.460601943967317462e-01,-4.598858755442425394e-01,3.533195600468375108e-02,-3.273038957425404849e-01,-3.741887695320877949e-02,-3.053780400935786066e-01,-1.947082197746246024e-01,1.353125213820393080e-01,1.528003203977652547e-01,3.815797034944353738e-01,-4.512542091496705154e-01,-4.442547309635036523e-02,-3.771580281221879050e-01,-3.167640861151165277e-01,3.592360223652580897e-01,-3.896435438743411916e-01,3.047992931011539453e-01,2.945232159446700138e-01,3.887662489399755783e-01,1.183131797491902004e-01,3.744774701873974099e-01,-3.741952118669664706e-01,-3.433218495549613669e-01,3.361890987197169167e-02,-3.831359763140063102e-02,3.679824500517040464e-01,-1.985129612748612882e-01,1.562347200591910346e-01,-4.585103154946307269e-01,-1.653373281766157277e-01,-9.058163519038897604e-02,7.121883211061386110e-02,1.471229599089857176e-01,-3.479915446581394178e-01,-3.382231920243488066e-01,1.940261466970053528e-01,-2.403521776553896316e-02,2.794750787440963835e-01,2.498762704850054917e-01,-1.207371134620993658e-03,-2.370412611647806367e-01,1.332554750292743728e-01,-1.573739915985969962e-01,-4.933418463718139968e-01,-2.307828039848103252e-02,-1.833571263968247766e-01,-2.557789187839869527e-01,-2.470314786049008227e-01,1.501067046258839355e-01,-3.888102888235001053e-02,-4.963520037793528461e-01,-1.138375773197582985e-01,2.612408077281952457e-01,-4.851951944542642892e-02,3.797013383762705141e-01,-4.992163770750807084e-01,-3.430299421726622500e-01,2.507677145200755131e-01,1.980445058982400752e-01,2.161877400402515415e-01,-3.826756127826317355e-01,-2.608134913209131378e-01,-1.720211312510444568e-01,-2.797886863696922299e-01,-3.418508873537419168e-01,-4.825871824693397372e-01,3.399805847178460905e-02,4.948537806319187604e-01,-4.808809965804553554e-01,-2.621735179603992272e-01,1.023686317079391950e-01,-4.289831632918210680e-01,-3.427148865331399730e-01,-3.605490907431249115e-01,-1.343910384596734842e-01,-1.874461841754022640e-01,1.374595641897263798e-01,1.949598248147443869e-02,-4.556645237147446403e-01,-4.626927871157070493e-01,-3.929431961561227205e-01,-5.142758465198560280e-02,1.630249544420305785e-01,1.787002137418747250e-01,4.201733281296966549e-01,2.045827826338967315e-01,9.985952952280707784e-02,3.751130603609237335e-01,-4.842412868448243701e-01,-2.276652510369051585e-01,-1.549356657846250318e-01,2.608167194189425775e-01,3.505869278953042123e-01,4.689370047732039914e-01,4.428630860224782584e-01,-9.677242636688399013e-02,-4.371072661138798443e-01,-9.198057755941146940e-02,-1.870828113748008725e-01,5.251386064091978501e-02,3.160124527486052326e-01,-3.420685871714037596e-01,-1.502317176016380040e-01,1.129638749888339788e-01,4.367195940463617365e-01,-1.311860045917235817e-01,-4.200716015506751333e-01,2.792575025880443818e-01,-7.829136661771363137e-02,3.900010057302685240e-01,4.426843977165690891e-01,-5.011116776034196807e-02,-1.960480121135766973e-01,-3.811112546576793658e-01,-3.133989753624667474e-01,-1.967960117135242326e-01,-3.818611733762918847e-01,4.883703079279189119e-02,-4.951371244769932067e-01,1.207239669299806639e-01,-2.130249127722606550e-01,-3.979460608824615386e-01,2.044708779322348402e-01,4.469966147269239798e-01,3.744195666084687568e-01,-3.122258649357334548e-05,4.131318394662460980e-01,-1.963110084360297769e-01,-8.424922521440270096e-02,-4.795586761598891190e-02,1.284115972972246222e-01,4.614083547751280934e-01,4.600469639619431117e-02,-3.413451962005951135e-01,4.401536492205748718e-01,2.518730929966430665e-01,-1.440132865723078304e-01,-2.533397052263561822e-01,2.698407982452902809e-01,2.092489336718850179e-01,-1.814246486332165009e-01,1.791276982096730030e-01,-4.889127666350525647e-01,-3.559181726574709437e-01,2.144162446710367043e-01,1.226743373661240977e-01,1.443425999795915349e-01,4.742747145976590195e-01,-2.020135281271033811e-01,2.795010313600874152e-01,2.463696569532012326e-01,1.806192581665579944e-01,8.380366127167915291e-02,-4.799038967500729447e-01,2.738885595835213183e-01,4.762009126547437354e-01,4.368919371755020098e-02,8.413441502169138886e-02,4.132169316362738209e-01,-1.508051123519574821e-01,-1.297676954883570932e-01,7.896607654129539355e-02,2.482166538473280504e-01,-8.603593934634201634e-02,-3.185162857264889347e-01,-2.703179488119035190e-01,1.308256130401213024e-01,1.025221705654367765e-01,1.233887106070216122e-01,1.018102529594122618e-02,-2.648662704415363223e-01,-1.207263499963917575e-02,2.416110752873797951e-01,-2.371166056833057256e-01,-3.236971234565173550e-01,-2.615496848892897575e-01,3.185941996547225763e-02,-1.717446620979162786e-01,-4.914876125649120242e-01,1.055093900625652115e-01,3.736596220415917546e-01
